tree
version=v4
num_class=1
num_tree_per_iteration=1
label_index=0
max_feature_idx=34
objective=binary sigmoid:1
feature_names=DE123_pos_data_code DE18_merchant_category_code DE22_pos_entry_mode DE23_card_seq_number DE25_pos_condition_code DE39_response_code DE3_processing_code DE4_amount_transaction DE52_pin_data_present DE55_emv_data_present DE60_pos_terminal_type DE61_pos_extended_data DE6_amount_cardholder_billing DE9_conversion_rate_billing MTI amount_local amount_ratio_vs_baseline amount_tx_currency amount_usd amount_zscore_customer card_brand channel client_baseline_amount client_segment day_of_week distance_from_home_km hour_local intl_high_zscore is_international is_night time_since_last_txn_min txn_count_last_1h txn_count_last_24h velocity_ratio_1h_24h velocity_x_zscore
feature_infos=[0:8] [4111:8398] [10:81] [1:3] [0:59] [0:96] [0:300000] [36:128037960] [0:1] [0:1] [0:3] [0:59] [200:1423451] [52631:63579545] none [2:14234.51] [0.00046236360273665809:3.3237210171114908] [0.35999999999999999:1280379.6000000001] [0.40000000000000002:2846.9000000000001] [-1.857794566292428:5.373749949838766] [0:2] [0:3] [250.06:899.99000000000001] [1:8] [0:7] [0:11999] [0:23] [0:1] [0:1] [0:1] [-1:91188.083333333314] [0:2] [0:5] [0.82758620689655182:2.7692307692307696] [0:5.8040943369248161]
tree_sizes=6612 6706 6714 6745 6726 6721 6718 6762 6711 6722 6759 6743

Tree=0
num_leaves=63
num_cat=0
split_feature=12 25 8 12 0 0 0 0 0 15 7 25 0 17 29 7 0 30 25 12 16 30 12 12 15 16 30 26 12 16 10 12 7 30 30 16 30 16 16 16 26 26 30 30 7 15 17 16 26 26 7 23 12 25 30 16 7 6 16 30 7 25
split_gain=50815.9 15447.1 3473.55 1459.15 4117.97 1596.55 1291.23 2073.12 1169.89 687.817 405.265 308.556 3127.31 128.931 128.191 127.307 121.95 109.071 103.584 103.547 94.7206 92.2181 86.9163 82.7481 81.0572 128.932 140.2 82.3284 109.728 84.1996 79.4788 73.7818 72.5817 87.1721 70.7064 68.7368 67.6678 77.2902 66.096 87.7542 116.741 93.6091 106.23 101.103 89.6603 83.0223 108.798 136.809 92.7818 137.304 94.775 149.4 104.438 94.3076 81.6176 75.8397 130.886 93.1638 84.7548 73.1901 107.042 89.0888
threshold=98720.000000000015 59.500000000000007 1.0000000180025095e-35 75926.500000000015 3.5000000000000004 2.5000000000000004 3.5000000000000004 2.5000000000000004 1.5000000000000002 4237.2750000000005 97745.000000000015 1493.5000000000002 5.5000000000000009 1721.2450000000001 1.0000000180025095e-35 266864.50000000006 7.5000000000000009 1427.2750000000003 21.450000000000003 130226.00000000001 0.2799775287881105 1681.9000000000001 523844.50000000006 321307.50000000006 351.69500000000011 0.1054244525132913 2046.9750000000001 3.5000000000000004 16711.500000000004 0.0087248078826173657 1.0000000180025095e-35 36251.500000000007 25969.500000000004 4814.4000000000005 4885.5833333333348 0.32846263438225054 2606.233333333334 0.83916057544581224 0.31897439709136827 0.14619665999095435 11.500000000000002 19.500000000000004 24169.14166666667 22869.491666666669 560450.50000000012 237.52000000000001 179.76000000000002 0.084865891888127043 13.500000000000002 12.500000000000002 32235.000000000004 3.5000000000000004 41239.500000000007 14.250000000000002 646.74166666666679 0.095463838571106061 31507.000000000004 1.0000000180025095e-35 0.09800960380559598 28430.233333333334 38599.000000000007 2.6500000000000008
decision_type=2 2 2 2 2 2 2 2 2 2 2 2 2 2 2 2 2 2 2 2 2 2 2 2 2 2 2 2 2 2 2 2 2 2 2 2 2 2 2 2 2 2 2 2 2 2 2 2 2 2 2 2 2 2 2 2 2 2 2 2 2 2
left_child=3 6 8 14 5 20 7 -2 -3 11 -8 12 -10 35 38 -15 19 -16 22 -14 -5 -21 36 -23 27 34 30 28 -19 -29 -27 -28 -30 -34 -26 -4 37 -12 39 41 -41 44 43 -43 45 46 -1 -48 49 54 -51 52 -52 -50 -47 -56 57 -57 -58 61 -61 -42
right_child=1 2 13 4 -6 -7 10 -9 9 -11 18 -13 16 15 17 -17 -18 24 -20 21 -22 23 -24 -25 25 26 31 29 32 -31 -32 -33 33 -35 -36 -37 -38 -39 -40 40 59 42 -44 -45 -46 48 47 -49 53 50 51 -53 -54 -55 55 56 58 -59 -60 60 -62 -63
leaf_value=-2.2278192565256627 -2.2374729655515178 -2.2510818557993044 -2.2036123612725262 -2.3527153301483952 -2.2418395723439954 -1.759029374070805 -1.8580438123780072 -1.7641217914914269 -1.7551466824927728 -2.1660580515757539 -2.2864910355106387 -1.7639627804539533 -2.317513781419382 -2.0221641325567594 -2.3232713575281307 -2.2904307037668512 -1.9231717908724901 -2.3036690634719865 -2.2997780427072643 -2.347654629117327 -2.1420769393345123 -2.1013235866771218 -2.351781743576034 -2.3444090505981592 -2.3342410745932858 -1.9296378661841083 -2.0649950245224642 -2.1371973352227491 -2.129906257434687 -2.3191103645602076 -2.2430412045237142 -2.259404487092973 -2.1234402986565573 -2.352289690356276 -1.9938679090237887 -2.3541782447808086 -2.185023275280475 -2.1624238028209013 -2.2810349400593153 -2.1709382868216287 -2.3151289032132536 -2.188055472508994 -2.320577992126279 -1.986285401137394 -2.353438771933678 -2.3538636491049836 -2.1442190347879495 -2.2432365142574313 -2.2308967017362931 -2.2422665942753905 -1.957776232784703 -2.3460795451426546 -2.2165751015000743 -2.3137685950977267 -2.2880898226575592 -2.1178941587073092 -2.0603586525245343 -2.3002638199767382 -2.2701168319201375 -2.0413587883445166 -2.2460145999504193 -2.2160150047549081
leaf_weight=484.87554936110973 45.206683620810509 13.553710490465162 12.314049914479257 11.322368249297144 189.50413252413273 85.123979091644287 7.1074443310499182 47.107439517974854 254.71075235307217 12.314047425985335 41.900827303528786 1203.5537630021572 12.975228443741797 11.074379682540895 44.46280500292778 7.1900824755430213 3.7190083265304557 27.933884412050247 34.462809577584267 5.0413026809692374 8.5123964548110944 30.413223117589951 9.3388428688049299 3.5537193417549124 1.5702469795942295 4.9586785286664945 4.2975201159715644 6.0330582112073889 27.768594592809677 65.537190198898315 3.8016528487205505 80.991736650466919 5.6198353618383399 10.330578356981276 8.7603306323289853 16.611570954322815 173.1404974013567 17.190082654356956 38.843009173870087 237.68602328002453 23.966949224472046 173.30582854151726 14.132231563329695 5.8677677512168875 13.471063315868376 15.124056592583655 100.00004814565182 56.280991971492767 58.59504359960556 16.776867687702179 14.132231131196027 4.2148759812116614 6.4462809562683097 80.247934997081757 50.082647085189819 38.842970490455627 4.214880868792533 8.5950411856174451 73.884294673800468 13.388428926467897 12.892561942338942 334.87602803111076
leaf_count=4733 448 137 113 137 1897 103 14 57 310 104 453 1693 148 62 511 78 9 311 381 61 67 224 113 43 19 15 25 46 219 748 37 836 41 125 43 201 1555 145 416 2075 272 1566 162 26 163 183 823 564 574 167 63 51 60 908 543 299 24 95 777 81 129 3197
internal_value=-2.05514 -1.86532 -1.79711 -2.20624 -2.10188 -1.8522 -2.15424 -1.99269 -1.78416 -1.78006 -2.20784 -1.77701 -1.82919 -2.22166 -2.22048 -2.1214 -2.17153 -2.25164 -2.21843 -2.19621 -2.25919 -2.15638 -2.20691 -2.12737 -2.23872 -2.20528 -2.22555 -2.26363 -2.22614 -2.30178 -2.0451 -2.24691 -2.17757 -2.26614 -2.04427 -2.28908 -2.20087 -2.24858 -2.21567 -2.21431 -2.1988 -2.22231 -2.19007 -2.1797 -2.22849 -2.22678 -2.2158 -2.17924 -2.24594 -2.22665 -2.145 -2.08426 -2.03087 -2.27857 -2.2452 -2.23557 -2.21494 -2.1501 -2.25581 -2.21631 -2.13582 -2.22267
internal_weight=4429.75 1962.48 1587.02 2467.27 294.463 104.959 375.455 92.3141 1539.83 1526.28 283.141 1513.97 310.413 47.1901 2172.81 18.2645 55.7025 292.066 276.033 51.9835 19.8348 39.0082 241.57 33.9669 247.603 104.38 94.0496 143.223 71.6529 71.5702 8.76033 85.2893 43.719 15.9504 10.3306 28.9256 232.231 59.0909 1880.74 1841.9 622.81 1219.09 193.306 179.174 1025.78 1012.31 641.157 156.281 371.157 232.314 41.5703 24.7934 20.5785 138.843 190.744 175.62 125.537 47.438 78.0992 385.124 26.281 358.843
internal_count=29480 6349 3183 23131 2204 307 3166 505 2729 2592 2661 2488 795 454 20927 140 485 2976 2647 476 204 328 2266 267 2465 975 913 1490 696 794 52 861 385 166 62 314 2153 598 17951 17535 5754 11781 1754 1592 10027 9864 6120 1387 3744 2262 341 174 123 1482 1921 1738 1195 394 801 3679 210 3469
is_linear=0
shrinkage=1


Tree=1
num_leaves=63
num_cat=0
split_feature=15 25 8 15 0 0 0 0 15 13 30 32 28 7 16 30 25 22 25 7 3 19 15 16 19 22 19 30 30 15 32 25 0 30 26 22 22 16 16 22 32 25 26 22 20 26 16 26 26 25 7 16 19 19 25 25 26 15 10 26 19 25
split_gain=23173.2 5550.8 1255.74 910.143 2179.3 704.525 879.169 613.22 336.203 231.683 110.001 97.0779 247.924 223.49 139.857 95.4294 83.5038 90.1646 83.7209 81.3497 84.4108 99.6053 78.4064 75.3698 137.582 134.733 140.596 194.286 140.126 103.29 90.6976 86.3376 182.128 80.7294 79.4656 76.9235 144.33 114.751 79.1074 76.1728 72.6529 72.0258 71.5772 95.5821 70.9625 78.0183 105.256 75.4506 74.6116 70.9106 70.4351 79.219 70.0727 69.8134 79.1139 69.7214 69.1855 67.8179 106.578 88.7414 71.7581 67.4534
threshold=987.20000000000016 59.500000000000007 1.0000000180025095e-35 751.49500000000012 3.5000000000000004 3.5000000000000004 2.5000000000000004 2.5000000000000004 4237.2750000000005 49999708.000000007 1198.2250000000001 1.0000000180025095e-35 1.0000000180025095e-35 249841.00000000003 0.35320257734660471 7386.9666666666681 10.65 638.7700000000001 13.050000000000002 66260.500000000015 2.5000000000000004 -0.81635236807712097 1134.7700000000002 0.14619665999095435 -0.29208762909175795 575.87000000000012 0.2012229304414532 5455.7333333333345 1636.8333333333335 625.85000000000002 1.0000000180025095e-35 2.4500000000000006 4.5000000000000009 14711.841666666667 22.500000000000004 396.16000000000003 326.41500000000008 0.15892496797254094 0.19499127404024311 275.85500000000008 1.0000000180025095e-35 413.50000000000006 9.5000000000000018 575.87000000000012 1.0000000180025095e-35 8.5000000000000018 0.19832566227187542 22.500000000000004 2.5000000000000004 21.450000000000003 172124.50000000003 0.32846263438225054 -0.52560031529903528 -0.23576577068376423 8.4500000000000011 18.550000000000004 8.5000000000000018 632.83500000000015 1.5000000000000002 17.500000000000004 -0.0084482114747841484 118.50000000000001
decision_type=2 2 2 2 2 2 2 2 2 2 2 2 2 2 2 2 2 2 2 2 2 2 2 2 2 2 2 2 2 2 2 2 2 2 2 2 2 2 2 2 2 2 2 2 2 2 2 2 2 2 2 2 2 2 2 2 2 2 2 2 2 2
left_child=3 5 8 10 7 6 -2 61 11 16 19 12 13 14 22 40 17 42 -18 20 21 41 -3 31 29 33 27 28 -27 39 -31 32 -12 -26 -33 36 -35 -37 -38 -25 50 56 43 -7 48 55 47 -47 -41 -20 51 -4 -50 -29 -55 -46 -1 59 60 -30 -59 -5
right_child=1 2 15 4 -6 9 -8 -9 -10 -11 23 -13 -14 -15 -16 -17 18 -19 49 -21 -22 -23 -24 24 25 26 -28 53 57 30 -32 34 -34 35 -36 37 38 -39 -40 44 -42 -43 -44 -45 45 46 -48 -49 52 -51 -52 -53 -54 54 -56 -57 -58 58 -60 -61 -62 -63
leaf_value=-0.0405445284423522 0.058719376253473149 -0.04442118136527079 0.16862400760168697 -0.016641403679586979 0.052072475269552443 -0.04949999649397091 0.3370173311704876 0.34047417902654831 0.092233565086506 0.30935796671504123 0.039525013608843487 0.33823188699482115 0.32574032391488378 0.06826337713572371 0.28847252805776624 -0.023944029868882142 -0.033590215277631764 0.066189593893666618 0.085301047254185663 -0.052388595671444153 0.086869430384780816 0.01774351184947582 0.18739269103634873 -0.044665372486331935 0.046560389938128971 -0.047629010255679387 0.22644938452937668 -0.051665623033975108 0.27762271023796503 -0.0067204158857264084 0.28244533099378638 0.068325400299355021 0.18359978082339917 0.052448742544992412 -0.0038570904454308659 0.23702314600961613 0.031720063330034715 0.017269918102131965 0.25255979732048206 -0.041176215827564526 -0.045540707147779545 -0.044655219890458023 0.18282453926487635 0.20431747203378636 0.25205314091067449 -0.015724556681104548 0.22896957852027744 0.22320405300050117 -0.039830927394240573 0.0026645290099664726 0.23269399343926578 -0.04746946724904965 0.19823749449536998 -0.050541735679042576 0.090387794229779883 -0.036780740047758144 0.20311711319722392 0.21840440411194459 -0.047548249383906727 0.036822074156821642 -0.039738149949864042 0.15440257280213351
leaf_weight=3.0942679569125238 47.663152299821377 4.6446748375892666 8.1482234001159686 13.529418185353281 208.98276454955339 8.9931729957461339 71.180758953094482 131.95602416992188 16.246638983488083 10.038331866264341 41.640131935477257 1327.2710762023926 777.18678134679794 15.547999918460844 143.48858615756035 16.853811748325825 24.584207475185394 73.385073333978653 105.88236570358276 19.217067651450634 108.32274735718966 170.65409526228905 11.47543692588806 4.5674794241785994 273.94873347878456 6.6867128461599341 24.003213189542294 14.910208374261854 24.661329060792927 20.74568443745375 2.1073536947369567 1150.8371058627963 47.303109906613827 27.236020222306252 39.191550590097904 6.0041338503360739 5.2984842061996487 40.903403520584106 23.507821947336197 3.2716879919171324 5.1248817741870871 4.635461524128913 43.256341457366943 4.9660682529211035 10.53204460442066 25.651051342487339 6.2068740352988234 2.77313458174467 2.857416406273841 34.542028278112411 13.022721916437147 7.2082365080714217 81.942547783255577 11.420013785362242 54.177287168800831 2.230601266026496 16.597458906471729 15.599156968295576 6.6040619835257521 4.9477544128894797 2.8431492969393757 8.771699406206606
leaf_count=36 448 56 55 151 2000 100 57 106 133 14 398 1156 852 136 342 187 267 664 916 220 961 1731 54 51 2588 75 142 168 120 215 5 10500 323 249 432 29 49 403 128 38 59 53 291 28 50 269 33 15 32 381 62 91 534 130 462 25 106 89 74 45 32 64
internal_value=0.189401 0.290681 0.32079 0.0842446 0.157793 0.123892 0.226867 0.299729 0.32621 0.0832267 0.0725995 0.327834 0.312998 0.254902 0.272514 0.0720347 0.0745138 0.104437 0.0503137 0.0452369 0.0515907 0.0316226 0.121615 0.0770186 0.0903156 0.0779191 0.115567 0.0953151 0.161738 0.130864 0.0304581 0.0696136 0.117394 0.0610771 0.0659428 0.0988383 0.13815 0.0498629 0.214534 0.146882 0.119755 0.124242 0.151428 0.0480847 0.153657 0.100449 0.0581868 0.0142095 0.180785 0.0651718 0.15031 0.0701845 0.189787 0.0432796 0.0653874 0.202204 0.164479 0.187838 0.119059 0.240065 0.178354 0.0541599
internal_weight=5441.08 2770.71 2346.22 2670.37 363.24 424.492 118.844 154.257 2295.86 305.648 2307.13 2279.61 952.343 175.157 159.609 50.3579 295.609 130.601 165.009 322.521 303.304 194.981 16.1201 1984.61 705.637 542.751 165.853 141.85 61.3422 162.886 22.853 1278.97 88.9432 376.899 1190.03 102.95 56.0423 46.9075 28.8063 140.033 33.5041 24.3272 57.2156 13.9592 135.465 47.3937 34.6311 28.4242 88.0717 140.424 28.3792 15.3565 84.8 80.5075 65.5973 12.7626 19.6917 54.6555 25.0464 29.6091 18.4423 22.3011
internal_count=29480 6349 3183 23131 2321 3166 505 321 2729 2661 20810 2596 1440 588 452 454 2647 1083 1564 3107 2887 1926 110 17703 6050 4783 1337 1195 435 1267 220 11653 721 3446 10932 858 426 432 177 1047 267 195 419 128 996 392 317 284 604 1297 208 146 566 760 592 75 142 360 195 165 121 215
is_linear=0
shrinkage=0.05


Tree=2
num_leaves=63
num_cat=0
split_feature=15 25 8 2 2 15 2 2 13 15 25 29 22 2 26 25 2 25 22 16 2 32 16 16 22 26 16 26 26 22 26 12 15 17 26 12 16 26 25 26 16 26 16 26 25 2 25 16 26 17 17 0 22 7 25 16 22 26 25 16 23 22
split_gain=14089 3565.18 792.968 568.46 602.47 296.035 690.512 379.621 161.237 113.13 104.04 102.629 117.393 87.3986 98.0078 81.5015 81.2717 91.2504 74.7029 69.6922 100.325 78.4632 70.086 67.0421 66.1788 64.5192 139.597 86.1199 64.2218 59.1212 79.3473 67.7894 56.673 58.4713 53.3103 53.2542 53.6487 51.1733 50.2322 67.2336 50.1759 80.8838 72.3365 73.9856 69.56 139.988 75.6786 152.036 173.1 81.4801 90.8847 103.623 94.315 79.9308 77.8601 73.1784 72.1907 66.809 66.426 63.5919 62.4321 58.9844
threshold=886.25500000000011 59.500000000000007 1.0000000180025095e-35 36.500000000000007 21.500000000000004 724.30000000000007 36.500000000000007 21.500000000000004 49999708.000000007 3967.1350000000007 1493.5000000000002 1.0000000180025095e-35 577.29000000000008 61.000000000000007 1.0000000180025095e-35 19.550000000000004 61.000000000000007 1290.5000000000002 406.06000000000006 0.3342604739197878 71.500000000000014 1.0000000180025095e-35 0.25797795743346402 0.31897439709136827 398.27000000000004 17.500000000000004 0.63212995294545393 18.500000000000004 22.500000000000004 475.96500000000009 13.500000000000002 77680.500000000015 362.51500000000004 325.73500000000007 3.5000000000000004 523844.50000000006 0.2448164983714001 7.5000000000000009 4.8500000000000005 12.500000000000002 0.14199039788517817 18.500000000000004 0.13054906724604776 16.500000000000004 2.4500000000000006 61.000000000000007 23.250000000000004 0.013452746195719555 9.5000000000000018 87.225000000000009 311.65500000000003 5.5000000000000009 324.35000000000008 12274.500000000002 24.350000000000005 0.082687419870674531 406.06000000000006 10.500000000000002 4.0500000000000007 0.23093822185409127 2.0000000000000004 757.91500000000008
decision_type=2 2 2 2 2 2 2 2 2 2 2 2 2 2 2 2 2 2 2 2 2 2 2 2 2 2 2 2 2 2 2 2 2 2 2 2 2 2 2 2 2 2 2 2 2 2 2 2 2 2 2 2 2 2 2 2 2 2 2 2 2 2
left_child=5 3 9 4 37 11 7 -7 15 19 -11 23 13 -13 -15 28 -4 -18 32 20 -3 22 -22 40 -8 -17 -27 -28 35 30 -26 -31 33 34 -16 36 -5 -2 39 -33 42 58 43 44 45 57 -46 48 56 -49 51 52 -51 -54 -53 -55 -48 -1 59 -42 -61 -56
right_child=1 2 16 8 -6 6 24 -9 -10 10 -12 12 -14 14 18 25 17 -19 -20 -21 21 -23 -24 -25 29 26 27 -29 -30 31 -32 38 -34 -35 -36 -37 -38 -39 -40 -41 41 -43 -44 -45 46 -47 47 49 -50 50 -52 54 53 55 61 -57 -58 -59 -60 60 -62 -63
leaf_value=0.10128965411757372 -0.049922981310709713 0.25129850501825263 0.039784975164598613 -0.000926940815512598 0.25743500162682481 0.0024447692189311773 -0.050948757812859527 0.25977619519285589 0.23933045763055405 0.02650876828887018 0.20672039004791581 -0.02601851601790825 0.070940564759118446 0.16847358797930029 0.12281740767865329 -0.021719995645031534 0.23681662177311621 -0.041837125788542623 -0.037415336346040232 0.25076539805847325 -0.0002793664600773411 0.22534582512613263 0.15348156137815233 0.00041673793489574955 0.017567945519534719 -0.050019294046987323 0.36088768229408297 0.073628648045470826 -0.050075110253979198 0.094858867545546732 0.24480630973500461 -0.044451026866399936 -0.048889377178477016 0.2187413745784916 -0.015548328399176792 -0.048032857110667952 0.087105519943651427 0.072472310792333697 0.01065137115933067 0.17713877840896664 0.0033534488982719674 0.043494655666089434 0.021739424589592098 0.085032232723988618 0.041599989513981701 0.16633443545473267 -0.031224991330830083 0.021517681614343486 0.055539500374535047 -0.047305911834027492 0.022703881114031974 0.16584240571161987 0.24237473856103545 0.067904940167019118 -0.035065423299671175 0.17966551550368182 0.31142501332906503 -0.051785088543635255 0.094012395032867457 0.19873631181283952 0.0074712875170983009 0.11094323085984265
leaf_weight=12.055971279740335 9.6276805102825147 101.36601854860783 51.722144216299057 18.386204607784748 97.805245757102966 17.104033939540386 12.084978915750979 89.331780552864075 12.5222185626626 11.7211846858263 27.280815288424492 85.834084548056126 141.37007665634155 12.607640512287615 13.265949077904226 45.296378254890442 11.107577472925184 3.4859802722930899 30.192656725645065 2699.1960018277168 8.8013929724693281 42.775652140378952 43.711466446518898 35.710728794336319 6.5242366045713416 10.135088399052622 3.925468757748602 7.1329502612352371 9.4767803549766523 65.687002412974834 9.1566966995596868 4.4363239780068389 8.069025091826914 6.4623765498399726 13.096295878291128 7.5217756330966941 261.3767953068018 46.237194493412971 75.237158238887787 9.9591900631785375 42.100743338465691 125.24719667434692 96.452489778399467 396.7386804446578 476.85578774660826 39.605459466576576 1.4760727435350443 90.261012814939022 17.423720695078373 6.1955988332629195 50.761767171323299 8.2534803971648198 17.614830248057842 35.764282383024693 26.039320923388004 26.820052094757557 15.474470324814318 14.728136174380777 528.80662354826927 9.0229425206780451 7.6676239892840377 8.2932949513196927
leaf_count=94 106 82 468 184 63 174 134 58 15 103 67 925 1210 84 96 489 49 41 337 2346 76 64 163 369 63 115 9 62 101 525 48 49 90 32 143 90 2066 402 741 65 411 1109 915 3212 4290 226 16 853 152 67 497 53 90 300 271 172 57 162 4044 53 71 61
internal_value=0.156559 0.22223 0.243341 0.102323 0.183156 0.0703075 0.118132 0.218878 0.0688548 0.247209 0.154703 0.06449 0.0374573 0.00925381 0.0453672 0.0623234 0.0709663 0.171519 0.0214299 0.248399 0.214788 0.17369 0.128093 0.0684903 0.0586655 0.0119845 0.0819785 0.197485 0.073507 0.0666924 0.157282 0.056567 0.0648519 0.0935787 0.0558409 0.0777605 0.0813195 0.050784 0.0277127 0.110074 0.0696708 0.0805787 0.0638122 0.0670492 0.0585359 0.107762 0.0542138 0.073758 0.171777 0.0606729 0.0800799 0.102274 0.133545 0.147989 0.0371105 0.11795 0.281231 0.0181021 0.0883873 0.0369822 0.116541 0.00220428
internal_weight=6220.4 3530.61 3001.17 529.444 153.67 2689.79 289.521 106.436 375.774 2934.85 39.002 2400.27 310.898 169.528 83.6939 363.251 66.3157 14.5936 71.0863 2895.85 196.655 95.2885 52.5129 2089.37 183.086 66.4899 21.1935 11.0584 296.762 171.001 15.6809 155.32 40.8936 32.8246 26.3622 287.285 279.763 55.8649 89.6327 14.3955 2053.66 712.845 1340.81 1244.36 847.623 66.3896 781.234 304.378 34.3743 270.004 179.743 128.981 86.3948 80.1992 42.5861 62.5843 16.9505 26.7841 587.598 58.7913 16.6906 34.3326
internal_count=29480 7161 3459 3702 571 22319 1857 232 3131 2901 170 20462 2917 1707 782 3116 558 90 698 2731 385 303 239 17545 1625 675 186 71 2441 1491 111 1380 361 271 239 2340 2250 508 855 114 17176 5688 11488 10573 7361 482 6879 2589 225 2364 1511 1014 629 562 385 472 73 256 4579 535 124 332
is_linear=0
shrinkage=0.05


Tree=3
num_leaves=63
num_cat=0
split_feature=12 25 8 1 2 2 12 2 2 17 1 30 29 22 22 24 17 32 32 13 12 22 25 22 25 19 25 24 25 1 26 17 19 26 24 22 17 23 22 19 25 2 30 30 30 26 23 1 25 30 30 19 25 16 25 30 22 24 16 19 22 17
split_gain=9789.56 2326.91 519.522 460.268 416.338 411.223 229.488 495.845 258.317 118.388 115.72 114.923 80.627 96.3054 79.0934 80.6285 77.7106 77.5945 74.6762 79.5193 74.072 74.9973 71.8184 70.573 67.3074 62.0027 133.821 126.835 84.7812 147.431 93.9433 67.7746 63.8771 137.326 93.8714 92.3294 78.0166 73.1274 68.7467 107.874 103.789 87.2856 81.2674 74.626 115.871 72.7608 70.9533 74.3308 65.0829 64.8929 82.6756 70.9775 65.0307 68.6932 112.271 93.5368 77.6545 135.537 76.0671 80.0632 94.7226 88.7496
threshold=88625.500000000015 59.500000000000007 1.0000000180025095e-35 4815.0000000000009 36.500000000000007 21.500000000000004 72430.000000000015 36.500000000000007 21.500000000000004 881.42500000000007 5691.5000000000009 7386.9666666666681 1.0000000180025095e-35 577.29000000000008 361.68000000000006 2.5000000000000004 168.34500000000003 1.0000000180025095e-35 1.0000000180025095e-35 50000513.500000007 21014.000000000004 310.74000000000007 5.0500000000000007 728.94500000000005 21.450000000000003 -0.85553404255536958 22.250000000000004 1.5000000000000002 4.2500000000000009 5955.5000000000009 9.5000000000000018 105.67500000000003 -0.43638599569482622 19.500000000000004 2.5000000000000004 665.84000000000003 508.85000000000008 7.0000000000000009 640.82000000000005 -0.47422477498519461 16.250000000000004 36.500000000000007 1313.7333333333336 2802.7583333333337 1237.0333333333335 17.500000000000004 3.5000000000000004 5631.0000000000009 10.250000000000002 9428.1666666666697 7386.9666666666681 -0.42011701898955328 10452.500000000002 0.10664416216182335 3.6500000000000008 9762.3166666666693 487.23500000000007 1.5000000000000002 0.14199039788517817 -0.31261789307767535 454.12000000000006 603.08500000000015
decision_type=2 2 2 2 2 2 2 2 2 2 2 2 2 2 2 2 2 2 2 2 2 2 2 2 2 2 2 2 2 2 2 2 2 2 2 2 2 2 2 2 2 2 2 2 2 2 2 2 2 2 2 2 2 2 2 2 2 2 2 2 2 2
left_child=6 4 3 -3 5 -2 12 8 -8 -6 17 18 25 14 15 16 -14 23 19 -4 -18 -22 -12 -9 -11 26 28 -28 29 -1 -30 -29 33 34 -27 -35 38 49 43 40 46 -42 -43 44 -36 -44 47 -40 -49 50 -34 -52 53 54 -51 -55 57 -56 -57 60 -60 -62
right_child=1 2 11 -5 9 -7 7 10 -10 24 22 -13 13 -15 -16 -17 20 -19 -20 -21 21 -23 -24 -25 -26 32 27 31 30 -31 -32 -33 37 35 36 -37 -38 -39 39 -41 41 42 45 -45 -46 -47 -48 48 -50 52 51 -53 -54 55 56 58 -58 -59 59 -61 61 -63
leaf_value=0.013106802223404976 0.046252603348192978 0.053983554601518657 0.15513943671625341 0.20508798867572439 0.19829607382477288 0.21059570500326338 0.0023270476065422904 0.14594360692438935 0.2121665286119806 0.06347118780369064 0.099057450217921936 -0.030874241043439679 -0.0075777476393104328 0.063699112073722461 -0.020020484431760969 -0.0021332197868171453 0.2635159679270373 -0.048775034536058103 -0.047264771848715588 -0.045787839025961029 -0.047566783219738368 0.1688233545069513 -0.00017276881638420233 0.035667544338111305 -0.0048869145718427971 0.019822838537821852 0.0093158326191491777 0.12212568989798003 0.11401994902409757 0.24617993937981761 -0.010391674711789962 0.23728801916907069 0.062275825562119171 0.11777463192245004 0.020484308957964686 0.036443464072542127 -0.052221047614089661 0.1780298848908628 -0.02178491148239985 -0.05166450851797362 -0.0083088880883697286 0.02107169584355548 0.17096700901279924 0.024689712137035542 0.14206123082455691 -0.043268702915342211 -0.052061427344491644 0.14247038711708157 -0.0043429068160909167 0.28139382923351053 0.15605675324232482 -0.0075127791422517952 0.18730573662913902 0.18621683230736585 0.28181946365935945 0.018222042405085823 0.019566070176074351 0.0059805521539728042 0.015423726385708643 0.062004673399663007 0.20554561925968182 0.010376114030444528
leaf_weight=14.126316204667093 58.216316118836403 52.118089601397514 36.88431441783905 3333.463885858655 14.505177333950995 113.32823479175568 17.137624301016331 51.205739602446556 103.69337558746338 341.44042547047138 21.852891519665718 21.592155247926712 10.709345169365404 149.45917561650276 99.345071643590927 37.475081913173199 8.5352824330329913 7.4818005934357634 6.3376044556498519 5.1633705273270598 6.4763950631022444 8.0944045484065992 89.711567863821983 21.378451108932495 39.937900617718697 321.87054456025362 15.028970845043657 35.697551235556602 19.885340414941311 12.359925001859663 54.76035875082016 24.681046485900879 568.25630240142345 108.30480439960957 38.863114774227142 53.319516584277153 15.570495523512362 14.139626584947107 15.28746461868286 13.213822685182093 10.733672618865965 12.603695586323736 74.037664845585823 185.01205368340015 39.594384759664536 3.7649250030517569 14.156972408294676 29.389876149594784 9.8795008137822133 9.4977871850132924 6.2926018238067618 72.145050890743732 13.531026035547255 15.696610622107981 9.5079888254404086 73.773331567645073 19.504706315696239 7.8711127564311019 13.524771675467489 218.77026393264532 31.55783274769783 7.2943896651267996
leaf_count=124 508 296 197 2605 15 63 174 340 58 2680 158 231 113 1210 1068 380 31 79 72 58 72 43 859 189 436 2857 135 241 145 42 506 102 4503 722 352 432 167 76 147 140 102 112 449 1619 258 39 147 180 96 26 34 677 63 84 35 676 176 72 109 1694 139 67
internal_value=0.134423 0.184571 0.199988 0.20278 0.0904874 0.155444 0.0632446 0.103733 0.182709 0.0620073 0.0532193 0.0639051 0.0581904 0.034528 0.00872579 0.0485764 0.103365 0.0987292 0.106071 0.129859 0.153174 0.0754438 0.019927 0.114458 0.0563056 0.0616082 0.090312 0.140494 0.0518359 0.127053 0.0237542 0.172381 0.0590625 0.0494241 0.0406661 0.0913635 0.0550991 0.0674328 0.0589608 0.0825572 0.0932695 0.125386 0.141231 0.0422961 0.082918 0.160119 0.0448045 0.0705149 0.10622 0.0657976 0.0556427 0.00734585 0.0812329 0.0772437 0.134749 0.0694815 0.090424 0.164285 0.0636317 0.075856 0.131371 0.170208
internal_weight=6859.05 4022.99 3455.56 3385.58 567.428 171.545 2836.06 312.461 120.831 395.884 191.63 69.9774 2523.6 320.095 170.636 71.2905 33.8154 80.066 48.3853 42.0477 23.1061 14.5708 111.564 72.5842 381.378 2203.51 176.54 75.4076 101.132 26.4862 74.6457 60.3786 2026.97 945.603 783.978 161.624 462.108 1081.36 446.537 183.068 169.854 101.14 90.4063 263.47 78.4575 77.8026 68.7138 54.5568 39.2694 1067.22 646.694 78.4377 420.53 406.999 46.3816 360.617 36.8838 17.3791 344.921 271.147 52.377 38.8522
internal_count=29480 7161 3459 2901 3702 571 22319 1857 232 3131 1625 558 20462 2917 1707 639 259 608 327 255 146 115 1017 529 3116 17545 1295 478 817 166 651 343 16250 7819 6665 1154 3808 8431 3641 1412 1272 702 600 2229 610 488 570 423 276 8355 5214 711 3141 3078 309 2769 283 107 2685 2009 315 206
is_linear=0
shrinkage=0.05


Tree=4
num_leaves=63
num_cat=0
split_feature=18 25 2 2 8 1 2 2 7 17 23 25 30 10 26 25 25 1 25 16 16 25 1 25 16 16 18 15 17 16 7 16 1 25 26 30 30 30 1 12 17 25 25 30 17 1 15 18 1 25 30 16 26 24 25 16 12 30 26 18 25 25
split_gain=7382.12 1377.22 410.32 951.396 331.769 329.082 268.848 269.985 106.256 99.7833 129.992 124.18 84.2245 71.0915 79.3857 76.9208 75.8528 86.2198 73.313 86.0406 67.2874 67.7822 67.2628 71.9471 102.142 88.6572 66.9294 111.068 77.7314 110.37 66.8417 66.1351 64.97 62.5486 84.3192 66.7172 93.5038 67.9294 117.565 62.7489 61.1813 59.4833 61.2621 59.0114 58.3835 57.8609 57.7238 83.8831 64.0588 98.5224 89.3788 103.535 94.267 70.4715 139.709 111.705 103.293 92.6052 86.5156 90.5653 100.799 77.7084
threshold=198.87000000000003 59.500000000000007 36.500000000000007 21.500000000000004 1.0000000180025095e-35 4815.0000000000009 36.500000000000007 21.500000000000004 99713.000000000015 67.745000000000019 5.0000000000000009 785.50000000000011 1198.2250000000001 1.0000000180025095e-35 8.5000000000000018 952.50000000000011 8.0500000000000025 5691.5000000000009 8.2500000000000018 0.14619665999095435 0.24223984805045409 22.250000000000004 5252.0000000000009 18.550000000000004 0.039095549971538947 0.27065980074909995 117.91500000000001 391.50500000000005 259.69500000000005 0.10888561426642587 9832.5000000000018 0.069313719083536021 4815.0000000000009 20.850000000000005 14.500000000000002 12567.583333333334 14372.783333333335 4368.1583333333338 5631.0000000000009 87344.500000000015 1721.2450000000001 10.65 13.050000000000002 19632.475000000002 190.50500000000002 5476.0000000000009 776.80500000000018 140.73500000000004 5813.0000000000009 1310.5000000000002 1599.1250000000002 0.16413148423313337 16.500000000000004 2.5000000000000004 3.8500000000000001 0.043713023460473517 42516.000000000007 2341.3333333333335 15.500000000000002 24.675000000000004 19.750000000000004 7176.0000000000009
decision_type=2 2 2 2 2 2 2 2 2 2 2 2 2 2 2 2 2 2 2 2 2 2 2 2 2 2 2 2 2 2 2 2 2 2 2 2 2 2 2 2 2 2 2 2 2 2 2 2 2 2 2 2 2 2 2 2 2 2 2 2 2 2
left_child=2 6 3 9 5 -3 7 -2 -8 10 -1 22 13 18 -15 16 30 32 19 -4 46 33 31 26 -25 -26 27 28 29 -24 -16 -11 -18 35 -35 37 -37 38 -22 -40 -6 43 -43 -10 -19 -29 47 48 49 50 51 52 -14 54 56 -56 -50 -55 61 -60 -61 -59
right_child=1 4 12 -5 40 -7 8 -9 41 11 -12 -13 20 14 15 -17 17 44 -20 -21 21 -23 23 24 25 -27 -28 45 -30 -31 -32 -33 -34 34 -36 36 -38 -39 39 -41 -42 42 -44 -45 -46 -47 -48 -49 53 -51 -52 -53 -54 57 55 -57 -58 58 59 60 -62 -63
leaf_value=-0.054887340853622679 0.044151087043944826 0.050142823384273921 0.17624147134581925 0.18114583530416115 0.0057821373325477286 0.17610437848569629 0.1770139731873657 0.18029641790905807 0.061726062532255682 0.1658998501113004 0.14386310290962367 0.12001372832447124 -0.024800128238506566 -0.0095398415040379245 0.10833470259045692 -0.014000684233889518 -0.00263664254347843 -0.029361049037362474 -0.054786575090758551 -0.048958916561263909 0.15235695802368199 -0.0045911230943291182 0.025289043934319883 0.1812952005779721 -0.047093079465605758 0.12542546428864609 -0.029413022029253041 -0.042952650600689 -0.0358557056869757 0.18535712396212412 -0.026482003553337748 -0.044470927254737308 0.13655864333086778 0.2181963981841788 -0.043508534891164817 0.19508517352045829 0.045101904349368227 -0.025834758199856901 -0.05341833994752683 0.097675756356385715 0.10794893217801688 -0.035475664007907068 0.046049154270175946 0.14397174062566609 0.06916909310937587 0.15693674810669733 0.014184112225332111 0.11079990464674035 0.14717672777532545 0.087148763754261047 0.035872365782609099 0.20561200201474006 0.17589631488581239 0.13335674856936322 -0.033648947802663969 0.049466256285690409 -0.04862271419131628 0.077608956352425595 0.10444390769204813 -0.020295759635503827 0.065755902447657041 0.16408133552746318
leaf_weight=41.54683542996645 54.286183476448059 53.698201887309551 7.8190782293677312 217.06792187690735 32.112556219100952 3580.8921141698956 17.809361025691032 115.55987071990967 129.9180985018611 17.207683928310875 9.2033124119043332 64.23771295696497 16.739165179431442 64.89125432819128 11.395994849503039 35.98963624984026 9.447291247546671 19.808593809604645 42.408238895237446 7.4628555178642273 18.378779761493206 86.538376398384571 42.437150970101357 5.5146794393658629 59.130948401987553 7.5175967290997496 20.235567361116409 3.5711470097303382 26.292113453149796 13.670613236725329 34.580460630357265 4.197228491306304 66.57872511446476 10.107314743101595 3.8122106716036788 13.11125288903713 43.704925656318665 50.134154967963696 20.689737699925903 9.0556145757436735 26.312615871429443 26.190650604665279 155.55842025578022 26.58320526778698 55.104342393577099 34.294139012694359 70.862578094005585 79.784754931926727 50.532471261918545 134.60499745607376 669.26266266405582 16.307709254324436 7.8069571256637564 67.484711334109306 45.77459716796875 305.65769512951374 7.217707708477973 315.37867583334446 42.673247665166855 69.755360677838326 64.686369702219963 28.595762886106968
leaf_count=420 451 293 43 109 310 2425 23 58 928 96 49 398 158 633 70 344 86 191 437 77 106 767 359 25 586 46 211 36 255 69 333 43 421 46 39 65 344 478 212 61 139 262 1272 141 422 189 647 511 265 918 5399 66 36 391 444 2399 76 2255 276 648 476 147
internal_value=0.118246 0.161565 0.0605638 0.0991643 0.172356 0.174259 0.0855994 0.137324 0.0605965 0.0477963 -0.0166647 0.0587986 0.0521355 0.0293605 0.03919 0.0527711 0.0650091 0.0820437 -0.0210978 0.0697064 0.0557191 0.0313274 0.0415384 0.0326441 -0.00782289 -0.0259936 0.0533722 0.0674704 0.0340433 0.0669399 0.00842283 0.124282 0.119387 0.0496688 0.148075 0.0399116 0.082575 0.0146085 0.056511 -0.00557613 0.0529208 0.0539485 0.034144 0.0765534 0.0430062 0.137336 0.0588265 0.0604614 0.0582199 0.0479349 0.0403826 0.111527 0.0432229 0.0668657 0.0506484 0.0385614 0.122209 0.0780266 0.0706097 0.0417968 0.0212507 0.085267
internal_weight=7389.19 4218.92 3170.27 566.125 3693.02 3634.59 525.906 169.846 356.06 349.057 50.7501 298.307 2604.14 355.486 297.796 232.905 196.915 150.939 57.6902 15.2819 2248.66 255.532 234.069 212.664 72.1632 66.6485 140.501 120.265 82.3999 56.1078 45.9765 21.4049 76.026 168.994 13.9195 155.074 56.8162 98.2583 48.1241 29.7454 58.4252 338.25 181.749 156.501 74.9129 37.8653 1993.13 1922.26 1842.48 844.721 710.116 40.8538 24.5461 997.757 409.182 351.432 57.7502 588.574 521.089 177.115 134.442 343.974
internal_count=29480 6302 23178 2891 3167 2718 3135 509 2626 2782 469 2313 20287 3057 2500 1867 1523 1120 557 120 17230 2118 1915 1776 657 632 1119 908 683 428 403 139 507 1351 85 1266 409 857 379 273 449 2603 1534 1069 613 225 15112 14465 13954 6577 5659 260 194 7377 3184 2843 341 4193 3802 1400 1124 2402
is_linear=0
shrinkage=0.05


Tree=5
num_leaves=63
num_cat=0
split_feature=18 25 8 2 2 18 2 2 30 7 28 2 30 26 29 30 30 30 18 26 16 25 30 26 25 25 7 7 26 32 26 25 30 24 7 25 30 12 15 30 23 25 25 23 25 16 25 25 23 24 25 25 25 18 6 25 6 26 26 30 25 26
split_gain=5884.6 1283.56 282.221 264.395 235.913 168.94 321.455 170.393 88.9222 76.6527 75.3771 689.077 59.7403 107.492 68.4292 62.4237 58.6827 59.3408 56.9205 64.347 71.0873 77.4349 56.9603 55.4329 68.7446 102.313 58.8149 64.3139 54.514 54.227 54.2177 50.0231 49.6587 90.0249 78.854 52.226 49.5684 46.9423 46.7295 56.0106 46.5041 45.075 52.2165 50.2025 44.9067 43.6521 43.4695 62.7011 43.1632 43.127 42.7181 58.4751 48.6308 42.2441 43.271 41.6007 41.5227 41.5176 74.1935 39.4273 41.6024 51.4619
threshold=178.51500000000001 59.500000000000007 1.0000000180025095e-35 36.500000000000007 21.500000000000004 144.12500000000003 36.500000000000007 21.500000000000004 7386.9666666666681 89639.500000000015 1.0000000180025095e-35 71.500000000000014 29772.616666666669 8.5000000000000018 1.0000000180025095e-35 36605.483333333337 1636.8333333333335 1775.366666666667 152.60500000000005 15.500000000000002 0.2799775287881105 14.850000000000003 1276.6000000000001 3.5000000000000004 6.2500000000000009 785.50000000000011 16834.500000000004 17695.500000000004 22.500000000000004 1.0000000180025095e-35 22.500000000000004 21.450000000000003 4953.416666666667 4.5000000000000009 54086.000000000007 6805.5000000000009 12241.366666666667 523844.50000000006 954.69500000000005 2606.233333333334 3.5000000000000004 1150.5000000000002 1.8500000000000003 3.5000000000000004 8.6500000000000004 0.24223984805045409 18.250000000000004 17.850000000000005 5.0000000000000009 3.5000000000000004 3.8500000000000001 3.4500000000000006 15.450000000000001 195.47500000000002 1.0000000180025095e-35 2.2500000000000004 1.0000000180025095e-35 17.500000000000004 4.5000000000000009 13083.533333333335 1.6500000000000001 10.500000000000002
decision_type=2 2 2 2 2 2 2 2 2 2 2 2 2 2 2 2 2 2 2 2 2 2 2 2 2 2 2 2 2 2 2 2 2 2 2 2 2 2 2 2 2 2 2 2 2 2 2 2 2 2 2 2 2 2 2 2 2 2 2 2 2 2
left_child=5 3 10 4 46 12 7 -7 29 -5 11 -3 14 15 -1 -14 -16 -18 22 -20 21 44 -8 26 36 -26 48 -28 -27 56 31 37 33 34 -29 -34 55 38 -11 50 -30 42 -15 -43 -21 -24 47 59 -19 -17 51 -40 -52 -41 -55 -25 -4 58 -54 60 -2 -62
right_child=1 2 8 9 -6 6 18 -9 -10 30 -12 -13 13 41 16 49 17 23 19 20 -22 -23 45 24 25 28 27 32 40 -31 -32 -33 35 -35 -36 -37 -38 -39 39 53 -42 43 -44 -45 -46 -47 -48 -49 -50 -51 52 -53 57 54 -56 -57 -58 -59 -60 -61 61 -63
leaf_value=0.049272546094411583 0.18197478549240509 0.15728868143247646 0.11904501611926242 0.14452149959599966 0.15879769311048947 -0.0016176593470471825 -0.048687583316177445 0.15973190806390133 -0.030755483110888437 -0.0026947083949874855 0.15669028735747212 0.028350306725874897 0.19648707273209315 0.13822071305779934 -0.024933218613381533 0.11845627440399652 0.15700362663166934 -0.024682689520770091 -0.0023661200871249719 0.0059910226352986283 0.13193083881913931 -0.052773822760631223 0.11402186938640509 -0.041611401669903514 -0.047840415054721287 -0.014992688559891859 0.2119364263048843 0.17403206525376794 0.1599821268538717 -0.046837831432448976 -0.051704129966491444 -0.003600402157041542 0.015352734431683791 -0.049384810911520645 -0.04538695906463535 0.20203579865818427 -0.047036624107247467 -0.049739691473064403 0.029825139008716351 0.1743744259677581 -0.041192788721773406 0.14476126769468126 0.01819376794223361 -0.044226062305785054 0.17172166782588688 0.023186272012758771 -0.025836717888441357 0.22518422724394238 0.12190217002871512 -0.04682886495614532 -0.028740156515063609 0.23581992932398035 0.18686345617557448 0.074957795321695928 -0.048995923360765081 0.14164705332101185 -0.043961809057409006 0.13634449589482883 -0.052036444191932069 -0.049823651238384142 0.115666702717863 -0.021790232751004515
leaf_weight=2267.8183624669909 5.5050574243068722 724.86976263672113 44.225598387420177 20.495634414255619 135.28154349327087 18.553958520293236 7.3203215375542632 132.59988164901733 21.408192194998264 27.980237640440464 3175.8391338661313 121.5677994042635 24.777936309576035 9.46021820604801 49.919596068561077 10.672781467437742 8.4780681729316694 32.657386183738708 83.616098143160343 7.7439456060528746 23.043380096554756 17.480778925120831 54.547665886580944 3.2267299667000833 68.733644045889378 12.496697448194029 6.5936347842216483 25.142304331064228 13.080398365855219 5.9965848028659812 12.689158409833906 38.759996451437473 55.096910521388054 7.2200120389461508 4.3852001950144759 3.0500489100813857 5.7731218487024298 9.4442910552024824 11.072216041386126 10.042780525982378 3.1166660338640204 18.924833521246914 72.789709158241749 3.7348664030432692 8.0000035241246206 18.339145287871361 17.337935008108616 4.506865829229354 4.901428945362567 5.24100637435913 36.778352186083794 4.2999508380889884 3.3140919134020832 225.79659266024828 6.5678188577294341 16.859671823680401 3.7265461087226859 9.5936295613646489 12.169082492589949 8.2717767357826215 10.926251135766508 15.162862546741961
leaf_count=16663 27 435 220 34 63 185 77 62 228 247 1828 628 103 45 534 62 30 319 773 63 129 182 296 34 733 116 18 119 76 69 131 408 461 69 42 8 61 106 82 52 33 83 586 34 46 146 163 17 32 51 333 13 13 1455 60 98 35 51 117 82 74 140
internal_value=0.105828 0.140974 0.151169 0.0740977 0.122007 0.0523385 0.0840439 0.140013 0.0542743 0.051854 0.152969 0.138831 0.0480026 0.0793223 0.046209 0.147643 0.0244463 0.0336252 0.0451234 0.0255134 0.0663483 0.0181909 0.078527 0.0290378 0.00450491 -0.0148374 0.0505669 0.0701847 0.0629992 0.0880528 0.0468509 0.0501453 0.0581758 0.103033 0.140863 0.0284798 0.0754036 0.0559873 0.0590086 0.0644171 0.120837 0.0516315 0.0335536 0.112848 0.095729 0.0918574 0.0400306 0.0658795 -0.00275833 0.0641757 0.0267731 0.0986363 0.00754912 0.0762301 0.0712379 0.111394 0.105636 0.0600249 0.00702983 0.0426781 0.0678353 0.0377376
internal_weight=7829.03 4723.63 4097.63 625.996 196.992 3105.4 371.245 151.154 75.3569 429.004 4022.28 846.438 2734.15 145.601 2588.55 40.6917 320.732 270.812 220.091 139.884 56.2681 33.2247 80.2071 262.334 123.287 97.4274 139.047 101.488 28.6938 53.9487 408.508 395.819 94.8945 36.7475 29.5275 58.147 25.8595 357.059 347.615 319.635 16.1971 104.91 82.2499 22.6597 15.7439 72.8868 61.7107 44.3728 37.5588 15.9138 77.2273 15.3722 61.8552 242.407 232.364 20.0864 47.9521 25.0768 15.4832 39.8659 31.5942 26.0891
internal_count=29480 7111 3443 3668 566 22369 1959 247 552 3102 2891 1063 20410 964 19446 216 2783 2249 1712 1193 420 291 519 2219 1151 958 1068 717 225 324 3068 2937 699 230 161 469 193 2529 2423 2176 109 748 631 117 109 442 503 340 351 113 609 95 514 1567 1515 132 255 181 130 323 241 214
is_linear=0
shrinkage=0.05


Tree=6
num_leaves=63
num_cat=0
split_feature=18 25 8 1 2 2 18 2 2 30 7 16 19 22 19 30 19 30 7 19 16 1 16 22 22 22 1 16 30 30 3 26 22 22 25 22 15 1 26 30 26 30 22 30 22 16 30 16 25 30 22 18 16 18 18 21 32 25 16 22 24 25
split_gain=4886.19 1048.04 232.947 229.505 223.639 193.536 144.976 270.453 138.727 74.3216 63.1621 55.9729 78.0445 110.84 61.7583 58.0645 65.9683 88.306 70.0441 74.4792 137.009 82.6118 70.0383 62.8717 85.5781 56.8467 54.4964 56.7721 67.217 56.8488 55.3718 51.0888 50.3246 48.2803 64.4089 47.9011 54.5594 50.5951 49.2635 54.0427 46.9638 46.4098 66.3984 54.9285 54.2436 48.7454 64.9754 60.1108 85.9773 54.9484 53.9351 78.0774 51.5915 46.214 97.557 45.1664 44.6881 42.038 42.0303 41.9323 41.3059 41.1506
threshold=178.51500000000001 59.500000000000007 1.0000000180025095e-35 4815.0000000000009 36.500000000000007 21.500000000000004 144.12500000000003 36.500000000000007 21.500000000000004 7386.9666666666681 89639.500000000015 0.31897439709136827 0.13530448929299602 709.31000000000006 1.2402864134360791 683.16666666666686 -0.73232086516733708 159.27500000000001 19050.500000000004 -0.16239421493920578 0.19499127404024311 5691.5000000000009 0.14619665999095435 487.23500000000007 582.29500000000007 802.63000000000011 5691.5000000000009 0.19214975207076254 3797.5166666666669 11668.750000000002 1.5000000000000002 15.500000000000002 259.99500000000006 728.94500000000005 24.550000000000004 859.59500000000014 954.69500000000005 5631.0000000000009 21.500000000000004 25646.366666666669 6.5000000000000009 2606.233333333334 746.7700000000001 1114.866666666667 812.12500000000011 0.65510479108404918 2843.9000000000005 0.63212995294545393 19.350000000000005 6263.7333333333345 606.99500000000012 456.36000000000007 0.35320257734660471 228.36500000000004 215.80500000000004 1.5000000000000002 1.0000000180025095e-35 806.50000000000011 0.042763852129501019 892.81000000000006 2.5000000000000004 1493.5000000000002
decision_type=2 2 2 2 2 2 2 2 2 2 2 2 2 2 2 2 2 2 2 2 2 2 2 2 2 2 2 2 2 2 2 2 2 2 2 2 2 2 2 2 2 2 2 2 2 2 2 2 2 2 2 2 2 2 2 2 2 2 2 2 2 2
left_child=6 4 3 57 5 -2 11 8 -8 56 -6 12 15 32 -13 16 17 25 -18 20 22 -22 23 -20 -25 55 30 28 -28 -30 31 -9 -14 34 -32 36 -12 53 39 -37 -35 42 -39 -44 45 47 -47 48 52 -48 51 -51 -43 54 -38 -1 -4 -3 -57 -26 -33 -5
right_child=1 2 9 61 10 -7 7 26 -10 -11 35 14 13 -15 -16 -17 18 -19 19 -21 21 -23 -24 24 59 -27 27 -29 29 -31 33 60 -34 40 -36 38 37 41 -40 -41 -42 44 43 -45 -46 46 49 -49 -50 50 -52 -53 -54 -55 -56 58 -58 -59 -60 -61 -62 -63
leaf_value=0.013169194549128529 0.037154624579113622 0.090471772148822641 0.09330381452544588 0.12809319393414115 0.12899527099589941 0.14285973833437257 -0.00154322889385509 -0.053058635218118655 0.1436286586787264 -0.02999750258106508 -0.018940243408662578 -0.040882001359209316 0.18506523106321537 0.2078229221664929 0.099564113971935458 0.045154627208055895 -0.038906877387247935 -0.025926122322250514 -0.052170006812640723 -0.054195816776876529 0.24900935309727923 0.019117919312828996 -0.054355009544490018 0.15112086347776768 0.0065886762201723056 -0.04586333076210717 -0.049955470162507926 0.00025327949493763317 0.16186326059707579 0.0025242299613788843 0.1448877703404243 -0.045798662547796708 0.057334410659446257 0.15646303313364227 -0.0014345092569856687 -0.054911862653910043 -0.014705665442185821 -0.023469492030652041 0.12982491093710671 0.10318903059568102 -0.02072968672501397 0.1636160584283447 0.14589866161407089 -0.0052073527037860981 0.0061436047280254008 0.2100610291913183 -0.0531969323802505 0.2392934304414554 -0.018193398420808731 0.012691993991707574 -0.019367797469581078 0.17875336761088076 0.080955943223579796 0.0072622922132946233 0.18157345645189973 0.19010269887597556 -0.046341398449623081 0.0045467880194429381 0.027997376681892974 0.16425230135865568 0.12730271767781434 0.14160503466490523
leaf_weight=6.8254515454173079 63.43498345464468 22.693543970584869 51.568592183291912 847.81399293243885 21.895305521786213 142.75394463539124 18.530103169381618 14.605776220560076 139.99458312988281 20.890262745320797 27.242035016417503 35.832914099097252 7.4625874161720267 14.20944384485483 8.9406501203775388 2365.2201199606061 59.195207372307777 17.014646172523499 13.518549449741839 23.344326913356781 10.571075819432737 6.2433645501732817 23.794222511351109 18.428149953484535 39.370208524167538 4.6612670570611945 7.5982473418116561 96.518663845956326 17.414141312241558 8.1811862960457784 41.079531073570251 4.3352664932608596 147.20584935694933 3.9368825554847744 9.0516230612993223 30.935713432729244 12.203258045017721 30.674090959131718 4.640237145125865 5.5365706756710997 14.568629264831541 33.078545480966568 14.037419304251673 9.8075924143195135 23.410903848707676 4.7951623052358618 13.232803292572497 7.5820225849747649 13.898456171154974 13.869608320295812 13.737387895584105 13.971404500305651 53.240126065909863 84.914071977138519 11.76068067550659 21.351388633251194 5.7741414159536353 36.270269796252251 5.4291366860270491 3.748668208718299 10.071646295487879 3337.459771335125
leaf_count=53 503 110 255 861 34 63 185 138 62 228 251 364 31 42 62 16852 570 151 137 227 26 49 228 96 344 45 72 856 76 64 190 39 997 21 74 298 103 273 28 30 132 144 78 84 184 14 118 18 143 99 115 51 305 682 50 81 69 186 39 16 50 1734
internal_value=0.0959628 0.127026 0.135939 0.137518 0.0676932 0.110699 0.0479346 0.0767378 0.126725 0.0495283 0.0475274 0.0439829 0.0448741 0.0779048 -0.0111652 0.0427132 0.0198262 0.0676136 0.00620066 0.0255842 0.0420541 0.169794 0.0187948 0.0424572 0.0638234 0.108932 0.041461 0.019921 0.0752837 0.113131 0.0695309 0.0108981 0.0646787 0.0937308 0.118859 0.0429997 0.048516 0.0537568 -0.00800009 -0.0286651 0.022799 0.0663459 0.0249335 0.0858386 0.0779604 0.0878778 0.0501545 0.108038 0.0957921 0.0325623 0.060582 0.0995081 0.114201 0.0249984 0.0848359 0.131252 0.0786032 0.0386576 0.15961 0.0238212 0.0752975 0.1389
internal_weight=8191.38 4973.12 4322.47 4244.24 650.652 206.189 3218.25 385.886 158.525 78.233 444.463 2832.37 2787.59 168.878 44.7736 2618.72 253.496 55.2819 198.214 139.019 115.674 16.8144 98.8598 75.0656 61.547 38.2672 227.362 129.712 33.1936 25.5953 97.6494 29.0127 154.668 68.6367 50.1312 422.568 381.456 354.214 41.1125 36.4723 18.5055 245.336 54.5191 23.845 190.816 167.406 59.6064 107.799 100.217 54.8112 41.5784 27.841 86.3187 108.878 23.9639 33.606 57.3427 58.9638 26.7805 43.1189 14.4069 4185.27
internal_count=29480 7111 3443 2891 3668 566 22369 1959 247 552 3102 20410 19984 1070 426 18914 2062 369 1693 1123 896 75 821 593 456 218 1712 1068 212 140 644 227 1028 417 264 3068 2712 2461 356 328 153 1626 435 162 1191 1007 397 610 592 383 265 150 449 835 153 173 324 296 120 360 89 2595
is_linear=0
shrinkage=0.05


Tree=7
num_leaves=63
num_cat=0
split_feature=18 25 0 0 8 0 18 0 1 0 17 22 30 15 16 19 22 19 30 19 16 19 30 1 22 22 24 24 0 19 22 22 22 22 13 26 30 19 19 18 1 24 25 19 12 19 16 16 0 12 26 26 11 26 25 12 26 26 19 7 25 25
split_gain=4181.29 886.253 217.696 184.191 183.637 158.597 126.977 219.102 114.001 113.277 52.3951 50.135 49.4141 49.1329 47.6573 62.9596 79.7437 54.4099 48.2806 59.489 109.89 68.2505 81.9987 56.9221 52.0804 51.4389 46.684 45.5514 44.1742 67.0135 54.2951 43.9935 46.7182 43.1583 42.7733 41.4489 48.9949 40.1226 39.7219 39.6285 39.4537 59.0694 84.4656 111.678 69.4809 62.512 68.0427 89.9697 80.2135 69.7026 68.0531 61.1209 53.8303 69.7084 119.713 111.542 86.8719 78.142 75.1342 69.9523 57.9778 61.8849
threshold=178.51500000000001 59.500000000000007 2.5000000000000004 3.5000000000000004 1.0000000180025095e-35 2.5000000000000004 144.12500000000003 3.5000000000000004 4815.0000000000009 2.5000000000000004 774.21500000000003 398.27000000000004 11553.641666666668 927.72000000000014 0.31897439709136827 0.13530448929299602 709.31000000000006 1.2402864134360791 683.16666666666686 -0.16239421493920578 0.19499127404024311 -0.71391066944190407 298.40000000000003 5691.5000000000009 475.96500000000009 802.63000000000011 5.5000000000000009 1.0000000180025095e-35 4.5000000000000009 0.65072345142155197 808.58000000000004 582.29500000000007 892.81000000000006 859.59500000000014 49999822.000000007 21.500000000000004 25646.366666666669 -0.082307862810164986 0.089077101577906215 175.54500000000004 5813.0000000000009 2.5000000000000004 3.8500000000000001 -0.42011701898955328 42516.000000000007 -0.026646837696885795 0.14619665999095435 0.11407615223834318 1.5000000000000002 37053.500000000007 22.500000000000004 1.5000000000000002 4.5000000000000009 15.500000000000002 13.250000000000002 19878.000000000004 17.500000000000004 20.500000000000004 -0.11196174858423123 5231.5000000000009 13.850000000000003 2796.5000000000005
decision_type=2 2 2 2 2 2 2 2 2 2 2 2 2 2 2 2 2 2 2 2 2 2 2 2 2 2 2 2 2 2 2 2 2 2 2 2 2 2 2 2 2 2 2 2 2 2 2 2 2 2 2 2 2 2 2 2 2 2 2 2 2 2
left_child=6 3 13 5 8 -2 14 9 34 -8 -5 -9 28 -3 15 18 26 -16 19 20 21 22 25 -22 -23 27 -17 -1 29 -6 -31 -26 -33 -12 -4 36 -35 -30 40 -13 52 42 44 51 -42 46 47 48 49 -43 -50 -44 -20 54 -54 56 -55 -58 -57 -56 -61 -62
right_child=1 2 4 10 12 -7 7 11 -10 -11 33 39 -14 -15 17 16 -18 -19 38 -21 23 24 -24 -25 31 -27 -28 -29 37 30 -32 32 -34 35 -36 -37 -38 -39 -40 -41 41 45 43 -45 -46 -47 -48 -49 50 -51 -52 -53 53 55 59 58 57 -59 -60 60 61 -63
leaf_value=-0.04535649559078464 0.034948193450706169 0.16049710693923183 0.076900803466738679 0.12316667267935595 -0.053056062144359609 0.12959188852087247 -0.0012281192091968443 -0.051870736506133143 0.12720769307124455 0.1300800195260792 0.045592901889778832 0.049727558479982233 -0.050234740200465006 -0.0097082554675845256 -0.0401602324205938 0.069017448199986287 0.17297970610661523 0.088648648085586368 0.026998321802935696 -0.053976528217326507 0.19401004674065858 -0.044885746162188545 -0.052100310826955071 0.014093263744850574 0.064971946983913287 -0.047371705534274271 -0.009971039175895674 0.11986089365224468 0.2173606982821927 0.01147715623019311 0.15926439499655054 -0.017011705929541675 0.13577355709264699 -0.054498960825335112 -0.025732008565402212 0.1113835175593231 0.092637380341356809 0.059965946095448031 -0.029343489134791602 -0.050780042473101555 0.1019877548409312 -0.054651328704367522 0.1165050065717376 0.05441650200732813 -0.04959249403675485 -0.030160546863939625 0.08422021246172684 0.0069093755214452175 0.067639916278435741 0.14775428157476597 -0.051114756415260268 -0.00039745302436205993 -0.021318448733076038 0.18958932364104469 -0.030136544232060875 0.00021663006073137771 -0.0039721358694523095 0.12566368838078831 0.12138973812642838 0.20276869477366893 0.044663571323422385 0.13520285825447201
leaf_weight=4.0675329566001883 64.805976524949074 3.7658918201923361 39.044727519154549 19.467747643589973 14.462886542081831 146.52880549430847 18.42001835256815 13.273294247686861 4335.6628363281488 143.81568288803101 400.01091032475233 213.14477680623531 11.091862700879572 37.402287170290947 34.699598133563995 140.84027044475079 16.355652928352356 9.6430202424526197 731.3212453275919 24.556286104023457 12.984494894742967 48.721010312438011 12.652978122234343 6.745263844728469 32.036336936056614 5.7319918721914283 21.153578370809555 41.191615596413612 6.38542062789202 13.969930343329908 10.566545598208902 63.738452643156052 4.421195723116397 29.882004231214523 12.954778850078581 5.230918049812316 5.9610006883740416 11.8158703148365 18.911319077014923 9.4506102204322797 64.352863371372223 24.449880890548233 10.708705738186834 204.00888495147228 7.8996356427669516 19.575393460690975 198.76834890991449 100.75745747983456 428.72336543351412 4.1151984483003607 11.67460687458515 246.21103394031525 69.68105424195528 27.464121520519257 19.664332196116447 51.51012172549963 18.685937494039536 29.19244672358036 16.057966224849224 6.8860108628869048 111.78679271787405 22.420335672795773
leaf_count=36 499 8 171 15 142 62 184 139 2514 61 2733 1482 132 211 364 864 42 62 5320 249 30 498 125 53 216 57 164 194 8 103 28 586 18 300 64 29 30 62 159 93 306 228 52 1338 79 166 1107 788 2661 17 126 1998 578 104 169 391 141 146 88 25 771 94
internal_value=0.0878566 0.115985 0.123994 0.0622665 0.125051 0.100894 0.0440722 0.0706122 0.12632 0.115225 0.0443504 0.0395487 0.0427887 0.00917973 0.0404346 0.0412271 0.0700907 -0.0107011 0.0392946 0.0185354 0.0264209 0.0155996 0.0585057 0.136388 -0.00297222 0.0865219 0.0586744 0.104245 0.0614661 0.0298393 0.0790615 0.0176013 -0.00520906 0.0405897 0.0512342 -0.00794237 -0.028043 0.123888 0.041465 0.04523 0.0420309 0.0479042 0.034905 0.026891 0.0848959 0.0566374 0.0588912 0.0499134 0.0591079 -0.0213115 0.0643718 0.00488861 0.0349646 0.0504418 0.0331554 0.0778569 0.119362 0.0759211 0.0304374 0.056784 0.0690603 0.0607139
internal_weight=8491.48 5169.01 4497.12 671.887 4455.95 211.335 3322.47 398.104 4387.66 162.236 460.553 235.869 68.2925 41.1682 2924.37 2880.02 178.35 44.3426 2701.67 256.847 232.291 212.561 63.6441 19.7298 148.917 50.9911 161.994 45.2591 57.2007 38.9994 24.5365 100.196 68.1596 441.085 51.9995 41.0739 35.843 18.2013 2444.83 222.595 2425.92 1321.25 533.181 460.929 72.2525 788.064 768.489 569.721 468.963 28.5651 440.398 256.92 1104.67 373.349 230.439 142.911 75.3425 47.8784 67.5681 160.757 141.093 134.207
internal_count=29480 7111 3443 3668 3224 561 22369 1959 2749 245 3107 1714 475 219 20410 19984 1070 426 18914 2062 1813 1730 412 83 1318 287 1028 230 343 273 131 820 604 3092 235 359 330 70 16852 1575 16693 8866 3773 3388 385 5093 4927 3820 3032 245 2787 2050 7827 2507 1637 870 391 287 479 1059 890 865
is_linear=0
shrinkage=0.05


Tree=8
num_leaves=63
num_cat=0
split_feature=18 25 2 2 2 2 2 8 1 7 23 25 22 22 17 25 13 16 28 25 22 15 22 22 2 16 22 25 1 25 1 25 25 25 26 15 15 26 1 17 22 26 17 26 17 1 22 25 15 22 22 25 15 22 22 26 17 25 15 17 16 25
split_gain=3668.23 644.582 228.157 479.418 214.771 140.657 131.746 123.199 99.1997 78.1651 95.5686 82.706 64.6426 72.6869 57.2825 56.8727 56.274 52.4216 50.455 63.8483 57.9477 56.1886 49.6322 49.0084 43.4935 94.7602 95.6016 89.625 50.9818 50.1169 52.3512 47.6435 68.4229 61.6185 54.0385 80.1881 72.0478 51.911 49.9252 49.8793 55.7482 45.3914 43.7931 43.561 44.8439 41.9532 43.9243 63.8181 40.0794 40.0721 48.2645 45.9575 39.9183 39.4532 74.1316 38.6757 38.5502 38.1747 85.7591 77.6945 69.135 49.2133
threshold=198.87000000000003 59.500000000000007 36.500000000000007 21.500000000000004 21.500000000000004 36.500000000000007 21.500000000000004 1.0000000180025095e-35 4815.0000000000009 6774.5000000000009 5.0000000000000009 785.50000000000011 609.36000000000001 542.50500000000022 997.13000000000011 12.65 63498568.500000007 0.42972874722673871 1.0000000180025095e-35 16.650000000000002 451.60000000000008 691.45500000000015 816.78500000000008 381.92500000000001 61.000000000000007 0.22428920866491972 259.99500000000006 2.0500000000000003 5361.0000000000009 2.4500000000000006 5691.5000000000009 8.2500000000000018 9.8500000000000032 8.0500000000000025 17.500000000000004 181.28000000000003 111.18000000000002 19.500000000000004 5476.0000000000009 210.40500000000003 755.44500000000016 10.500000000000002 93.185000000000016 2.5000000000000004 37.505000000000003 5004.5000000000009 874.7700000000001 6.0500000000000007 5238.4450000000006 394.33000000000004 440.88000000000005 5.8500000000000005 313.19500000000005 512.5200000000001 683.23500000000013 22.500000000000004 540.86000000000013 4479.0000000000009 32.365000000000002 93.185000000000016 0.031854930290299434 10.850000000000003
decision_type=2 2 2 2 2 2 2 2 2 2 2 2 2 2 2 2 2 2 2 2 2 2 2 2 2 2 2 2 2 2 2 2 2 2 2 2 2 2 2 2 2 2 2 2 2 2 2 2 2 2 2 2 2 2 2 2 2 2 2 2 2 2
left_child=2 5 3 9 -3 6 -2 8 56 10 -1 12 13 18 -7 -15 17 24 19 20 -11 -21 23 -13 25 27 -27 -4 49 30 43 33 -33 34 35 -29 42 52 -39 -37 -41 -32 -36 -26 -45 -14 -47 -48 55 -28 -51 -52 -38 -25 -55 -16 -6 59 -59 -34 -61 -62
right_child=1 4 16 -5 7 14 -8 -9 -10 11 -12 22 45 15 48 -17 -18 -19 -20 21 -22 -23 -24 53 29 26 28 31 -30 -31 41 32 57 -35 36 39 37 38 -40 40 -42 -43 -44 44 -46 46 47 -49 -50 50 51 -53 -54 54 -56 -57 -58 58 -60 60 61 -63
leaf_value=-0.055290337772686708 0.032187749147419946 -0.0069695944314189691 -0.023653090488216365 0.12153720286126127 -0.059613245214370537 0.11987147693970875 0.12091440011687407 0.042526269379884241 0.11780001447736473 0.076107730732334566 0.10004386987645791 -0.0049338780342835578 0.094274073844927225 0.0164461606013937 0.04391785053453677 0.14290531595009778 -0.054333843613071177 -0.034780398097023144 0.20391213354599538 -0.043683430510085178 -0.026808134049419577 0.12317987389869965 -0.048241176716086 0.1626654876202806 0.1780674995956805 0.18201922706455961 -0.050101521809695751 -0.028593124243514231 -0.030357466834642324 0.040920722051630304 0.031487190312603761 -0.024710885428394846 -0.0051139451918691889 0.16328483665805388 0.084853585151685978 0.14107900579104929 0.011382334875954067 0.14091166110273662 -0.030764797698401427 0.060847180395400539 -0.030866937872668698 0.11737085790666518 0.2488434409226668 0.11142960759095254 -0.013441768011592168 -0.025623455160619393 0.18561956484114478 -0.04633691400969682 -0.05063011883037917 0.16676812517950579 0.12875283856491712 -0.051120298246955548 0.16098030082049328 -0.017703523974829456 0.12959405433395066 -0.051053871635913808 0.063674979370563975 0.17603080298579921 0.046690021702836558 0.1466160137497555 0.090646449972541399 0.033415079982787373
leaf_weight=43.094061724841595 61.003185488283634 35.603340677917004 59.382504433393478 263.23908925056458 6.4637692496180525 22.205617539584637 140.17347359657288 58.007710963487625 4338.0869985669851 55.217914462089539 11.784415408968924 9.5359734371304494 9.1575099825859052 13.17466428875923 365.70949528366327 28.999528758227825 15.961692206561564 24.198976546525955 2.9981339052319518 40.442997232079506 17.421976387500763 4.7591614201664916 5.5198308154940596 26.212637357413769 3.4363643005490294 5.4323331341147414 7.6753213629126575 35.851354666054249 112.09372217953205 1421.3810514807701 21.59201742708683 46.536855340003967 114.02672033756971 12.734638214111326 9.835208438336851 14.300220489501951 6.9096047356724766 4.31185054779053 19.866776548326015 83.206038370728493 19.887330181896687 63.897123008966446 8.9070926457643491 8.0738513767719251 33.675016805529594 79.969440400600433 5.3427913486957532 4.9137023463845253 11.405882477760313 8.0297212675213832 4.5988349691033354 8.726336255669592 12.915328137576578 12.826850712299345 23.040006168186665 10.193553023040293 46.887270450592041 14.065333433449267 99.301499202847481 13.854703947901724 39.548133939504623 627.63088288903236
leaf_count=420 451 201 492 109 32 23 58 384 2350 335 49 70 47 98 2373 127 138 231 4 367 150 19 48 88 8 14 71 305 972 9548 133 387 891 47 53 64 48 22 167 510 166 258 14 32 253 706 14 48 129 21 17 79 55 98 94 101 200 43 643 57 218 4330
internal_value=0.0810729 0.108455 0.0427142 0.0693874 0.115024 0.0600922 0.0943267 0.116003 0.116962 0.0343495 -0.0206515 0.0432885 0.0296718 0.0489547 0.0430733 0.104813 0.0368084 0.0373187 0.0287185 0.0225408 0.0513276 -0.023721 0.0885734 0.0997065 0.0379251 0.0314343 -0.00652331 0.0359151 -0.0150458 0.0437095 0.0734643 0.0389251 0.0339357 0.0594965 0.0526299 0.0361686 0.0915571 0.0542549 0.00403277 0.0560631 0.0429804 0.0963519 0.171698 0.0289048 0.012632 -0.00208006 -0.0128406 0.0798049 0.0383599 0.0429526 0.0773666 0.0152635 0.112131 0.115683 0.0777299 0.0412006 0.047824 0.0369695 0.0641798 0.0330075 0.0393958 0.0369456
internal_weight=8735.24 5095.74 3639.5 657.651 4485.05 610.691 201.177 4449.45 4391.44 394.412 54.8785 339.533 262.398 163.014 409.515 42.1742 2981.84 2965.88 120.84 117.842 72.6399 45.2022 77.1353 71.6155 2941.68 1389.63 146.556 1243.07 141.124 1552.06 130.674 1183.69 954.964 228.725 215.991 153.245 62.7459 44.0036 24.1786 117.394 103.093 85.4891 18.7423 45.1852 41.7489 99.3834 90.2259 10.2565 387.309 29.0302 21.3549 13.3252 19.8249 62.0795 35.8669 375.903 53.351 908.427 113.367 795.06 681.034 667.179
internal_count=29480 6302 23178 2891 3167 3135 509 2966 2582 2782 469 2313 1915 1100 2626 225 20287 20149 875 871 485 386 398 350 19918 9686 1174 8512 1160 10232 684 8020 6569 1451 1404 1045 359 292 189 740 676 391 67 293 285 815 768 62 2603 188 117 96 103 280 192 2474 232 6182 686 5496 4605 4548
is_linear=0
shrinkage=0.05


Tree=9
num_leaves=63
num_cat=0
split_feature=18 25 2 2 2 2 2 8 7 23 25 13 17 30 21 25 29 25 25 25 7 30 29 17 23 25 23 12 12 7 19 7 24 19 2 19 25 32 25 2 18 7 4 25 24 25 25 25 25 26 12 25 26 26 24 26 26 30 25 30 19 25
split_gain=3266.64 579.23 204.518 426.438 186.009 126.662 117.799 110.935 68.0663 85.9421 66.7762 50.402 50.0626 46.1969 51.2172 58.7724 53.1767 50.8837 44.0908 75.0031 46.0372 43.1598 78.0728 72.07 57.235 49.635 68.0608 65.0267 47.3616 40.9434 65.2852 52.0922 40.713 38.3698 55.0094 48.4984 41.8813 37.9668 80.7337 346.957 36.7031 36.0934 47.5483 35.8212 55.3483 66.7653 52.9476 45.698 61.2354 48.3819 67.0178 45.0936 76.0846 41.5007 35.4911 48.9006 35.3247 35.0518 34.7748 42.9637 44.1031 39.1187
threshold=198.87000000000003 59.500000000000007 36.500000000000007 21.500000000000004 21.500000000000004 36.500000000000007 21.500000000000004 1.0000000180025095e-35 6774.5000000000009 5.0000000000000009 785.50000000000011 63498568.500000007 997.13000000000011 1198.2250000000001 1.0000000180025095e-35 8.2500000000000018 1.0000000180025095e-35 4.2500000000000009 8.0500000000000025 24.750000000000004 9832.5000000000018 8228.3000000000011 1.0000000180025095e-35 259.69500000000005 5.0000000000000009 17.650000000000002 2.0000000000000004 39150.500000000007 25580.000000000004 38192.500000000007 -0.63030620990674469 8488.5000000000018 3.5000000000000004 -0.26292698154931987 15.500000000000002 -0.63524218748912575 1013.5000000000001 1.0000000180025095e-35 1493.5000000000002 71.500000000000014 195.47500000000002 37018.500000000007 4.5000000000000009 10.65 2.5000000000000004 13.850000000000003 14.450000000000001 15.850000000000003 18.250000000000004 17.500000000000004 157605.00000000003 17.650000000000002 5.5000000000000009 19.500000000000004 6.5000000000000009 16.500000000000004 7.5000000000000009 11553.641666666668 8.2500000000000018 1354.166666666667 -0.23576577068376423 4479.0000000000009
decision_type=2 2 2 2 2 2 2 2 2 2 2 2 2 2 2 2 2 2 2 2 2 2 2 2 2 2 2 2 2 2 2 2 2 2 2 2 2 2 2 2 2 2 2 2 2 2 2 2 2 2 2 2 2 2 2 2 2 2 2 2 2 2
left_child=2 5 3 8 -3 6 56 37 9 -1 21 13 -7 14 15 17 18 -4 20 29 -16 22 23 28 32 26 27 -25 -10 30 31 -20 -23 35 36 -12 -35 38 39 -6 58 -37 -43 -14 -45 -46 -47 -48 51 -50 -51 52 -49 -52 -22 -56 -2 -9 -15 60 -60 -61
right_child=1 4 11 -5 7 12 -8 57 10 -11 33 -13 43 40 16 -17 -18 -19 19 -21 54 24 -24 25 -26 -27 -28 -29 -30 -31 -32 -33 -34 34 -36 41 -38 -39 -40 -41 -42 42 -44 44 45 46 47 48 49 50 53 -53 -54 -55 55 -57 -58 -59 59 61 -62 -63
leaf_value=-0.054881481067142857 -0.051352194151317226 -0.0066576551255563346 -0.048823996928292535 0.11337615721043022 0.11775206108272895 0.11041253762907055 0.11284455531194304 0.055142680938462779 0.075713912958538951 0.089845249653871986 0.1069503036170715 -0.053796979394817535 0.051177031468202662 0.047558380486369727 0.065905116831872765 -0.054966152566847996 -0.028798893975210779 0.1155821614361725 0.0054482268565435527 0.0033835249953862463 -0.055078519689178443 0.013119412283300953 -0.053133752895225532 -0.046355334898727285 0.085126988279048965 -0.035963378779159581 -0.012077405352431183 0.14979893756812943 0.21308990351759355 0.091327823233913683 -0.0028980338172619959 0.1181047012470417 -0.055444478539257526 0.12511778950907246 0.15289108901676049 -0.054503709869659779 -0.05166202319732658 0.11302081219902163 0.10802976208621147 0.011564438767943379 -0.053277322401977502 -0.047752525737664003 0.14029606636835598 -0.012375254379368225 -0.0344802213203972 0.14551763591285197 -0.052984833008615097 0.2025025395834554 -0.012968404290255482 -0.048502531559794865 0.20100892014581806 0.18735416472314531 -0.015053421497023281 0.024890436078752326 -0.046372556455020537 0.17452715155900339 0.04654621229639283 -0.048971805985590595 0.11813487925298667 0.030371039768833121 -0.0051905441126449906 0.052555092718816136
leaf_weight=41.297606006264687 10.232143260538576 35.458647444844246 7.0690099149942425 268.01406383514404 217.13551447540522 22.967053577303886 142.68766808509827 50.961145684123039 66.327225416898727 12.558038897812365 17.201257839798927 15.340651631355284 189.21979679167271 637.16372907906771 15.292768985033034 42.73767226934433 38.158597894012928 10.722829915583132 15.544830456376074 81.554694950580597 34.219989418983459 55.803843677043915 17.570721015334129 4.8470576703548458 16.715787544846535 24.991152882575989 22.224705293774605 18.371927067637444 6.5048580169677725 69.137834928929806 45.547506615519524 30.350743368268013 34.008949108421803 4.6927148178219777 27.299932636320591 13.396735511720182 7.1891355961561203 2611.8835140019655 1530.0255121663213 119.36529731750488 10.351449862122534 5.2031633481383306 6.7321371212601662 77.615027315914631 23.484123229980469 13.911485552787779 10.237725399434565 4.9335418641567292 34.472631111741066 6.296422719955447 8.7956903353333455 11.377245664596556 11.961226485669611 5.6663710474967948 4.8440542072057706 3.526636004447937 52.241603799164295 8.7202327251434308 27.501595720648766 1733.1062396764755 9.5102630853652936 227.11744165420532
leaf_count=420 97 201 72 109 89 23 58 279 379 49 68 138 1069 3895 81 435 398 48 116 638 330 411 183 46 92 223 181 74 9 370 352 144 317 16 86 107 56 1156 858 479 89 45 20 633 205 53 83 10 306 61 21 32 89 41 46 12 354 105 125 11619 69 1310
internal_value=0.0753081 0.10092 0.0395832 0.0645971 0.107101 0.0556621 0.0878718 0.107993 0.0319388 -0.0200204 0.0400036 0.0340754 0.0397805 0.0345375 0.0185758 -0.0234538 0.0261603 0.0508725 0.0332394 0.0425803 -0.00580929 0.0276972 0.0439682 0.0561975 0.00290408 0.0196071 0.0503913 0.108421 0.0907711 0.0623121 0.0395694 0.0809844 -0.0131129 0.0793873 0.114878 0.0446905 0.0220615 0.108898 0.103069 0.0802453 0.036934 0 0.0605762 0.0354252 0.0209475 0.0406522 0.0572547 0.0427057 0.054985 0.023404 0.0818557 0.113603 0.0559631 0.1384 -0.0325952 0.0548537 0.0298769 0.0392915 0.0373104 0.0340164 0.0870118 0.0329694
internal_weight=8929.4 5199.65 3729.75 670.951 4573.55 626.1 205.161 4538.09 402.937 53.8556 349.081 3058.8 420.938 3043.46 398.707 60.5295 338.178 17.7918 300.019 242.136 57.8834 267.366 160.838 143.267 106.529 70.4348 45.4437 23.219 72.8321 160.581 91.4431 45.8956 89.8128 81.7151 39.1818 42.5333 11.8819 4478.41 1866.53 336.501 2644.75 25.332 11.9353 397.971 208.751 131.136 107.652 93.7409 83.5031 55.2311 20.7585 28.272 16.8948 14.4621 42.5907 8.37069 62.4737 59.6814 2634.4 1997.24 37.0119 1960.22
internal_count=29480 6302 23178 2891 3167 3135 509 2966 2782 469 2313 20287 2626 20149 3042 555 2487 120 2089 1620 469 1915 1095 912 820 524 301 120 388 982 612 260 728 398 158 240 72 2582 1426 568 17107 172 65 2603 1534 901 696 643 560 429 123 131 99 62 388 58 451 384 17018 13123 194 12929
is_linear=0
shrinkage=0.05


Tree=10
num_leaves=63
num_cat=0
split_feature=18 28 2 2 2 2 7 26 22 13 7 22 1 1 30 22 22 22 26 24 30 30 26 29 30 20 30 21 30 22 3 26 21 1 22 17 17 1 22 30 30 30 22 1 30 18 26 26 22 24 26 1 6 24 22 30 22 30 22 7 22 15
split_gain=2962.86 393.245 763.432 249.74 185.377 385.098 59.4708 54.8178 47.8131 45.2989 43.7434 73.3677 53.2621 42.8656 41.9671 46.8417 57.3117 49.6971 50.3597 46.6177 39.195 39.1308 68.2235 67.6502 45.3929 41.9431 91.8807 70.1173 38.9932 50.838 50.7973 47.3187 50.024 45.6793 42.0822 38.5861 51.1917 40.6391 38.2723 37.8911 52.0179 39.5685 37.2548 36.887 34.8909 34.8538 56.9085 47.5635 45.8223 36.5295 54.5202 34.4204 47.5942 39.9851 69.9302 123.888 74.3992 64.0158 78.9757 75.7563 56.3362 47.3703
threshold=198.87000000000003 1.0000000180025095e-35 36.500000000000007 21.500000000000004 36.500000000000007 21.500000000000004 6774.5000000000009 22.500000000000004 609.36000000000001 63498568.500000007 11994.500000000002 746.7700000000001 5476.0000000000009 6531.0000000000009 2753.2416666666672 664.10000000000014 483.52000000000004 691.01500000000021 7.5000000000000009 1.5000000000000002 2171.1166666666672 8228.3000000000011 7.5000000000000009 1.0000000180025095e-35 21965.133333333335 1.0000000180025095e-35 4042.9000000000001 2.5000000000000004 1198.2250000000001 422.98000000000008 2.5000000000000004 7.5000000000000009 1.0000000180025095e-35 5916.5000000000009 815.11500000000012 589.59000000000003 508.85000000000008 7421.5000000000009 892.81000000000006 3479.3916666666669 19916.191666666669 23658.983333333334 789.70000000000016 5984.0000000000009 216.30000000000001 363.92000000000002 14.500000000000002 6.5000000000000009 780.21000000000015 2.5000000000000004 6.5000000000000009 5813.0000000000009 50000.000000000007 2.5000000000000004 381.92500000000001 9543.9500000000025 313.02500000000003 1824.0166666666669 559.55500000000018 91208.500000000015 270.75000000000006 181.28000000000003
decision_type=2 2 2 2 2 2 2 2 2 2 2 2 2 2 2 2 2 2 2 2 2 2 2 2 2 2 2 2 2 2 2 2 2 2 2 2 2 2 2 2 2 2 2 2 2 2 2 2 2 2 2 2 2 2 2 2 2 2 2 2 2 2
left_child=4 2 3 -2 5 6 -1 14 13 28 12 -12 -10 21 19 16 39 -17 -19 -4 -13 23 -23 25 43 -8 -27 -28 29 30 -6 -31 -33 44 -34 36 37 42 -36 -16 -41 -42 -22 -24 -32 48 47 -47 -21 -50 -51 52 -30 54 55 -53 -57 58 -55 60 -59 -56
right_child=1 -3 7 -5 9 -7 8 -9 10 -11 11 20 -14 -15 15 17 -18 18 -20 45 35 22 24 -25 -26 26 27 -29 51 31 33 32 34 -35 38 -37 -38 -39 -40 40 41 -43 -44 -45 -46 46 -48 -49 49 50 -52 53 -54 57 61 56 -58 59 -60 -61 -62 -63
leaf_value=-0.019418754639180986 0.019704736016725316 0.1036538171447256 -0.043758647788762026 0.10808965420442065 -0.040434765826632968 0.10660252126969899 0.10056110933904111 -0.056502502357185375 0.14880081966619052 -0.053280196936767804 -0.0462165859869677 -0.051586381309801789 -0.0068378437872080901 -0.051005365409347359 0.10178002307820105 -0.056485384962367241 0.076248372671746431 -0.027749873447198699 0.040138873604519981 -0.042608300126887412 0.087228766270903577 0.1040161070338505 -0.05598558194905659 -0.050490657385884687 0.058405673087925471 -0.0545197495099125 -0.047030518129215576 0.16858418946016809 0.029490356361599985 -0.020630286001680438 0.10669941261918821 -0.01702027865187633 0.053528933567945497 -0.051696751631819096 -0.035939495210701673 -0.020457429393070294 0.16487828759753753 0.14230100922431868 0.098401954413753517 -0.020298246600693653 0.14626922601690098 -0.00092570193163617068 -0.029476228766933222 0.060241684653056439 -0.0072912995753136034 0.077252982956245775 0.10143862239428601 -0.056859537987000768 0.1368559093861485 0.13657879177003082 -0.054891162602590728 0.0084202296986599767 -0.054244052398329738 0.012858054855806026 -0.012987916595352514 0.043519814845751778 0.15111054178286396 -0.053992543372346914 0.1327205054003667 -0.054925862741776181 0.047136739442280612 0.027992959875570392
leaf_weight=52.827366087585688 88.291885197162628 3676.3799290284514 33.028726071119308 912.15165996551514 63.142899870872498 270.7744607925415 89.350207336246967 17.45926621556282 11.102896191179754 14.739897735416887 46.923625156283379 10.474009387195109 9.8090716525912267 8.9797877296805364 11.379032783210276 17.212156139314175 129.89158126711845 31.473524235188961 176.17010065168142 31.946283295750618 9.5411452278494853 20.580240555107594 30.906636424362659 9.5946292951703054 20.659791529178619 15.271686375141142 4.6970658227801332 12.348886594176292 1329.9643138870597 42.677380733191967 17.330391854047779 37.729961439967155 190.41348887234926 10.869212947785853 25.267503783106807 14.342885352671145 10.360586144030092 6.6831611320376387 5.6412965059280387 48.681234262883663 8.865762725472452 8.3507046997547132 18.477559328079224 7.7643877789378157 10.276545651257036 10.194083951413633 26.88302543759346 15.142884552478789 6.8495250493288067 4.3638359233736983 11.109060212969778 59.275311879813671 16.26598097383976 20.446639724075794 88.152716971933842 28.716004960238934 39.484001576900482 13.202037312090395 43.072076372802258 18.525483556091785 717.79316039383411 338.85001953691244
leaf_count=469 586 1940 256 369 599 109 394 149 27 138 420 103 70 84 36 137 595 225 961 254 46 94 268 103 117 129 40 37 8646 411 81 339 1171 105 225 133 33 23 23 317 22 51 151 41 88 48 108 118 22 15 93 412 141 127 669 174 141 109 145 159 4197 2187
internal_value=0.0703379 0.0946435 0.0737474 0.100322 0.0367568 0.0604031 0.0297463 0.0285074 0.0370517 0.0315923 0.013756 0.00153779 0.0785877 0.0514735 0.0312071 0.0388956 0.056042 0.0228976 0.029741 0.00725631 0.0338748 0.0560746 0.0278876 0.0728561 0.000111462 0.0829562 0.0325757 0.10958 0.0320122 0.0174151 -0.0130442 0.0276992 0.0357291 0.0316652 0.0447802 0.0496301 0.0720066 0.0402973 -0.00894814 0.0214738 0.00621785 0.0784675 0.0117292 -0.0315931 0.0653206 0.0233856 0.052148 -0.00182635 -0.00464323 0.0489726 0.00381875 0.0341727 0.0284354 0.0397921 0.029315 0.0617109 0.107165 0.0468864 0.0950117 0.0426801 0.0452322 0.0195104
internal_weight=9079.13 5265.82 1589.44 1000.44 3813.31 681.47 410.696 589.001 357.868 3131.84 137.715 116.803 20.912 220.153 571.542 432.024 207.168 224.856 207.644 139.517 69.8793 211.174 79.9111 131.262 59.3308 121.668 32.3176 17.046 3117.1 403.349 101.619 301.73 259.052 38.4762 221.322 59.4053 45.0625 34.7019 30.9088 77.2767 65.8977 17.2165 28.0187 38.671 27.6069 106.489 52.22 25.337 54.2687 22.3224 15.4729 2713.75 1346.23 1367.52 554.478 127.475 68.2 813.039 63.5187 749.521 730.995 427.003
internal_count=29480 6302 4362 955 23178 2891 2782 3407 2313 20287 1006 909 97 1307 3258 2344 1021 1323 1186 914 489 1223 520 703 426 600 206 77 20149 3042 873 2169 1758 274 1419 386 253 220 248 426 390 73 197 309 169 658 274 166 384 130 108 17107 8787 8320 3583 727 315 4737 272 4465 4306 2856
is_linear=0
shrinkage=0.05


Tree=11
num_leaves=63
num_cat=0
split_feature=18 25 2 2 2 2 8 2 1 17 25 22 22 13 17 25 25 22 28 25 19 22 17 26 17 22 25 22 19 22 25 19 22 1 19 25 18 25 24 18 15 19 22 19 22 19 17 24 17 22 15 25 24 26 17 22 26 10 25 25 19 25
split_gain=2719.09 484.917 169.154 352.179 157.095 105.074 98.0836 96.623 84.4304 52.1627 52.4762 44.7635 51.9076 40.8607 39.8568 37.9559 37.2437 35.9661 35.5015 48.1515 53.6332 43.3255 34.69 34.6388 34.1728 34.1501 49.4044 33.9434 36.7421 48.8199 37.033 47.3049 33.9273 33.769 35.2824 51.4716 33.3903 32.3475 34.4401 56.8101 49.0386 31.831 73.6845 60.2039 54.256 47.715 44.4444 48.3362 59.4294 44.2304 58.5461 41.4008 38.0052 33.686 55.9039 53.2239 43.4992 74.0801 61.6582 41.8932 36.961 36.3064
threshold=198.87000000000003 59.500000000000007 36.500000000000007 21.500000000000004 21.500000000000004 36.500000000000007 1.0000000180025095e-35 21.500000000000004 4815.0000000000009 67.745000000000019 785.50000000000011 609.36000000000001 542.50500000000022 63498568.500000007 997.13000000000011 806.50000000000011 12.65 816.78500000000008 1.0000000180025095e-35 16.650000000000002 0.59824506453783122 451.60000000000008 76.510000000000005 21.500000000000004 14.125000000000002 874.7700000000001 6.0500000000000007 859.59500000000014 0.038622496363746657 752.12500000000011 1.2500000000000002 3.8270523482311405 381.92500000000001 5631.0000000000009 2.8974859802746029 7.2500000000000009 195.47500000000002 1.6500000000000001 4.5000000000000009 211.81500000000003 1622.1900000000003 -0.85553404255536958 278.12500000000006 -1.0567623748991584 283.59000000000009 1.0895961385903672 67.745000000000019 3.5000000000000004 108.62000000000002 288.33000000000004 137.20000000000002 23.850000000000005 1.0000000180025095e-35 22.500000000000004 116.78000000000002 485.87500000000006 21.500000000000004 2.5000000000000004 7.8500000000000005 10165.500000000002 0.31563463468397424 1231.5000000000002
decision_type=2 2 2 2 2 2 2 2 2 2 2 2 2 2 2 2 2 2 2 2 2 2 2 2 2 2 2 2 2 2 2 2 2 2 2 2 2 2 2 2 2 2 2 2 2 2 2 2 2 2 2 2 2 2 2 2 2 2 2 2 2 2
left_child=2 5 3 9 -3 7 8 37 15 24 11 12 18 36 -7 -6 -14 32 19 21 22 -11 -21 25 -1 -13 -27 28 29 -16 -30 33 -12 34 -32 -36 41 -2 39 -39 -40 42 -4 51 45 52 -45 48 -48 50 -46 -44 -43 56 55 -55 -51 58 -58 -59 61 -60
right_child=1 4 13 -5 6 14 -8 -9 -10 10 17 23 16 -15 27 -17 -18 -19 -20 20 -22 -23 -24 -25 -26 26 -28 -29 30 -31 31 -33 -34 -35 35 -37 -38 38 40 -41 -42 44 43 46 49 -47 47 -49 -50 53 -52 -53 -54 54 -56 -57 57 59 60 -61 -62 -63
leaf_value=0.047600475738449624 0.1149771054638169 -0.008410377264128556 0.16059313478704246 0.1008931967594881 0.08394524924567727 0.096367961330312307 0.033001058333922272 0.10039143143512685 0.097362818373186624 0.059028415641404958 -0.0084193288691107922 -0.025362608474145738 0.011864690218533551 -0.052781554722071126 -0.04789691294261797 0.0023364106143838846 0.10975782024571766 -0.048341519224052582 0.15532174161558043 0.12004074493614401 0.1181718790686796 -0.027837284538756626 -0.055596288452232794 0.079796565956479701 -0.04243475529145356 0.14720723770519165 -0.046865708176378487 -0.015377332537075145 0.086863913607942406 0.12309895418984323 -0.013660988197834954 -0.054478239312145293 0.088116631363432077 0.040665359189607203 0.14155118893946758 -0.012263025959709524 -0.053284915887779977 0.13259128513334278 -0.048920612153946483 -0.040829241004149155 0.11270602252522782 0.04801680813197249 -0.041102762358510889 0.024072589392936251 -0.049258728305220836 0.10765296098802396 0.097919603645038128 0.11286930261849781 -0.015293880095122822 0.028933702380653958 0.11646042326955586 0.045224891907323386 -0.02160174471006673 -0.046802427656919415 -0.021745415653806745 0.1287714092013488 -0.016860993353075261 -0.0050795526576747595 0.12382788299272805 0.14541038450609142 -0.044189376708738549 0.005101489383511815
leaf_weight=13.385925583541392 7.9321660697460166 36.257099784910679 12.847400568425654 271.81453990936279 23.24263458698988 23.921382613480091 63.041625827550888 144.68567371368408 4497.1549498438835 62.385333225131035 10.096554741263388 78.446048937737942 13.935513049364088 14.159351788461207 4.5265603214502361 35.020217895507812 34.293336726725101 5.5134592652320853 3.8114204108715048 2.0808953344821921 4.8420544415712348 17.813645265996456 38.543882295489311 10.210832029581068 38.687821984291077 6.4037761241197568 5.1598801240324974 35.711442440748215 26.411528088152409 21.161107875406742 67.099635191261768 16.398679941892624 72.284969732165337 223.30750035494566 9.1663864478468913 11.268746890127657 11.153687059879301 4.5074597448110572 6.1048332080245045 32.301607474684715 13.951519787311552 22.826080821454525 31.635965682566166 65.587698563933372 5.9027962237596503 8.331507094204424 21.350869469344616 48.159339733421803 23.466858960688114 2551.2658686488867 27.699481397867203 23.166776917874813 109.56883755326271 5.652022302150729 69.276014097034931 12.575617372989653 12.045645795762537 46.351119235157967 61.927751012146473 4.1249056011438361 3.4724058508872977 7.369639888405799
leaf_count=83 35 201 43 109 84 23 384 58 2350 335 70 689 98 138 35 148 127 48 4 6 14 150 366 62 386 13 51 295 112 87 501 145 280 1307 29 92 99 18 53 272 73 141 255 421 49 41 94 186 172 16110 123 123 856 61 585 57 81 314 254 11 29 44
internal_value=0.0659753 0.089263 0.0342083 0.0566789 0.0949118 0.048624 0.0957256 0.077753 0.0965851 0.0277362 0.034398 0.0235675 0.0385704 0.0293472 0.0345668 0.0358439 0.0823892 0.0679378 0.0217037 0.0164174 -0.0242817 0.0395672 -0.0438119 -0.00310383 -0.0187356 -0.0133366 0.0633735 0.0307699 0.0351564 0.0921139 0.0307571 0.0259626 0.0762663 0.0303835 0.00393409 0.0598836 0.0297303 0.0263704 0.0121509 -0.0165156 0.0632851 0.0300402 0.0481976 0.0406891 0.0286295 -0.00162188 0.0562211 0.0783486 0.0394912 0.0301476 0.0866224 -0.00436338 -0.00929141 0.0294308 -0.00103228 0.0744668 0.0304248 0.0580888 0.086375 0.00970728 0.103528 0.111525
internal_weight=9192.8 5303.17 3889.63 689.71 4654.72 648.456 4618.46 209.483 4555.42 417.895 365.822 277.927 177.706 3199.92 438.973 58.2629 48.2288 87.895 129.477 125.666 45.4668 80.199 40.6248 100.221 52.0737 90.0097 11.5637 415.052 379.34 25.6877 353.652 327.241 82.3815 310.842 87.5348 20.4351 3185.76 64.7976 56.8654 36.8091 20.0564 3174.6 226.215 213.368 2948.39 140.726 158.565 92.9771 44.8177 2807.66 33.6023 54.8027 132.395 2774.06 87.5037 18.2276 2686.56 135.291 84.8154 50.476 72.7698 69.2974
internal_count=29480 6302 23178 2891 3167 3135 2966 509 2582 2782 2313 1915 1100 20287 2626 232 225 398 875 871 386 485 372 815 469 753 64 2603 2308 122 2186 2074 350 1929 622 121 20149 451 416 290 126 20050 1294 1251 18756 1038 873 452 266 17718 172 378 997 17546 703 118 16843 733 408 325 327 298
is_linear=0
shrinkage=0.05


end of trees

feature_importances:
distance_from_home_km=115
client_baseline_amount=78
time_since_last_txn_min=69
hour_local=68
amount_ratio_vs_baseline=53
DE22_pos_entry_mode=48
amount_zscore_customer=37
amount_tx_currency=32
DE18_merchant_category_code=31
DE4_amount_transaction=29
amount_local=27
amount_usd=24
DE6_amount_cardholder_billing=22
DE123_pos_data_code=20
day_of_week=20
client_segment=12
DE52_pin_data_present=11
txn_count_last_24h=9
DE9_conversion_rate_billing=8
is_night=7
is_international=5
DE3_processing_code=4
DE60_pos_terminal_type=4
channel=4
DE23_card_seq_number=3
card_brand=2
DE25_pos_condition_code=1
DE61_pos_extended_data=1

parameters:
[boosting: gbdt]
[objective: binary]
[metric: custom]
[tree_learner: serial]
[device_type: gpu]
[data_sample_strategy: bagging]
[data: ]
[valid: ]
[num_iterations: 1000]
[learning_rate: 0.05]
[num_leaves: 63]
[num_threads: 0]
[seed: 22]
[deterministic: 0]
[force_col_wise: 1]
[force_row_wise: 0]
[histogram_pool_size: -1]
[max_depth: -1]
[min_data_in_leaf: 20]
[min_sum_hessian_in_leaf: 0.001]
[bagging_fraction: 0.8]
[pos_bagging_fraction: 1]
[neg_bagging_fraction: 1]
[bagging_freq: 0]
[bagging_seed: 14808]
[bagging_by_query: 0]
[feature_fraction: 0.8]
[feature_fraction_bynode: 1]
[feature_fraction_seed: 7542]
[extra_trees: 0]
[extra_seed: 32649]
[early_stopping_round: 0]
[early_stopping_min_delta: 0]
[first_metric_only: 0]
[max_delta_step: 0]
[lambda_l1: 0.1]
[lambda_l2: 1]
[linear_lambda: 0]
[min_gain_to_split: 0]
[drop_rate: 0.1]
[max_drop: 50]
[skip_drop: 0.5]
[xgboost_dart_mode: 0]
[uniform_drop: 0]
[drop_seed: 21034]
[top_rate: 0.2]
[other_rate: 0.1]
[min_data_per_group: 100]
[max_cat_threshold: 32]
[cat_l2: 10]
[cat_smooth: 10]
[max_cat_to_onehot: 4]
[top_k: 20]
[monotone_constraints: ]
[monotone_constraints_method: basic]
[monotone_penalty: 0]
[feature_contri: ]
[forcedsplits_filename: ]
[refit_decay_rate: 0.9]
[cegb_tradeoff: 1]
[cegb_penalty_split: 0]
[cegb_penalty_feature_lazy: ]
[cegb_penalty_feature_coupled: ]
[path_smooth: 0]
[interaction_constraints: ]
[verbosity: -1]
[saved_feature_importance_type: 0]
[use_quantized_grad: 0]
[num_grad_quant_bins: 4]
[quant_train_renew_leaf: 0]
[stochastic_rounding: 1]
[linear_tree: 0]
[max_bin: 255]
[max_bin_by_feature: ]
[min_data_in_bin: 3]
[bin_construct_sample_cnt: 200000]
[data_random_seed: 110]
[is_enable_sparse: 1]
[enable_bundle: 1]
[use_missing: 1]
[zero_as_missing: 0]
[feature_pre_filter: 1]
[pre_partition: 0]
[two_round: 0]
[header: 0]
[label_column: ]
[weight_column: ]
[group_column: ]
[ignore_column: ]
[categorical_feature: ]
[forcedbins_filename: ]
[precise_float_parser: 0]
[parser_config_file: ]
[objective_seed: 6399]
[num_class: 1]
[is_unbalance: 0]
[scale_pos_weight: 10]
[sigmoid: 1]
[boost_from_average: 1]
[reg_sqrt: 0]
[alpha: 0.9]
[fair_c: 1]
[poisson_max_delta_step: 0.7]
[tweedie_variance_power: 1.5]
[lambdarank_truncation_level: 30]
[lambdarank_norm: 1]
[label_gain: ]
[lambdarank_position_bias_regularization: 0]
[eval_at: ]
[multi_error_top_k: 1]
[auc_mu_weights: ]
[num_machines: 1]
[local_listen_port: 12400]
[time_out: 120]
[machine_list_filename: ]
[machines: ]
[gpu_platform_id: 0]
[gpu_device_id: 0]
[gpu_use_dp: 0]
[num_gpu: 1]

end of parameters

pandas_categorical:[]
