tree
version=v4
num_class=1
num_tree_per_iteration=1
label_index=0
max_feature_idx=34
objective=binary sigmoid:1
feature_names=DE123_pos_data_code DE18_merchant_category_code DE22_pos_entry_mode DE23_card_seq_number DE25_pos_condition_code DE39_response_code DE3_processing_code DE4_amount_transaction DE52_pin_data_present DE55_emv_data_present DE60_pos_terminal_type DE61_pos_extended_data DE6_amount_cardholder_billing DE9_conversion_rate_billing MTI amount_local amount_ratio_vs_baseline amount_tx_currency amount_usd amount_zscore_customer card_brand channel client_baseline_amount client_segment day_of_week distance_from_home_km hour_local intl_high_zscore is_international is_night time_since_last_txn_min txn_count_last_1h txn_count_last_24h velocity_ratio_1h_24h velocity_x_zscore
feature_infos=[0:8] [4111:8398] [10:81] [1:3] [0:59] [0:96] [0:300000] [36:128037960] [0:1] [0:1] [0:3] [0:59] [200:1423451] [52631:63579545] none [2:14234.51] [0.00046236360273665809:3.3237210171114908] [0.35999999999999999:1280379.6000000001] [0.40000000000000002:2846.9000000000001] [-1.857794566292428:5.373749949838766] [0:2] [0:3] [250.06:899.99000000000001] [1:8] [0:7] [0:11999] [0:23] [0:1] [0:1] [0:1] [-1:91188.083333333314] [0:2] [0:5] [0.82758620689655182:2.7692307692307696] [0:5.8040943369248161]
tree_sizes=6614 6702 6717 6746 6722 6725 6716 6767 6715 6715 6756 6733

Tree=0
num_leaves=63
num_cat=0
split_feature=12 25 8 12 0 0 0 0 0 15 7 25 0 17 29 7 0 30 25 12 16 30 12 12 15 16 30 26 12 16 10 15 7 30 30 16 30 16 16 16 26 26 30 30 7 15 17 16 26 26 7 23 12 25 30 16 7 6 16 30 7 25
split_gain=50815.9 15447.1 3473.55 1459.15 4117.97 1596.55 1291.23 2073.12 1169.89 687.817 405.265 308.556 3127.31 128.931 128.191 127.307 121.95 109.071 103.584 103.547 94.72 92.2182 86.9163 82.7481 81.0572 128.932 140.2 82.3284 109.728 84.1996 79.4788 73.7818 72.5817 87.1721 70.7063 68.7368 67.6679 77.2902 66.0962 87.7541 116.741 93.6092 106.23 101.103 89.6608 83.0225 108.798 136.809 92.7817 137.304 94.775 149.4 104.438 94.3076 81.6181 75.8397 130.886 93.1638 84.7548 73.1901 107.042 89.0888
threshold=98720.000000000015 59.500000000000007 1.0000000180025095e-35 75926.500000000015 3.5000000000000004 2.5000000000000004 3.5000000000000004 2.5000000000000004 2.5000000000000004 4237.2750000000005 97745.000000000015 1493.5000000000002 5.5000000000000009 1721.2450000000001 1.0000000180025095e-35 266864.50000000006 7.5000000000000009 1427.2750000000003 21.450000000000003 130226.00000000001 0.2799775287881105 1681.9000000000001 523844.50000000006 321307.50000000006 351.69500000000011 0.1054244525132913 2046.9750000000001 3.5000000000000004 16711.500000000004 0.0087248078826173657 1.0000000180025095e-35 362.51500000000004 25969.500000000004 4814.4000000000005 4885.5833333333348 0.32846263438225054 2606.233333333334 0.83916057544581224 0.31897439709136827 0.14619665999095435 11.500000000000002 19.500000000000004 24169.14166666667 22869.491666666669 560450.50000000012 237.52000000000001 179.76000000000002 0.084865891888127043 13.500000000000002 12.500000000000002 32235.000000000004 3.5000000000000004 41239.500000000007 14.250000000000002 646.74166666666679 0.095463838571106061 31507.000000000004 1.0000000180025095e-35 0.09800960380559598 28430.233333333334 38599.000000000007 2.6500000000000008
decision_type=2 2 2 2 2 2 2 2 2 2 2 2 2 2 2 2 2 2 2 2 2 2 2 2 2 2 2 2 2 2 2 2 2 2 2 2 2 2 2 2 2 2 2 2 2 2 2 2 2 2 2 2 2 2 2 2 2 2 2 2 2 2
left_child=3 6 8 14 5 20 7 -2 -3 11 -8 12 -10 35 38 -15 19 -16 22 -14 -5 -21 36 -23 27 34 30 28 -19 -29 -27 -28 -30 -34 -26 -4 37 -12 39 41 -41 44 43 -43 45 46 -1 -48 49 54 -51 52 -52 -50 -47 -56 57 -57 -58 61 -61 -42
right_child=1 2 13 4 -6 -7 10 -9 9 -11 18 -13 16 15 17 -17 -18 24 -20 21 -22 23 -24 -25 25 26 31 29 32 -31 -32 -33 33 -35 -36 -37 -38 -39 -40 40 59 42 -44 -45 -46 48 47 -49 53 50 51 -53 -54 -55 55 56 58 -59 -60 60 -62 -63
leaf_value=-2.2278192332787152 -2.2374729446377675 -2.2510819592844595 -2.2036123684722346 -2.3527146986874357 -2.241839571239864 -1.759029374070805 -1.8580436697394509 -1.7641217914914269 -1.755146709897168 -2.1660580836694967 -2.2864910751759555 -1.7639627824043402 -2.3175137971302076 -2.0221641297881878 -2.3232713575823727 -2.2904307037668512 -1.9231717908724901 -2.3036690591280613 -2.2997780427072643 -2.3476546469045281 -2.1420769393345123 -2.1013235862952406 -2.351781743576034 -2.3444090500507162 -2.3342410233413609 -1.9296378939218914 -2.064995039851516 -2.1371973361352734 -2.1299062609568575 -2.31911036384356 -2.2430412045237142 -2.2594044861181817 -2.1234402995569521 -2.352289690356276 -1.9938679090237887 -2.3541782397149884 -2.1850232751999967 -2.1624238028209013 -2.2810350058103701 -2.1709383116008736 -2.3151289201026515 -2.1880554571999689 -2.320577992126279 -1.9862854121179228 -2.3534391501701273 -2.3538639896423708 -2.144219053328368 -2.2432365162539623 -2.2308967030497513 -2.2422665827156707 -1.9577762445196725 -2.3460795451426546 -2.2165751015000743 -2.3137685950977267 -2.2880898222753956 -2.1178941673626124 -2.0603585993379294 -2.3002638199767382 -2.270116833520313 -2.0413587915233271 -2.2460145999504193 -2.2160150038797806
leaf_weight=484.87552408874035 45.206666216254234 13.553692370653151 12.314049437642099 11.322388991713526 189.50413180887699 85.123979091644287 7.1074432581663123 47.107439517974854 254.71076880395412 12.314049333333967 41.900825634598732 1203.553774446249 12.975227311253546 11.074379563331606 44.462804883718491 7.1900824755430213 3.7190083265304557 27.933884888887405 34.462809577584267 5.0413045287132254 8.5123964548110944 30.413223057985306 9.3388428688049299 3.5537194013595572 1.5702466219663609 4.9586785882711393 4.2975200563669196 6.0330578535795203 27.768594592809677 65.537190198898315 3.8016528487205505 80.991737008094788 5.6198353618383399 10.330578356981276 8.7603306323289853 16.611570835113525 173.14049728214741 17.190082654356956 38.84301346540451 237.68603877723217 23.966949820518494 173.30582210421562 14.132231563329695 5.8677679896354666 13.47105425596237 15.124067261815069 100.00004826486111 56.280992090702057 58.595043361186981 16.776866257190704 14.132231369614606 4.2148759812116614 6.4462809562683097 80.247934997081757 50.082647383213043 38.842971324920654 4.2148805111646643 8.5950411856174451 73.884293958544731 13.388429284095766 12.892561942338942 334.87602683901787
leaf_count=4733 448 137 113 137 1897 103 14 57 310 104 453 1693 148 62 511 78 9 311 381 61 67 224 113 43 19 15 25 46 219 748 37 836 41 125 43 201 1555 145 416 2075 272 1566 162 26 163 183 823 564 574 167 63 51 60 908 543 299 24 95 777 81 129 3197
internal_value=-2.05514 -1.86532 -1.79711 -2.20624 -2.10188 -1.8522 -2.15424 -1.99269 -1.78416 -1.78006 -2.20784 -1.77701 -1.82919 -2.22166 -2.22048 -2.1214 -2.17153 -2.25164 -2.21843 -2.19621 -2.25919 -2.15638 -2.20691 -2.12737 -2.23872 -2.20528 -2.22555 -2.26363 -2.22614 -2.30178 -2.0451 -2.24691 -2.17757 -2.26614 -2.04427 -2.28908 -2.20087 -2.24858 -2.21567 -2.21431 -2.1988 -2.22231 -2.19007 -2.1797 -2.22849 -2.22678 -2.2158 -2.17924 -2.24594 -2.22665 -2.145 -2.08426 -2.03087 -2.27857 -2.2452 -2.23557 -2.21494 -2.1501 -2.25581 -2.21631 -2.13582 -2.22267
internal_weight=4429.75 1962.48 1587.02 2467.27 294.463 104.959 375.455 92.3141 1539.83 1526.28 283.141 1513.97 310.413 47.1901 2172.81 18.2645 55.7025 292.066 276.033 51.9835 19.8348 39.0082 241.57 33.9669 247.603 104.38 94.0496 143.223 71.6529 71.5702 8.76033 85.2893 43.719 15.9504 10.3306 28.9256 232.231 59.0909 1880.74 1841.9 622.81 1219.09 193.306 179.174 1025.78 1012.31 641.157 156.281 371.157 232.314 41.5703 24.7934 20.5785 138.843 190.744 175.62 125.537 47.438 78.0992 385.124 26.281 358.843
internal_count=29480 6349 3183 23131 2204 307 3166 505 2729 2592 2661 2488 795 454 20927 140 485 2976 2647 476 204 328 2266 267 2465 975 913 1490 696 794 52 861 385 166 62 314 2153 598 17951 17535 5754 11781 1754 1592 10027 9864 6120 1387 3744 2262 341 174 123 1482 1921 1738 1195 394 801 3679 210 3469
is_linear=0
shrinkage=1


Tree=1
num_leaves=63
num_cat=0
split_feature=15 25 8 15 0 0 0 0 15 13 30 32 28 7 16 30 25 22 25 7 3 19 15 16 19 22 19 30 30 15 32 25 0 30 26 22 22 16 16 22 32 25 26 22 20 26 16 26 26 25 7 16 19 19 25 25 26 15 10 26 19 25
split_gain=23173.2 5550.8 1255.74 910.143 2179.3 704.526 879.169 613.219 336.203 231.683 110.002 97.0779 247.924 223.49 139.857 95.4294 83.5038 90.1646 83.7209 81.3497 84.411 99.6055 78.4064 75.3697 137.582 134.733 140.596 194.286 140.126 103.29 90.6976 86.3379 182.127 80.7295 79.4656 76.9235 144.33 114.751 79.1074 76.1729 72.6529 72.0258 71.5772 95.5821 70.9625 78.0183 105.256 75.4506 74.6116 70.9106 70.4351 79.219 70.0727 69.8134 79.1139 69.7214 69.1855 67.8179 106.578 88.7414 71.7581 67.4532
threshold=987.20000000000016 59.500000000000007 1.0000000180025095e-35 751.49500000000012 3.5000000000000004 3.5000000000000004 2.5000000000000004 2.5000000000000004 4237.2750000000005 49999708.000000007 1198.2250000000001 1.0000000180025095e-35 1.0000000180025095e-35 249841.00000000003 0.35320257734660471 7386.9666666666681 10.65 638.7700000000001 13.050000000000002 66260.500000000015 2.5000000000000004 -0.81635236807712097 1134.7700000000002 0.14619665999095435 -0.29208762909175795 575.87000000000012 0.2012229304414532 5455.7333333333345 1636.8333333333335 625.85000000000002 1.0000000180025095e-35 2.4500000000000006 4.5000000000000009 14711.841666666667 22.500000000000004 396.16000000000003 326.41500000000008 0.15892496797254094 0.19499127404024311 275.85500000000008 1.0000000180025095e-35 413.50000000000006 9.5000000000000018 575.87000000000012 1.0000000180025095e-35 8.5000000000000018 0.19832566227187542 22.500000000000004 2.5000000000000004 21.450000000000003 172124.50000000003 0.32846263438225054 -0.52560031529903528 -0.23576577068376423 8.4500000000000011 18.550000000000004 8.5000000000000018 632.83500000000015 1.5000000000000002 17.500000000000004 -0.0084482114747841484 118.50000000000001
decision_type=2 2 2 2 2 2 2 2 2 2 2 2 2 2 2 2 2 2 2 2 2 2 2 2 2 2 2 2 2 2 2 2 2 2 2 2 2 2 2 2 2 2 2 2 2 2 2 2 2 2 2 2 2 2 2 2 2 2 2 2 2 2
left_child=3 5 8 10 7 6 -2 61 11 16 19 12 13 14 22 40 17 42 -18 20 21 41 -3 31 29 33 27 28 -27 39 -31 32 -12 -26 -33 36 -35 -37 -38 -25 50 56 43 -7 48 55 47 -47 -41 -20 51 -4 -50 -29 -55 -46 -1 59 60 -30 -59 -5
right_child=1 2 15 4 -6 9 -8 -9 -10 -11 23 -13 -14 -15 -16 -17 18 -19 49 -21 -22 -23 -24 24 25 26 -28 53 57 30 -32 34 -34 35 -36 37 38 -39 -40 44 -42 -43 -44 -45 45 46 -48 -49 52 -51 -52 -53 -54 54 -56 -57 -58 58 -60 -61 -62 -63
leaf_value=-0.040544513400684684 0.058719427599707379 -0.044421264508177946 0.16862399672330991 -0.016641168838671463 0.052072476518514182 -0.049499976884069513 0.3370173311704876 0.34047417902654831 0.092233583926884841 0.30935790251824757 0.039525185533460287 0.33823189373111157 0.3257403240946426 0.068263381246660926 0.28847255266640498 -0.023944029908850511 -0.03359021491360932 0.06618959442863015 0.085301039065403012 -0.052388595482252831 0.086869430932237743 0.017743450527511723 0.1873927070946467 -0.044665469120738717 0.046560366866395572 -0.047629001752778788 0.22644938560903274 -0.051665621872641093 0.27762272139282723 -0.006720414926380854 0.28244534182940789 0.068325402551080133 0.18359978160376347 0.052448752328122211 -0.0038570863037987119 0.23702314754269271 0.03172004774733455 0.017269916662216212 0.25255980471867601 -0.041176218582215367 -0.045540707147779545 -0.044655217292778854 0.18282454028346221 0.20431747203378636 0.25205315549998292 -0.015724556526455661 0.22896958609507384 0.22320405290176915 -0.039830928009706494 0.0026645293919289785 0.23269398806063807 -0.047469453371603104 0.19823749335696811 -0.050541730866963119 0.0903877956113181 -0.036780740047758144 0.2031171102494943 0.2184044134425546 -0.047548249383906727 0.036822082173917255 -0.039738075396735316 0.15440252715540179
leaf_weight=3.0942670777440133 47.663143955171108 4.644669950008395 8.1482229828834551 13.529399320483209 208.98276454955339 8.9931744560599309 71.180758953094482 131.95602416992188 16.24663707613945 10.038332909345625 41.64013484120369 1327.2710499465466 777.1867810934782 15.54799962043762 143.48857383430004 16.853811718523502 24.584207475185394 73.385073453187943 105.88236749172211 19.217066757380962 108.32274700701237 170.65415740758181 11.475436121225355 4.5674783214926711 273.94869380444288 6.6867135614156714 24.003213070333004 14.910208731889723 24.661327868700031 20.74568443745375 2.1073535755276671 1150.837138608098 47.303110115230083 27.236018165946007 39.191552795469761 6.0041341036558142 5.2984841763973263 40.903403088450432 23.507821261882782 3.2716859057545653 5.1248817741870871 4.6354618519544593 43.256341218948364 4.9660682529211035 10.532044127583502 25.651051580905918 6.2068737968802443 2.77313458174467 2.8574163466691962 34.54202863574028 13.022722035646437 7.208236835896968 81.94254831969738 11.420014083385466 54.177285797894001 2.230601266026496 16.597459174692631 15.599156163632871 6.6040619835257521 4.9477544128894797 2.8431499823927906 8.7717020586132985
leaf_count=36 448 56 55 151 2000 100 57 106 133 14 398 1156 852 136 342 187 267 664 916 220 961 1731 54 51 2588 75 142 168 120 215 5 10500 323 249 432 29 49 403 128 38 59 53 291 28 50 269 33 15 32 381 62 91 534 130 462 25 106 89 74 45 32 64
internal_value=0.189401 0.290681 0.32079 0.0842446 0.157793 0.123892 0.226867 0.299729 0.32621 0.0832267 0.0725994 0.327834 0.312998 0.254902 0.272514 0.0720347 0.0745138 0.104437 0.0503137 0.0452369 0.0515906 0.0316225 0.121615 0.0770186 0.0903156 0.0779191 0.115567 0.0953151 0.161738 0.130864 0.0304581 0.0696136 0.117394 0.0610771 0.0659428 0.0988384 0.13815 0.0498629 0.214534 0.146882 0.119755 0.124242 0.151428 0.0480847 0.153657 0.100449 0.0581868 0.0142095 0.180785 0.0651718 0.15031 0.0701845 0.189787 0.0432796 0.0653874 0.202204 0.164479 0.187838 0.119059 0.240065 0.178354 0.0541601
internal_weight=5441.08 2770.71 2346.22 2670.37 363.24 424.491 118.844 154.257 2295.86 305.648 2307.13 2279.61 952.343 175.157 159.609 50.3579 295.609 130.601 165.009 322.521 303.304 194.981 16.1201 1984.61 705.637 542.751 165.853 141.85 61.3422 162.886 22.853 1278.97 88.9432 376.899 1190.03 102.95 56.0423 46.9075 28.8063 140.033 33.5041 24.3272 57.2156 13.9592 135.465 47.3937 34.6311 28.4242 88.0717 140.424 28.3792 15.3565 84.8 80.5075 65.5973 12.7626 19.6917 54.6555 25.0464 29.6091 18.4423 22.3011
internal_count=29480 6349 3183 23131 2321 3166 505 321 2729 2661 20810 2596 1440 588 452 454 2647 1083 1564 3107 2887 1926 110 17703 6050 4783 1337 1195 435 1267 220 11653 721 3446 10932 858 426 432 177 1047 267 195 419 128 996 392 317 284 604 1297 208 146 566 760 592 75 142 360 195 165 121 215
is_linear=0
shrinkage=0.05


Tree=2
num_leaves=63
num_cat=0
split_feature=12 25 8 2 2 15 2 2 13 15 25 29 22 2 26 25 2 25 22 16 2 32 16 16 22 26 16 26 26 22 26 12 15 17 26 12 16 26 25 26 16 26 16 26 25 2 25 16 26 17 17 0 22 7 25 16 22 26 25 16 23 22
split_gain=14089 3565.18 792.968 568.46 602.47 296.034 690.511 379.622 161.237 113.13 104.04 102.629 117.393 87.3986 98.0078 81.5018 81.2717 91.2504 74.7029 69.6923 100.325 78.4632 70.0859 67.0421 66.1788 64.5194 139.597 86.1199 64.2218 59.1213 79.3473 67.7893 56.673 58.4713 53.3103 53.2542 53.6487 51.1724 50.2323 67.2334 50.1758 80.8838 72.3366 73.9855 69.5604 139.987 75.6786 152.036 173.1 81.4802 90.8847 103.623 94.315 79.9308 77.8602 73.1783 72.1905 66.8095 66.4261 63.592 62.4321 58.9844
threshold=88625.500000000015 59.500000000000007 1.0000000180025095e-35 36.500000000000007 21.500000000000004 724.30000000000007 36.500000000000007 21.500000000000004 49999708.000000007 3967.1350000000007 1493.5000000000002 1.0000000180025095e-35 577.29000000000008 61.000000000000007 1.0000000180025095e-35 19.550000000000004 61.000000000000007 1290.5000000000002 406.06000000000006 0.3342604739197878 71.500000000000014 1.0000000180025095e-35 0.25797795743346402 0.31897439709136827 398.27000000000004 17.500000000000004 0.63212995294545393 18.500000000000004 22.500000000000004 475.96500000000009 13.500000000000002 77680.500000000015 362.51500000000004 325.73500000000007 3.5000000000000004 523844.50000000006 0.2448164983714001 7.5000000000000009 4.8500000000000005 12.500000000000002 0.14199039788517817 18.500000000000004 0.13054906724604776 16.500000000000004 2.4500000000000006 61.000000000000007 23.250000000000004 0.013452746195719555 9.5000000000000018 87.225000000000009 311.65500000000003 5.5000000000000009 324.35000000000008 12274.500000000002 24.350000000000005 0.082687419870674531 406.06000000000006 10.500000000000002 4.0500000000000007 0.23093822185409127 2.0000000000000004 757.91500000000008
decision_type=2 2 2 2 2 2 2 2 2 2 2 2 2 2 2 2 2 2 2 2 2 2 2 2 2 2 2 2 2 2 2 2 2 2 2 2 2 2 2 2 2 2 2 2 2 2 2 2 2 2 2 2 2 2 2 2 2 2 2 2 2 2
left_child=5 3 9 4 37 11 7 -7 15 19 -11 23 13 -13 -15 28 -4 -18 32 20 -3 22 -22 40 -8 -17 -27 -28 35 30 -26 -31 33 34 -16 36 -5 -2 39 -33 42 58 43 44 45 57 -46 48 56 -49 51 52 -51 -54 -53 -55 -48 -1 59 -42 -61 -56
right_child=1 2 16 8 -6 6 24 -9 -10 10 -12 12 -14 14 18 25 17 -19 -20 -21 21 -23 -24 -25 29 26 27 -29 -30 31 -32 38 -34 -35 -36 -37 -38 -39 -40 -41 41 -43 -44 -45 46 -47 47 49 -50 50 -52 54 53 55 61 -57 -58 -59 -60 60 -62 -63
leaf_value=0.10129042172654781 -0.049921531640771816 0.25129848464372578 0.039784973948049529 -0.00092698528228204579 0.25743500162682481 0.0024444685615306505 -0.050948777216201793 0.25977619690696668 0.23933043916900495 0.026508770810214563 0.20672039029033226 -0.026018516098348116 0.07094056437919001 0.16847360282261387 0.1228173890996614 -0.021720175156585059 0.23681662602556586 -0.041837126135970459 -0.037415335468281651 0.25076539831067585 -0.00027933963381837699 0.22534582512613263 0.15348154761349606 0.00041671674368016788 0.017567962216628409 -0.050019289229252334 0.36088767698024682 0.073628648045470826 -0.050075105341477411 0.094858852674537031 0.24480632025356669 -0.044450831118147814 -0.048889375012341099 0.21874138635963264 -0.015548323941157287 -0.048032860552828488 0.087105517086920672 0.072472299393773157 0.010651369895305634 0.17713877840896664 0.0033533990527655254 0.043494657694304439 0.021739409353964539 0.085032237961881266 0.041599994597777822 0.16633443551694149 -0.031224232006242015 0.021517678633427097 0.055539500033092375 -0.047305898636811665 0.02270388889525455 0.16584244888218261 0.24237472633985929 0.067904950071324674 -0.035065423903009062 0.1796655095565054 0.31142501243362108 -0.05178508732389351 0.094012398381912249 0.19873631937530969 0.0074712892249113247 0.11094323294687321
leaf_weight=12.05590855330229 9.6277619078755361 101.36599721759558 51.722143918275833 18.386188924312592 97.805245757102966 17.104063846170902 12.08497831225395 89.331779956817627 12.522219605743883 11.721184290945528 27.28081526607275 85.834085553884506 141.37007792294025 12.607640266418455 13.265949934720995 45.296362064778805 11.107577450573443 3.4859802350401869 30.192656740546227 2699.1960022971034 8.8013900518417341 42.775652140378952 43.71146859228611 35.710704907774925 6.5242366418242446 10.135088488459589 3.9254686981439573 7.1329502612352371 9.4767811298370344 65.68700298666954 9.1566964685916883 4.436324141919612 8.0690251812338811 6.4623763710260382 13.096295870840548 7.521775394678115 261.37681723386049 46.237199157476425 75.237157598137856 9.9591900631785375 42.10072123259306 125.24719572067261 96.452471487224102 396.73872378468513 476.85578584671021 39.605459220707417 1.4760804027318979 90.261012092232704 17.423720754683018 6.1955996751785269 50.761764198541641 8.2534787431359273 17.614830166101456 35.76428285241127 26.039320968091488 26.82005150616169 15.474470376968382 14.728137739002703 528.80661471188068 9.0229423642158526 7.6676238030195227 8.2932948470115644
leaf_count=94 106 82 468 184 63 174 134 58 15 103 67 925 1210 84 96 489 49 41 337 2346 76 64 163 369 63 115 9 62 101 525 48 49 90 32 143 90 2066 402 741 65 411 1109 915 3212 4290 226 16 853 152 67 497 53 90 300 271 172 57 162 4044 53 71 61
internal_value=0.156559 0.22223 0.243341 0.102323 0.183156 0.0703075 0.118132 0.218878 0.0688547 0.247209 0.154703 0.06449 0.0374573 0.00925382 0.0453672 0.0623234 0.0709663 0.171519 0.0214299 0.248399 0.214788 0.17369 0.128093 0.0684903 0.0586655 0.0119844 0.0819785 0.197485 0.073507 0.0666924 0.157282 0.056567 0.0648519 0.0935787 0.0558409 0.0777605 0.0813195 0.0507841 0.0277127 0.110074 0.0696708 0.0805787 0.0638122 0.0670492 0.0585359 0.107762 0.0542138 0.073758 0.171777 0.0606729 0.0800799 0.102274 0.133545 0.147989 0.0371105 0.11795 0.281231 0.0181023 0.0883873 0.0369822 0.116541 0.00220428
internal_weight=6220.4 3530.61 3001.17 529.444 153.67 2689.79 289.521 106.436 375.774 2934.85 39.002 2400.27 310.898 169.528 83.6939 363.251 66.3157 14.5936 71.0863 2895.85 196.655 95.2885 52.5129 2089.37 183.086 66.4899 21.1935 11.0584 296.762 171.001 15.6809 155.32 40.8936 32.8246 26.3622 287.285 279.763 55.865 89.6327 14.3955 2053.66 712.845 1340.81 1244.36 847.623 66.3895 781.234 304.378 34.3743 270.004 179.743 128.981 86.3948 80.1992 42.5861 62.5843 16.9506 26.784 587.598 58.7913 16.6906 34.3326
internal_count=29480 7161 3459 3702 571 22319 1857 232 3131 2901 170 20462 2917 1707 782 3116 558 90 698 2731 385 303 239 17545 1625 675 186 71 2441 1491 111 1380 361 271 239 2340 2250 508 855 114 17176 5688 11488 10573 7361 482 6879 2589 225 2364 1511 1014 629 562 385 472 73 256 4579 535 124 332
is_linear=0
shrinkage=0.05


Tree=3
num_leaves=63
num_cat=0
split_feature=12 25 8 1 2 2 12 2 2 17 1 30 29 22 22 24 17 32 32 13 12 22 25 22 25 19 25 24 25 1 26 17 19 26 24 22 17 23 22 19 25 2 30 30 30 26 23 1 25 30 30 19 25 16 25 30 22 24 16 19 22 17
split_gain=9789.56 2326.91 519.522 460.266 416.336 411.226 229.487 495.844 258.32 118.387 115.72 114.923 80.6271 96.3054 79.0934 80.6285 77.7106 77.5945 74.6762 79.5193 74.072 74.9974 71.8184 70.573 67.3074 62.0027 133.821 126.835 84.7813 147.431 93.9434 67.7746 63.8773 137.326 93.8713 92.3294 78.0166 73.1274 68.7467 107.874 103.789 87.2856 81.2674 74.626 115.871 72.7608 70.9533 74.3308 65.0829 64.8927 82.6756 70.9775 65.0307 68.6932 112.271 93.5367 77.6545 135.537 76.0671 80.0631 94.7227 88.7496
threshold=88625.500000000015 59.500000000000007 1.0000000180025095e-35 4815.0000000000009 36.500000000000007 21.500000000000004 72430.000000000015 36.500000000000007 21.500000000000004 881.42500000000007 5691.5000000000009 7386.9666666666681 1.0000000180025095e-35 577.29000000000008 361.68000000000006 2.5000000000000004 168.34500000000003 1.0000000180025095e-35 1.0000000180025095e-35 50000513.500000007 21014.000000000004 310.74000000000007 5.0500000000000007 728.94500000000005 21.450000000000003 -0.85553404255536958 22.250000000000004 1.5000000000000002 4.2500000000000009 5955.5000000000009 9.5000000000000018 105.67500000000003 -0.43638599569482622 19.500000000000004 2.5000000000000004 665.84000000000003 508.85000000000008 7.0000000000000009 640.82000000000005 -0.47422477498519461 16.250000000000004 36.500000000000007 1313.7333333333336 2802.7583333333337 1237.0333333333335 17.500000000000004 3.5000000000000004 5631.0000000000009 10.250000000000002 9428.1666666666697 7386.9666666666681 -0.42011701898955328 10452.500000000002 0.10664416216182335 3.6500000000000008 9762.3166666666693 487.23500000000007 1.5000000000000002 0.14199039788517817 -0.31261789307767535 454.12000000000006 603.08500000000015
decision_type=2 2 2 2 2 2 2 2 2 2 2 2 2 2 2 2 2 2 2 2 2 2 2 2 2 2 2 2 2 2 2 2 2 2 2 2 2 2 2 2 2 2 2 2 2 2 2 2 2 2 2 2 2 2 2 2 2 2 2 2 2 2
left_child=6 4 3 -3 5 -2 12 8 -8 -6 17 18 25 14 15 16 -14 23 19 -4 -18 -22 -12 -9 -11 26 28 -28 29 -1 -30 -29 33 34 -27 -35 38 49 43 40 46 -42 -43 44 -36 -44 47 -40 -49 50 -34 -52 53 54 -51 -55 57 -56 -57 60 -60 -62
right_child=1 2 11 -5 9 -7 7 10 -10 24 22 -13 13 -15 -16 -17 20 -19 -20 -21 21 -23 -24 -25 -26 32 27 31 30 -31 -32 -33 37 35 36 -37 -38 -39 39 -41 41 42 45 -45 -46 -47 -48 48 -50 52 51 -53 -54 55 56 58 -58 -59 59 -61 61 -63
leaf_value=0.013106811377326284 0.046252230392673122 0.053983668823190084 0.15513943632852234 0.20508798723271934 0.19829612241992928 0.21059570500326338 0.0023261931638760315 0.14594361085827301 0.21216652885356435 0.063471207973152657 0.099057426472846238 -0.030874242114253408 -0.0075777493739559599 0.063699111851088772 -0.020020484048590491 -0.0021332189391335128 0.26351596560508506 -0.04877503478774764 -0.047264771944700593 -0.045787839685075847 -0.04756678298890632 0.1688233620700631 -0.00017276725388650101 0.035667544038251495 -0.0048868871976007824 0.019822849578110386 0.0093158280871576023 0.12212568042762822 0.11401996302603781 0.2461799317303055 -0.010391680856278999 0.2372880244354815 0.062275871693470354 0.11777460697917826 0.020484319976037096 0.036443457351018081 -0.052221052502459592 0.17802988845354975 -0.021784894154755628 -0.05166451106802418 -0.0083088793961746815 0.021071694185660045 0.17096700480654911 0.024689710444789931 0.14206122658980633 -0.043268697702692899 -0.052061427525657955 0.14247037345545696 -0.0043429067028410793 0.28139360469306807 0.15605675324232482 -0.0075127487821408101 0.18730573943377904 0.18621677489816144 0.28181946174172229 0.018222051837993334 0.019566069774802131 0.0059805512656844681 0.015423701510872197 0.062004674797281535 0.20554561877913533 0.010376114389751523
leaf_weight=14.12631317228079 58.21641381829977 52.118016041815281 36.884314231574535 3333.4639073237777 14.505166970193384 113.32823479175568 17.137662246823311 51.205738343298435 103.69337546825409 341.44042023271322 21.852894425392151 21.592155188322067 10.70934361964464 149.45917621254921 99.345071852207184 37.475081659853458 8.5352825000882167 7.4818005114793769 6.3376044407486907 5.1633704304695121 6.4763949662446967 8.094404496252535 89.711566723883152 21.378451004624367 39.937880508601665 321.87054079025984 15.028970845043657 35.697552412748337 19.885340414941311 12.359925359487532 54.760359406471252 24.681046135723591 568.2562058493495 108.30480585992336 38.863113537430763 53.319516554474831 15.570494107902048 14.139626733958719 15.287463739514349 13.213822171092032 10.733673416078089 12.603693827986715 74.037666253745556 185.01205911487341 39.594384878873825 3.7649245783686629 14.156972341239451 29.389877066016197 9.8795005828142148 9.4978043735027295 6.2926018238067618 72.145060367882252 13.531025841832159 15.69661024212837 9.5079888850450534 73.773331642150879 19.504706241190434 7.8711128905415526 13.524774014949797 218.77026131004095 31.557832814753056 7.2943896651267996
leaf_count=124 508 296 197 2605 15 63 174 340 58 2680 158 231 113 1210 1068 380 31 79 72 58 72 43 859 189 436 2857 135 241 145 42 506 102 4503 722 352 432 167 76 147 140 102 112 449 1619 258 39 147 180 96 26 34 677 63 84 35 676 176 72 109 1694 139 67
internal_value=0.134423 0.184571 0.199988 0.20278 0.0904874 0.155443 0.0632446 0.103733 0.182709 0.0620073 0.0532193 0.0639051 0.0581904 0.034528 0.00872579 0.0485764 0.103365 0.0987292 0.106071 0.129859 0.153174 0.0754438 0.019927 0.114458 0.0563056 0.0616083 0.090312 0.140494 0.0518359 0.127053 0.0237542 0.172381 0.0590625 0.0494241 0.0406661 0.0913635 0.0550991 0.0674328 0.0589608 0.0825572 0.0932695 0.125386 0.141231 0.0422961 0.082918 0.160119 0.0448045 0.0705149 0.10622 0.0657976 0.0556427 0.00734588 0.0812329 0.0772437 0.134749 0.0694815 0.090424 0.164285 0.0636317 0.075856 0.131371 0.170208
internal_weight=6859.05 4022.99 3455.56 3385.58 567.428 171.545 2836.06 312.461 120.831 395.883 191.63 69.9774 2523.6 320.095 170.636 71.2905 33.8154 80.066 48.3853 42.0477 23.1061 14.5708 111.564 72.5842 381.378 2203.51 176.54 75.4076 101.132 26.4862 74.6457 60.3786 2026.97 945.603 783.978 161.624 462.108 1081.36 446.537 183.068 169.854 101.14 90.4063 263.47 78.4575 77.8026 68.7138 54.5568 39.2694 1067.22 646.694 78.4377 420.53 406.999 46.3816 360.617 36.8838 17.3791 344.921 271.147 52.377 38.8522
internal_count=29480 7161 3459 2901 3702 571 22319 1857 232 3131 1625 558 20462 2917 1707 639 259 608 327 255 146 115 1017 529 3116 17545 1295 478 817 166 651 343 16250 7819 6665 1154 3808 8431 3641 1412 1272 702 600 2229 610 488 570 423 276 8355 5214 711 3141 3078 309 2769 283 107 2685 2009 315 206
is_linear=0
shrinkage=0.05


Tree=4
num_leaves=63
num_cat=0
split_feature=18 25 2 2 8 1 2 2 17 17 23 25 30 10 26 25 25 1 25 16 16 25 1 25 16 16 18 15 7 16 7 16 1 25 26 30 30 30 1 12 7 25 25 30 7 1 15 18 1 25 30 16 26 24 25 16 7 30 26 18 25 25
split_gain=7382.12 1377.22 410.32 951.395 331.769 329.082 268.848 269.985 106.256 99.783 129.992 124.18 84.2244 71.0915 79.3857 76.9208 75.8528 86.2198 73.3132 86.0415 67.2873 67.7822 67.2628 71.9471 102.142 88.6572 66.9294 111.068 77.7313 110.37 66.8417 66.1351 64.97 62.5486 84.3192 66.7172 93.5038 67.9295 117.565 62.7489 61.1813 59.4833 61.2621 59.0114 58.3835 57.8608 57.7239 83.8827 64.0589 98.5225 89.3786 103.535 94.2669 70.4715 139.71 111.705 103.293 92.6055 86.5156 90.5654 100.799 77.7086
threshold=198.87000000000003 59.500000000000007 36.500000000000007 21.500000000000004 1.0000000180025095e-35 4815.0000000000009 36.500000000000007 21.500000000000004 997.13000000000011 67.745000000000019 5.0000000000000009 785.50000000000011 1198.2250000000001 1.0000000180025095e-35 8.5000000000000018 952.50000000000011 8.0500000000000025 5691.5000000000009 8.2500000000000018 0.14619665999095435 0.24223984805045409 22.250000000000004 5252.0000000000009 18.550000000000004 0.039095549971538947 0.27065980074909995 117.91500000000001 391.50500000000005 25969.500000000004 0.10888561426642587 9832.5000000000018 0.069313719083536021 4815.0000000000009 20.850000000000005 14.500000000000002 12567.583333333334 14372.783333333335 4368.1583333333338 5631.0000000000009 87344.500000000015 172124.50000000003 10.65 13.050000000000002 19632.475000000002 19050.500000000004 5476.0000000000009 776.80500000000018 140.73500000000004 5813.0000000000009 1310.5000000000002 1599.1250000000002 0.16413148423313337 16.500000000000004 2.5000000000000004 3.8500000000000001 0.043713023460473517 42535.000000000007 2341.3333333333335 15.500000000000002 24.675000000000004 19.750000000000004 7176.0000000000009
decision_type=2 2 2 2 2 2 2 2 2 2 2 2 2 2 2 2 2 2 2 2 2 2 2 2 2 2 2 2 2 2 2 2 2 2 2 2 2 2 2 2 2 2 2 2 2 2 2 2 2 2 2 2 2 2 2 2 2 2 2 2 2 2
left_child=2 6 3 9 5 -3 7 -2 -8 10 -1 22 13 18 -15 16 30 32 19 -4 46 33 31 26 -25 -26 27 28 29 -24 -16 -11 -18 35 -35 37 -37 38 -22 -40 -6 43 -43 -10 -19 -29 47 48 49 50 51 52 -14 54 56 -56 -50 -55 61 -60 -61 -59
right_child=1 4 12 -5 40 -7 8 -9 41 11 -12 -13 20 14 15 -17 17 44 -20 -21 21 -23 23 24 25 -27 -28 45 -30 -31 -32 -33 -34 34 -36 36 -38 -39 39 -41 -42 42 -44 -45 -46 -47 -48 -49 53 -51 -52 -53 -54 57 55 -57 -58 58 59 60 -62 -63
leaf_value=-0.054887082925769742 0.044150999312357289 0.050142889219550305 0.17624317450157201 0.18114583609636448 0.005782139764466441 0.17610437758527397 0.17701377605946261 0.18029641790905807 0.061726072341012607 0.16589988247070392 0.14386309463317987 0.1200137355177221 -0.024799812550299165 -0.0095398424020806793 0.1083347365897476 -0.014000685784870898 -0.002636629599367413 -0.029361055859852866 -0.054786574649869128 -0.048958916512661821 0.15235744465093248 -0.0045911222583984229 0.025289041215094073 0.18129514110757736 -0.047093079486857856 0.12542550212472139 -0.029413027647905016 -0.042952529393423845 -0.035855702298974793 0.1853571036703224 -0.026482001802061922 -0.044470925743272896 0.13655864181242391 0.21819640402677978 -0.043508533612350221 0.19508517765613809 0.045101902494464295 -0.0258347562651099 -0.053418336690079754 0.097675753375415036 0.10794893410852702 -0.035475662035334664 0.046049156995078909 0.14397173965325952 0.06916909610833126 0.15693674237087821 0.014184085562909106 0.11079977924239258 0.14717686518116951 0.087148764019841299 0.03587236448569369 0.20561200135211283 0.17589630649149224 0.13335684994742333 -0.033648951112200426 0.049466255186745703 -0.048622714274488936 0.077608936402399478 0.1044439146587457 -0.020295759925829618 0.065755901105153433 0.16408144417561099
leaf_weight=41.546893678605556 54.286180034279823 53.698195233941078 7.8189971074461919 217.06792092323303 32.112555950880051 3580.8921172469854 17.809377893805504 115.55987071990967 129.91808242350817 17.207678548991684 9.2033126130700094 64.237710505723953 16.73923867195845 64.891254685819149 11.395994476974009 35.98963513225317 9.4472918137907964 19.808593161404133 42.408238068223 7.4628554806113243 18.378706105053425 86.538375459611416 42.437152341008186 5.5146815106272689 59.130947560071945 7.5175948962569228 20.235570207238197 3.571145884692668 26.29211363196373 13.670615650713442 34.58045969158411 4.1972281485795966 66.578723549842834 10.107314206659792 3.8122106418013564 13.11125263571739 43.704926371574402 50.134155221283436 20.689737662673 9.0556145012378675 26.312615424394608 26.190650194883347 155.55841235071421 26.58320526778698 55.104341700673103 34.294140055775642 70.862628817558289 79.784771025180817 50.532415516674519 134.6049981713295 669.2626690864563 16.3077093064785 7.8069575205445281 67.484710328280926 45.774596132338047 305.65769957751036 7.2177076637744895 315.37871724367142 42.673250369727612 69.755361758172512 64.686370499432087 28.595747843384743
leaf_count=420 451 293 43 109 310 2425 23 58 928 96 49 398 158 633 70 344 86 191 437 77 106 767 359 25 586 46 211 36 255 69 333 43 421 46 39 65 344 478 212 61 139 262 1272 141 422 189 647 511 265 918 5399 66 36 391 444 2399 76 2255 276 648 476 147
internal_value=0.118246 0.161565 0.0605638 0.0991643 0.172356 0.174259 0.0855994 0.137324 0.0605965 0.0477963 -0.0166646 0.0587986 0.0521355 0.0293605 0.03919 0.0527711 0.0650092 0.0820437 -0.0210978 0.0697068 0.0557191 0.0313274 0.0415384 0.0326441 -0.00782289 -0.0259936 0.0533722 0.0674704 0.0340433 0.0669399 0.00842284 0.124282 0.119387 0.0496688 0.148075 0.0399116 0.082575 0.0146085 0.056511 -0.00557613 0.0529208 0.0539485 0.034144 0.0765534 0.0430062 0.137336 0.0588265 0.0604614 0.0582199 0.0479349 0.0403826 0.111527 0.0432229 0.0668657 0.0506485 0.0385614 0.122209 0.0780266 0.0706097 0.0417968 0.0212507 0.085267
internal_weight=7389.19 4218.92 3170.27 566.125 3693.02 3634.59 525.906 169.846 356.06 349.057 50.7502 298.307 2604.14 355.486 297.796 232.905 196.915 150.939 57.6901 15.2819 2248.66 255.532 234.069 212.664 72.1632 66.6485 140.501 120.265 82.3999 56.1078 45.9765 21.4049 76.026 168.994 13.9195 155.074 56.8162 98.2582 48.1241 29.7454 58.4252 338.25 181.749 156.501 74.9129 37.8653 1993.13 1922.26 1842.48 844.722 710.117 40.8539 24.5462 997.757 409.182 351.432 57.7501 588.574 521.089 177.115 134.442 343.974
internal_count=29480 6302 23178 2891 3167 2718 3135 509 2626 2782 469 2313 20287 3057 2500 1867 1523 1120 557 120 17230 2118 1915 1776 657 632 1119 908 683 428 403 139 507 1351 85 1266 409 857 379 273 449 2603 1534 1069 613 225 15112 14465 13954 6577 5659 260 194 7377 3184 2843 341 4193 3802 1400 1124 2402
is_linear=0
shrinkage=0.05


Tree=5
num_leaves=63
num_cat=0
split_feature=18 25 8 2 2 18 2 2 30 7 28 2 30 26 29 30 30 30 18 26 16 25 30 26 25 25 7 7 26 32 26 25 30 24 7 25 30 15 15 30 23 25 25 23 25 16 25 25 23 24 25 25 25 18 6 25 6 26 26 30 25 26
split_gain=5884.6 1283.56 282.221 264.394 235.915 168.94 321.455 170.393 88.9222 76.6538 75.3771 689.077 59.7403 107.492 68.4292 62.4237 58.6827 59.3408 56.9206 64.3471 71.0873 77.4349 56.9602 55.4329 68.7446 102.313 58.8149 64.3139 54.514 54.227 54.2177 50.0231 49.6587 90.0249 78.854 52.226 49.5684 46.9423 46.7293 56.0107 46.5041 45.075 52.2165 50.2025 44.9067 43.6521 43.4691 62.7014 43.1632 43.127 42.7179 58.4753 48.6308 42.2445 43.271 41.6007 41.5227 41.5176 74.1935 39.427 41.6003 51.4619
threshold=178.51500000000001 59.500000000000007 1.0000000180025095e-35 36.500000000000007 21.500000000000004 144.12500000000003 36.500000000000007 21.500000000000004 7386.9666666666681 89639.500000000015 1.0000000180025095e-35 71.500000000000014 29772.616666666669 8.5000000000000018 1.0000000180025095e-35 36605.483333333337 1636.8333333333335 1775.366666666667 152.60500000000005 15.500000000000002 0.2799775287881105 14.850000000000003 1276.6000000000001 3.5000000000000004 6.2500000000000009 785.50000000000011 16834.500000000004 17695.500000000004 22.500000000000004 1.0000000180025095e-35 22.500000000000004 21.450000000000003 4953.416666666667 4.5000000000000009 54086.000000000007 6805.5000000000009 12241.366666666667 5238.4450000000006 954.69500000000005 2606.233333333334 3.5000000000000004 1150.5000000000002 1.8500000000000003 3.5000000000000004 8.6500000000000004 0.24223984805045409 18.250000000000004 17.850000000000005 5.0000000000000009 3.5000000000000004 3.8500000000000001 3.4500000000000006 15.450000000000001 195.47500000000002 1.0000000180025095e-35 2.2500000000000004 1.0000000180025095e-35 17.500000000000004 4.5000000000000009 13083.533333333335 1.6500000000000001 10.500000000000002
decision_type=2 2 2 2 2 2 2 2 2 2 2 2 2 2 2 2 2 2 2 2 2 2 2 2 2 2 2 2 2 2 2 2 2 2 2 2 2 2 2 2 2 2 2 2 2 2 2 2 2 2 2 2 2 2 2 2 2 2 2 2 2 2
left_child=5 3 10 4 46 12 7 -7 29 -5 11 -3 14 15 -1 -14 -16 -18 22 -20 21 44 -8 26 36 -26 48 -28 -27 56 31 37 33 34 -29 -34 55 38 -11 50 -30 42 -15 -43 -21 -24 47 59 -19 -17 51 -40 -52 -41 -55 -25 -4 58 -54 60 -2 -62
right_child=1 2 8 9 -6 6 18 -9 -10 30 -12 -13 13 41 16 49 17 23 19 20 -22 -23 45 24 25 28 27 32 40 -31 -32 -33 35 -35 -36 -37 -38 -39 39 53 -42 43 -44 -45 -46 -47 -48 -49 -50 -51 52 -53 57 54 -56 -57 -58 -59 -60 -61 61 -63
leaf_value=0.049272547560539059 0.18197063828335763 0.15728868088098386 0.11904501531086648 0.14452236697737028 0.15879769311048947 -0.0016178143959470958 -0.048687337518064894 0.15973190806390133 -0.030755483325812735 -0.0026946325870350219 0.15669028721653386 0.028350304465971907 0.19648706313388969 0.13822068965062367 -0.024933223465176207 0.11845627335425038 0.1570036176513272 -0.024682689525827486 -0.0023661409287250939 0.0059910312841932774 0.13193083239232883 -0.052773822408947603 0.11402189272983754 -0.041611348491541876 -0.047840416055216738 -0.014992682747186624 0.2119364263048843 0.17403206156783807 0.15998212118159189 -0.046837831645426618 -0.051704119669905901 -0.0036003609690365202 0.015352734685274972 -0.049384811054728806 -0.045386958493105513 0.20203580190374792 -0.047036624952652602 -0.049739691861715549 0.02982495688210764 0.1743749162888599 -0.041192788796326506 0.1447612669988112 0.018193768832148082 -0.044226062926122106 0.17172167686701409 0.023186265644313711 -0.025836719536998672 0.22518415657646731 0.12190216953153535 -0.046828864310906604 -0.028740156894747571 0.23581994201381576 0.18686345832257556 0.074957776869179302 -0.048995923109695395 0.14164705238914449 -0.043961808751661835 0.13634449474722596 -0.052036445588815233 -0.049823652037000683 0.11566665529653807 -0.021790226818797834
leaf_weight=2267.8184163272381 5.5051291212439564 724.86975280195475 44.225598722696304 20.495556853711605 135.28154349327087 18.553919725120068 7.3203320875763884 132.59988164901733 21.408192329108715 27.980210453271866 3175.8391352519393 121.5678054690361 24.777940109372139 9.4602193683385831 49.919597037136555 10.672781445086001 8.4780684113502485 32.657386720180511 83.616092167794704 7.7439441755414 23.043381214141846 17.480778716504574 54.547660261392593 3.2267308831214967 68.733644612133503 12.496697761118414 6.5936347842216483 25.142305038869385 13.080398492515089 5.9965848028659812 12.689158052206038 38.75999727845192 55.096910007297993 7.2200121358036986 4.3852002546191207 3.0500488579273215 5.7731221467256537 9.4442894756793958 11.072262831032274 10.042769774794577 3.1166660264134398 18.924833647906784 72.78970917314291 3.7348663955926886 8.0000033453106862 18.33914577960968 17.337936721742153 4.5068671107292166 4.9014289602637282 5.2410063967108718 36.778352335095406 4.2999509572982779 3.3140915408730534 225.79660203307867 6.5678188204765311 16.859671659767628 3.7265461161732665 9.5936295986175519 12.169081874191759 8.2717764750123006 10.926254801452162 15.162860877811907
leaf_count=16663 27 435 220 34 63 185 77 62 228 247 1828 628 103 45 534 62 30 319 773 63 129 182 296 34 733 116 18 119 76 69 131 408 461 69 42 8 61 106 82 52 33 83 586 34 46 146 163 17 32 51 333 13 13 1455 60 98 35 51 117 82 74 140
internal_value=0.105828 0.140974 0.151169 0.0740977 0.122007 0.0523385 0.0840439 0.140013 0.0542743 0.051854 0.152969 0.138831 0.0480026 0.0793223 0.046209 0.147643 0.0244463 0.0336252 0.0451234 0.0255134 0.0663483 0.0181909 0.0785271 0.0290378 0.00450491 -0.0148374 0.0505669 0.0701847 0.0629992 0.0880528 0.0468509 0.0501453 0.0581758 0.103033 0.140863 0.0284798 0.0754036 0.0559873 0.0590086 0.0644171 0.120837 0.0516315 0.0335536 0.112848 0.095729 0.0918574 0.0400303 0.0658791 -0.00275833 0.0641757 0.0267731 0.0986359 0.00754912 0.0762301 0.0712378 0.111394 0.105636 0.0600249 0.00702983 0.0426777 0.0678347 0.0377376
internal_weight=7829.03 4723.63 4097.63 625.996 196.992 3105.4 371.245 151.154 75.3569 429.004 4022.28 846.438 2734.15 145.601 2588.55 40.6917 320.732 270.812 220.091 139.884 56.2681 33.2247 80.2071 262.334 123.287 97.4274 139.047 101.488 28.6938 53.9487 408.508 395.819 94.8945 36.7475 29.5275 58.147 25.8595 357.059 347.615 319.635 16.1971 104.91 82.2499 22.6597 15.7439 72.8868 61.7108 44.3729 37.5588 15.9138 77.2274 15.3722 61.8552 242.407 232.364 20.0864 47.9521 25.0768 15.4832 39.866 31.5942 26.0891
internal_count=29480 7111 3443 3668 566 22369 1959 247 552 3102 2891 1063 20410 964 19446 216 2783 2249 1712 1193 420 291 519 2219 1151 958 1068 717 225 324 3068 2937 699 230 161 469 193 2529 2423 2176 109 748 631 117 109 442 503 340 351 113 609 95 514 1567 1515 132 255 181 130 323 241 214
is_linear=0
shrinkage=0.05


Tree=6
num_leaves=63
num_cat=0
split_feature=18 25 8 1 2 2 18 2 2 30 7 16 19 22 19 30 19 30 7 19 16 1 16 22 22 22 1 16 30 30 3 26 22 22 25 22 15 1 26 30 26 30 22 30 22 16 30 16 25 30 22 18 16 18 18 21 32 25 16 22 24 25
split_gain=4886.19 1048.04 232.947 229.505 223.64 193.535 144.976 270.453 138.727 74.3216 63.1617 55.9731 78.0445 110.84 61.7584 58.0645 65.9684 88.306 70.0443 74.4792 137.009 82.6118 70.0383 62.8717 85.578 56.8467 54.4963 56.7722 67.2169 56.8488 55.3718 51.0888 50.3244 48.2803 64.4089 47.9011 54.5591 50.5954 49.2635 54.0427 46.9638 46.4098 66.3984 54.9285 54.2436 48.7454 64.9758 60.1111 85.9773 54.9484 53.9351 78.0774 51.5914 46.2135 97.5578 45.1664 44.6881 42.038 42.0303 41.9323 41.3059 41.1506
threshold=178.51500000000001 59.500000000000007 1.0000000180025095e-35 4815.0000000000009 36.500000000000007 21.500000000000004 144.12500000000003 36.500000000000007 21.500000000000004 7386.9666666666681 89639.500000000015 0.31897439709136827 0.13530448929299602 709.31000000000006 1.2402864134360791 683.16666666666686 -0.73232086516733708 159.27500000000001 19050.500000000004 -0.16239421493920578 0.19499127404024311 5691.5000000000009 0.14619665999095435 487.23500000000007 582.29500000000007 802.63000000000011 5691.5000000000009 0.19214975207076254 3797.5166666666669 11668.750000000002 1.5000000000000002 15.500000000000002 259.99500000000006 728.94500000000005 24.550000000000004 859.59500000000014 954.69500000000005 5631.0000000000009 21.500000000000004 25646.366666666669 6.5000000000000009 2606.233333333334 746.7700000000001 1114.866666666667 812.12500000000011 0.65510479108404918 2843.9000000000005 0.63212995294545393 19.350000000000005 6263.7333333333345 606.99500000000012 456.36000000000007 0.35320257734660471 228.36500000000004 215.80500000000004 1.5000000000000002 1.0000000180025095e-35 806.50000000000011 0.042763852129501019 892.81000000000006 2.5000000000000004 1493.5000000000002
decision_type=2 2 2 2 2 2 2 2 2 2 2 2 2 2 2 2 2 2 2 2 2 2 2 2 2 2 2 2 2 2 2 2 2 2 2 2 2 2 2 2 2 2 2 2 2 2 2 2 2 2 2 2 2 2 2 2 2 2 2 2 2 2
left_child=6 4 3 57 5 -2 11 8 -8 56 -6 12 15 32 -13 16 17 25 -18 20 22 -22 23 -20 -25 55 30 28 -28 -30 31 -9 -14 34 -32 36 -12 53 39 -37 -35 42 -39 -44 45 47 -47 48 52 -48 51 -51 -43 54 -38 -1 -4 -3 -57 -26 -33 -5
right_child=1 2 9 61 10 -7 7 26 -10 -11 35 14 13 -15 -16 -17 18 -19 19 -21 21 -23 -24 24 59 -27 27 -29 29 -31 33 60 -34 40 -36 38 37 41 -40 -41 -42 44 43 -45 -46 46 49 -49 -50 50 -52 -53 -54 -55 -56 58 -58 -59 -60 -61 -62 -63
leaf_value=0.013169189811682264 0.037154835254751266 0.090471727015194903 0.093303816418440211 0.12809319591878424 0.12899489604064199 0.14285973833437257 -0.0015430451220284263 -0.053058680229359181 0.1436286586787264 -0.029997502159041872 -0.018940143695516023 -0.040882046609138134 0.18506464385166613 0.20782292299393174 0.099564115733928815 0.045154624028307389 -0.03890701633532908 -0.025926121590046404 -0.052169995408655634 -0.054195813633551117 0.24900934111156464 0.019117919084415059 -0.054355011712041504 0.15112082647621894 0.0065886796755710818 -0.045863331475053254 -0.049955422449127845 0.0002532804992701725 0.16186327287148758 0.0025242338782681811 0.14488776570786829 -0.045798662688025474 0.057334410066967857 0.15646302816775459 -0.001434508492361407 -0.05491185375668476 -0.014706178860975845 -0.023469487966262675 0.12982491035657404 0.10318902913090883 -0.020729685218054239 0.16361594047804182 0.14589866685095482 -0.0052073519411104663 0.0061436079041062002 0.21006182132550957 -0.05319693300902837 0.23929379009975588 -0.018193422458503146 0.012691998420507451 -0.01936779782207558 0.17875336643582351 0.080955905718279028 0.007262293974652681 0.18157346859639895 0.1901026987857003 -0.046341398347685345 0.004546782398338358 0.02799737670510092 0.1642522969776011 0.12730271712617566 0.14160503428790755
leaf_weight=6.8254529461264601 63.434927649796009 22.693546958267689 51.568591244518757 847.81398539990187 21.89535666257143 142.75394463539124 18.530060768127441 14.605775296688082 139.99458312988281 20.890262953937054 27.241955995559692 35.832987681031227 7.4626377895474425 14.209443807601927 8.9406501352787 2365.2201752364635 59.195116765797138 17.014646738767624 13.518552444875239 23.344325795769691 10.571076087653639 6.2433646172285071 23.794222317636013 18.428153179585934 39.370206236839294 4.6612670421600333 7.5982451662421218 96.518663980066776 17.414140127599243 8.1811857745051366 41.079532146453857 4.3352665826678267 147.20585045963526 3.9368826597929027 9.0516232252120954 30.93571288138628 12.203333362936975 30.674095444381237 4.6402371674776068 5.5365707576274863 14.568628743290899 33.078597545623779 14.037418976426126 9.8075919225811941 23.410902082920074 4.7951402887701979 13.232803173363207 7.5820086151361457 13.898457147181032 13.869608268141748 13.737387627363203 13.971404373645781 53.240100875496864 84.914070427417755 11.76068067550659 21.351388692855839 5.7741414308547965 36.27027228474617 5.4291367605328551 3.7486683353781691 10.07164668291807 3337.4597702920437
leaf_count=53 503 110 255 861 34 63 185 138 62 228 251 364 31 42 62 16852 570 151 137 227 26 49 228 96 344 45 72 856 76 64 190 39 997 21 74 298 103 273 28 30 132 144 78 84 184 14 118 18 143 99 115 51 305 682 50 81 69 186 39 16 50 1734
internal_value=0.0959628 0.127026 0.135939 0.137518 0.0676932 0.1107 0.0479346 0.0767379 0.126725 0.0495283 0.0475274 0.0439829 0.0448741 0.0779048 -0.0111653 0.0427132 0.0198262 0.0676136 0.00620064 0.0255842 0.0420541 0.169794 0.0187948 0.0424572 0.0638234 0.108932 0.041461 0.019921 0.0752837 0.113131 0.0695309 0.0108981 0.0646787 0.0937308 0.118859 0.0429997 0.048516 0.0537567 -0.00800008 -0.0286651 0.022799 0.0663459 0.0249335 0.0858386 0.0779604 0.0878778 0.0501545 0.108038 0.0957921 0.0325623 0.060582 0.0995081 0.114201 0.0249983 0.0848353 0.131252 0.0786032 0.0386576 0.15961 0.0238212 0.0752975 0.1389
internal_weight=8191.38 4973.12 4322.47 4244.24 650.652 206.189 3218.25 385.886 158.525 78.233 444.463 2832.37 2787.59 168.878 44.7736 2618.72 253.496 55.2819 198.214 139.019 115.674 16.8144 98.8598 75.0656 61.547 38.2672 227.362 129.712 33.1936 25.5953 97.6494 29.0127 154.668 68.6367 50.1312 422.568 381.456 354.214 41.1125 36.4723 18.5055 245.336 54.5191 23.845 190.816 167.406 59.6063 107.799 100.217 54.8112 41.5784 27.841 86.3187 108.878 23.964 33.606 57.3427 58.9638 26.7805 43.1189 14.4069 4185.27
internal_count=29480 7111 3443 2891 3668 566 22369 1959 247 552 3102 20410 19984 1070 426 18914 2062 369 1693 1123 896 75 821 593 456 218 1712 1068 212 140 644 227 1028 417 264 3068 2712 2461 356 328 153 1626 435 162 1191 1007 397 610 592 383 265 150 449 835 153 173 324 296 120 360 89 2595
is_linear=0
shrinkage=0.05


Tree=7
num_leaves=63
num_cat=0
split_feature=18 25 0 0 8 0 18 0 1 0 7 22 30 12 16 19 22 19 30 19 16 19 30 1 22 22 24 24 0 19 22 22 22 22 13 26 30 19 19 18 1 24 25 19 18 19 16 16 0 12 26 26 11 26 25 15 26 26 19 7 25 25
split_gain=4181.29 886.253 217.696 184.191 183.637 158.597 126.977 219.102 114.001 113.277 52.3953 50.135 49.4141 49.1329 47.6572 62.9596 79.7437 54.4098 48.2806 59.4892 109.89 68.2505 81.9987 56.9221 52.0804 51.4389 46.684 45.5514 44.1742 67.0135 54.2951 43.9934 46.7182 43.1583 42.7732 41.4489 48.9949 40.1226 39.7218 39.6285 39.4538 59.0693 84.4657 111.678 69.4809 62.5122 68.0427 89.9696 80.2138 69.7032 68.053 61.121 53.8303 69.7084 119.713 111.542 86.8719 78.142 75.1342 69.9523 57.9777 61.8849
threshold=178.51500000000001 59.500000000000007 2.5000000000000004 3.5000000000000004 1.0000000180025095e-35 2.5000000000000004 144.12500000000003 3.5000000000000004 4815.0000000000009 2.5000000000000004 88142.500000000015 398.27000000000004 11553.641666666668 92772.000000000015 0.31897439709136827 0.13530448929299602 709.31000000000006 1.2402864134360791 683.16666666666686 -0.16239421493920578 0.19499127404024311 -0.71391066944190407 298.40000000000003 5691.5000000000009 475.96500000000009 802.63000000000011 5.5000000000000009 1.0000000180025095e-35 4.5000000000000009 0.65072345142155197 808.58000000000004 582.29500000000007 892.81000000000006 859.59500000000014 49999822.000000007 21.500000000000004 25646.366666666669 -0.082307862810164986 0.089077101577906215 175.54500000000004 5813.0000000000009 2.5000000000000004 3.8500000000000001 -0.42011701898955328 84.885000000000005 -0.026646837696885795 0.14619665999095435 0.11407615223834318 1.5000000000000002 37053.500000000007 22.500000000000004 1.5000000000000002 4.5000000000000009 15.500000000000002 13.250000000000002 198.78000000000003 17.500000000000004 20.500000000000004 -0.11196174858423123 5231.5000000000009 13.850000000000003 2796.5000000000005
decision_type=2 2 2 2 2 2 2 2 2 2 2 2 2 2 2 2 2 2 2 2 2 2 2 2 2 2 2 2 2 2 2 2 2 2 2 2 2 2 2 2 2 2 2 2 2 2 2 2 2 2 2 2 2 2 2 2 2 2 2 2 2 2
left_child=6 3 13 5 8 -2 14 9 34 -8 -5 -9 28 -3 15 18 26 -16 19 20 21 22 25 -22 -23 27 -17 -1 29 -6 -31 -26 -33 -12 -4 36 -35 -30 40 -13 52 42 44 51 -42 46 47 48 49 -43 -50 -44 -20 54 -54 56 -55 -58 -57 -56 -61 -62
right_child=1 2 4 10 12 -7 7 11 -10 -11 33 39 -14 -15 17 16 -18 -19 38 -21 23 24 -24 -25 31 -27 -28 -29 37 30 -32 32 -34 35 -36 -37 -38 -39 -40 -41 41 45 43 -45 -46 -47 -48 -49 50 -51 -52 -53 53 55 59 58 57 -59 -60 60 61 -63
leaf_value=-0.045356490159727057 0.034948193311091037 0.16049719386508762 0.076900744831032361 0.12316682286839419 -0.053056063120343923 0.12959188852087247 -0.0012278679529122948 -0.051870726412823642 0.12720769443082777 0.1300800195260792 0.045592896823996171 0.049727560772721287 -0.050234740138848523 -0.0097082519705313144 -0.040160098565617044 0.069017454980118242 0.17297970268856866 0.088648650308320129 0.026998314173251992 -0.053976749507979163 0.19401004578596437 -0.044885744112812841 -0.052100312167864593 0.014093263933702409 0.064971933626976827 -0.04737170615752679 -0.0099710398082847422 0.11986089248435464 0.2173606982821927 0.011477158063152757 0.15926439550950067 -0.01701170208936191 0.13577355805468683 -0.054498952493556276 -0.025732015825237948 0.11138350565287965 0.092637376664825244 0.059965943171881711 -0.029343427221293145 -0.050780065500499898 0.10198779351302339 -0.054652365938561279 0.11650503579434848 0.054416500151229709 -0.049592494424401973 -0.030160612011265658 0.084220203748632969 0.0069094014157956643 0.067639893772098031 0.1477542808563003 -0.051114714654737138 -0.00039745365214222318 -0.02131845102010305 0.18958931787744451 -0.030136540320568207 0.00021663233233001965 -0.0039721369266951271 0.12566368605460215 0.12138973416363193 0.20276866455965134 0.044663570384396285 0.13520286285702618
leaf_weight=4.0675327256321898 64.805996209383011 3.76589611172676 39.044730067253113 19.467755526304245 14.462886601686476 146.52880549430847 18.419995307922363 13.273296780884264 4335.6628249213099 143.81568288803101 400.01090101897717 213.14477538317442 11.091862700879572 37.402287304401398 34.69964786618948 140.84027231484652 16.355652883648872 9.6430201604962331 731.32122156023979 24.556245259940624 12.984494842588903 48.721007287502289 12.652978628873823 6.7452639788389197 32.036339461803436 5.7319919094443312 21.153578460216522 41.19161593914032 6.38542062789202 13.969930127263071 10.566545560956 63.738449782133102 4.421195723116397 29.881993606686592 12.954779893159865 5.2309182509779921 5.9610009565949431 11.81587056070566 18.911324627697468 9.4506073594093305 64.352845519781113 24.449584282934669 10.708705298602579 204.00888498872519 7.8996358811855307 19.575452387332916 198.76840844005346 100.75752492249012 428.72354447096586 4.1151984706521025 11.674602471292017 246.2110380679369 69.681053020060062 27.464122079312801 19.664332665503025 51.510121390223503 18.685937881469727 29.192447021603584 16.057965971529484 6.8860114812850943 111.78679360449314 22.420335203409195
leaf_count=36 499 8 171 15 142 62 184 139 2514 61 2733 1482 132 211 364 864 42 62 5320 249 30 498 125 53 216 57 164 194 8 103 28 586 18 300 64 29 30 62 159 93 306 228 52 1338 79 166 1107 788 2661 17 126 1998 578 104 169 391 141 146 88 25 771 94
internal_value=0.0878566 0.115985 0.123994 0.0622665 0.125051 0.100894 0.0440722 0.0706122 0.12632 0.115225 0.0443504 0.0395487 0.0427887 0.00917976 0.0404346 0.0412271 0.0700907 -0.010701 0.0392946 0.0185354 0.0264209 0.0155996 0.0585057 0.136388 -0.00297222 0.0865219 0.0586744 0.104245 0.0614661 0.0298393 0.0790615 0.0176013 -0.00520905 0.0405897 0.0512342 -0.00794235 -0.028043 0.123888 0.041465 0.04523 0.0420309 0.0479042 0.034905 0.026891 0.0848959 0.0566374 0.0588912 0.0499134 0.0591079 -0.0213121 0.0643718 0.00488861 0.0349646 0.0504418 0.0331554 0.0778569 0.119362 0.0759211 0.0304374 0.056784 0.0690603 0.0607139
internal_weight=8491.48 5169.01 4497.12 671.887 4455.95 211.335 3322.47 398.104 4387.66 162.236 460.553 235.869 68.2925 41.1682 2924.37 2880.02 178.35 44.3427 2701.67 256.847 232.291 212.561 63.6441 19.7298 148.917 50.9911 161.994 45.2591 57.2007 38.9994 24.5365 100.196 68.1596 441.085 51.9995 41.0739 35.843 18.2013 2444.83 222.595 2425.92 1321.25 533.181 460.929 72.2525 788.064 768.489 569.72 468.963 28.5648 440.398 256.92 1104.67 373.349 230.439 142.911 75.3425 47.8784 67.5681 160.757 141.093 134.207
internal_count=29480 7111 3443 3668 3224 561 22369 1959 2749 245 3107 1714 475 219 20410 19984 1070 426 18914 2062 1813 1730 412 83 1318 287 1028 230 343 273 131 820 604 3092 235 359 330 70 16852 1575 16693 8866 3773 3388 385 5093 4927 3820 3032 245 2787 2050 7827 2507 1637 870 391 287 479 1059 890 865
is_linear=0
shrinkage=0.05


Tree=8
num_leaves=63
num_cat=0
split_feature=18 25 2 2 2 2 2 9 1 17 23 25 22 22 17 25 13 16 28 25 22 15 22 22 2 16 22 25 1 25 1 25 25 25 26 15 15 26 1 7 22 26 17 26 7 1 22 25 15 22 22 25 15 22 22 26 17 25 18 17 16 25
split_gain=3668.23 644.582 228.157 479.417 214.772 140.657 131.746 123.199 99.1996 78.1651 95.5687 82.706 64.6427 72.6869 57.2824 56.8727 56.274 52.4216 50.455 63.8483 57.9477 56.1886 49.6322 49.0084 43.4936 94.7601 95.6016 89.625 50.9818 50.1168 52.3513 47.6435 68.4229 61.6185 54.0385 80.1881 72.0479 51.911 49.9252 49.8792 55.7482 45.3914 43.7931 43.5599 44.8439 41.9532 43.9243 63.8181 40.0794 40.0721 48.2645 45.9575 39.9183 39.4532 74.1316 38.6757 38.5503 38.1747 85.759 77.6945 69.135 49.2133
threshold=198.87000000000003 59.500000000000007 36.500000000000007 21.500000000000004 21.500000000000004 36.500000000000007 21.500000000000004 1.0000000180025095e-35 4815.0000000000009 67.745000000000019 5.0000000000000009 785.50000000000011 609.36000000000001 542.50500000000022 997.13000000000011 12.65 63498568.500000007 0.42972874722673871 1.0000000180025095e-35 16.650000000000002 451.60000000000008 691.45500000000015 816.78500000000008 381.92500000000001 61.000000000000007 0.22428920866491972 259.99500000000006 2.0500000000000003 5361.0000000000009 2.4500000000000006 5691.5000000000009 8.2500000000000018 9.8500000000000032 8.0500000000000025 17.500000000000004 181.28000000000003 111.18000000000002 19.500000000000004 5476.0000000000009 21040.500000000004 755.44500000000016 10.500000000000002 93.185000000000016 2.5000000000000004 3750.5000000000005 5004.5000000000009 874.7700000000001 6.0500000000000007 5238.4450000000006 394.33000000000004 440.88000000000005 5.8500000000000005 313.19500000000005 512.5200000000001 683.23500000000013 22.500000000000004 540.86000000000013 4479.0000000000009 6.5150000000000015 93.185000000000016 0.031854930290299434 10.850000000000003
decision_type=2 2 2 2 2 2 2 2 2 2 2 2 2 2 2 2 2 2 2 2 2 2 2 2 2 2 2 2 2 2 2 2 2 2 2 2 2 2 2 2 2 2 2 2 2 2 2 2 2 2 2 2 2 2 2 2 2 2 2 2 2 2
left_child=2 5 3 9 -3 6 -2 8 56 10 -1 12 13 18 -7 -15 17 24 19 20 -11 -21 23 -13 25 27 -27 -4 49 30 43 33 -33 34 35 -29 42 52 -39 -37 -41 -32 -36 -26 -45 -14 -47 -48 55 -28 -51 -52 -38 -25 -55 -16 -6 59 -59 -34 -61 -62
right_child=1 4 16 -5 7 14 -8 -9 -10 11 -12 22 45 15 48 -17 -18 -19 -20 21 -22 -23 -24 53 29 26 28 31 -30 -31 41 32 57 -35 36 39 37 38 -40 40 -42 -43 -44 44 -46 46 47 -49 -50 50 51 -53 -54 54 -56 -57 -58 58 -60 60 61 -63
leaf_value=-0.055290447461624037 0.032187740966243612 -0.0069696888147196467 -0.023653087138007733 0.12153720231989114 -0.059613735256372272 0.11987140279736706 0.12091440011687407 0.042526265264522981 0.1178000135379441 0.076107748181340695 0.10004387255811807 -0.0049338755754944055 0.09427403618651134 0.01644616414286305 0.043917855644383469 0.14290532748902565 -0.054333843833582023 -0.03478038733617618 0.20391213354599538 -0.043683430283898636 -0.02680811592164381 0.12317988164076754 -0.048241175467664502 0.16266549000663791 0.17806387341792757 0.18201927734821052 -0.05010151209634528 -0.028593133818626288 -0.030357467458029742 0.040920725950748228 0.031487190168223704 -0.024710885863258859 -0.0051139443388512106 0.16328481398246084 0.084853586820807111 0.1410789526176203 0.011382343746506035 0.14091166200170091 -0.030764802485829579 0.060847176643556933 -0.030866939367011115 0.11737085619562436 0.24884344755458027 0.11142960625489984 -0.013441768952029892 -0.025623453686176596 0.18561951641423502 -0.046336913603806124 -0.050630114469957944 0.16676811997875451 0.12875280119225768 -0.051120298462714479 0.16098029264154709 -0.017703519944306322 0.12959406288067629 -0.051053881084820354 0.063674972442219549 0.17603078164566521 0.046690023122617691 0.14661597563354453 0.090646475237844693 0.033415080257865971
leaf_weight=43.093955099582672 61.003186248242855 35.603364743292332 59.382554486393929 263.23908925056458 6.4637250676751128 22.205621935427189 140.17347359657288 58.00770902633667 4338.0870234519243 55.217906825244427 11.784415163099764 9.5359726473689062 9.1575142890214902 13.174664996564386 365.7094841375947 28.999527037143707 15.961692117154596 24.198964849114418 2.9981339052319518 40.442994922399521 17.421975962817669 4.7591611519455901 5.5198302119970313 26.212637200951576 3.4364586323499671 5.4323325380682936 7.6753221005201366 35.85135630518198 112.09372191876173 1421.3810233548284 21.59201841801405 46.536854684352875 114.0267229154706 12.734640121459959 9.8352083042264002 14.300224252045153 6.9096051827073124 4.3118505403399494 19.866777248680592 83.206040948629379 19.887330703437328 63.897123225033283 8.9070927649736387 8.0738513618707639 33.675017483532429 79.969435304403305 5.3427926301956159 4.9137019962072372 11.40588319301605 8.0297214910388011 4.5988360792398444 8.7263367101550084 12.915328256785868 12.826849609613417 23.040005192160606 10.193553052842615 46.887272864580154 14.065334521234034 99.301498107612133 13.854703739285467 39.548129320144653 627.63088203966618
leaf_count=420 451 201 492 109 32 23 58 384 2350 335 49 70 47 98 2373 127 138 231 4 367 150 19 48 88 8 14 71 305 972 9548 133 387 891 47 53 64 48 22 167 510 166 258 14 32 253 706 14 48 129 21 17 79 55 98 94 101 200 43 643 57 218 4330
internal_value=0.0810729 0.108455 0.0427142 0.0693875 0.115024 0.0600922 0.0943267 0.116003 0.116962 0.0343496 -0.0206515 0.0432885 0.0296718 0.0489547 0.0430733 0.104813 0.0368084 0.0373187 0.0287185 0.0225408 0.0513276 -0.023721 0.0885734 0.0997065 0.0379251 0.0314343 -0.00652331 0.0359151 -0.0150458 0.0437095 0.0734642 0.0389251 0.0339357 0.0594965 0.0526299 0.0361685 0.0915571 0.0542549 0.00403276 0.0560631 0.0429804 0.0963519 0.171698 0.0289047 0.012632 -0.00208006 -0.0128406 0.0798049 0.0383599 0.0429526 0.0773666 0.0152635 0.112131 0.115683 0.0777299 0.0412006 0.047824 0.0369695 0.0641798 0.0330075 0.0393958 0.0369456
internal_weight=8735.24 5095.74 3639.5 657.651 4485.05 610.691 201.177 4449.45 4391.44 394.411 54.8784 339.533 262.398 163.014 409.515 42.1742 2981.84 2965.88 120.84 117.842 72.6399 45.2022 77.1353 71.6155 2941.68 1389.63 146.556 1243.07 141.124 1552.06 130.674 1183.69 954.964 228.725 215.991 153.245 62.7459 44.0036 24.1786 117.394 103.093 85.4891 18.7423 45.1853 41.7489 99.3834 90.2259 10.2565 387.309 29.0302 21.3549 13.3252 19.8249 62.0795 35.8669 375.903 53.351 908.427 113.367 795.06 681.034 667.179
internal_count=29480 6302 23178 2891 3167 3135 509 2966 2582 2782 469 2313 1915 1100 2626 225 20287 20149 875 871 485 386 398 350 19918 9686 1174 8512 1160 10232 684 8020 6569 1451 1404 1045 359 292 189 740 676 391 67 293 285 815 768 62 2603 188 117 96 103 280 192 2474 232 6182 686 5496 4605 4548
is_linear=0
shrinkage=0.05


Tree=9
num_leaves=63
num_cat=0
split_feature=18 25 2 2 2 2 2 9 17 23 25 13 17 30 21 25 29 25 25 25 7 30 29 7 23 25 23 18 15 17 19 7 24 19 4 19 25 32 25 2 18 7 4 25 24 25 25 25 25 26 12 25 26 26 24 26 26 30 25 30 19 25
split_gain=3266.64 579.23 204.518 426.438 186.009 126.662 117.799 110.935 68.066 85.9419 66.7763 50.402 50.0626 46.197 51.2174 58.7719 53.1767 50.8841 44.0908 75.0031 46.0372 43.1598 78.0728 72.07 57.235 49.635 68.0608 65.0268 47.3617 40.9434 65.2852 52.0922 40.713 38.3698 55.0094 48.4984 41.8813 37.9668 80.7337 346.957 36.7024 36.0934 47.5483 35.8212 55.3483 66.7653 52.9476 45.698 61.2354 48.3819 67.0178 45.0936 76.0846 41.5007 35.4911 48.9006 35.3249 35.0518 34.7747 42.9636 44.1032 39.1187
threshold=198.87000000000003 59.500000000000007 36.500000000000007 21.500000000000004 21.500000000000004 36.500000000000007 21.500000000000004 1.0000000180025095e-35 67.745000000000019 5.0000000000000009 785.50000000000011 63498568.500000007 997.13000000000011 1198.2250000000001 1.0000000180025095e-35 8.2500000000000018 1.0000000180025095e-35 4.2500000000000009 8.0500000000000025 24.750000000000004 9832.5000000000018 8228.3000000000011 1.0000000180025095e-35 25969.500000000004 5.0000000000000009 17.650000000000002 2.0000000000000004 78.090000000000018 255.80000000000004 381.92500000000007 -0.63030620990674469 8488.5000000000018 3.5000000000000004 -0.26292698154931987 1.0000000180025095e-35 -0.63524218748912575 1013.5000000000001 1.0000000180025095e-35 1493.5000000000002 71.500000000000014 195.47500000000002 37018.500000000007 4.5000000000000009 10.65 2.5000000000000004 13.850000000000003 14.450000000000001 15.850000000000003 18.250000000000004 17.500000000000004 157605.00000000003 17.650000000000002 5.5000000000000009 19.500000000000004 6.5000000000000009 16.500000000000004 7.5000000000000009 11553.641666666668 8.2500000000000018 1354.166666666667 -0.23576577068376423 4479.0000000000009
decision_type=2 2 2 2 2 2 2 2 2 2 2 2 2 2 2 2 2 2 2 2 2 2 2 2 2 2 2 2 2 2 2 2 2 2 2 2 2 2 2 2 2 2 2 2 2 2 2 2 2 2 2 2 2 2 2 2 2 2 2 2 2 2
left_child=2 5 3 8 -3 6 56 37 9 -1 21 13 -7 14 15 17 18 -4 20 29 -16 22 23 28 32 26 27 -25 -10 30 31 -20 -23 35 -35 -12 -36 38 39 -6 58 -37 -43 -14 -45 -46 -47 -48 51 -50 -51 52 -49 -52 -22 -56 -2 -9 -15 60 -60 -61
right_child=1 4 11 -5 7 12 -8 57 10 -11 33 -13 43 40 16 -17 -18 -19 19 -21 54 24 -24 25 -26 -27 -28 -29 -30 -31 -32 -33 -34 34 36 41 -38 -39 -40 -41 -42 42 -44 44 45 46 47 48 49 50 53 -53 -54 -55 55 -57 -58 -59 59 61 -62 -63
leaf_value=-0.054881357078112106 -0.051352507359252425 -0.0066576537566953075 -0.048824339770564121 0.11337615721043022 0.11775205299535972 0.11041254065700828 0.11284455531194304 0.055142684642566803 0.075713906131193345 0.089845251975672447 0.10695030889778541 -0.053796979229748521 0.05117703432723613 0.047558366274437748 0.065905117741436245 -0.05496615230723282 -0.028798892208403527 0.11558203115344434 0.0054482177011802423 0.0033835281922478715 -0.055078519219826996 0.013119415096716824 -0.053133752137334567 -0.046355426746382135 0.085126997163581519 -0.035963386826511803 -0.012077394904442798 0.14979892826891245 0.21308991705671587 0.09132782542233242 -0.0028980265491701843 0.11810470563606645 -0.055444477457335307 0.15289111839804476 0.12511787605787825 -0.054503707218614583 -0.051662022497953257 0.11302081230373476 0.10802976312480446 0.011564434770947936 -0.053276446145955753 -0.047752525440059694 0.14029606491869742 -0.012375257710979345 -0.034480199259488309 0.14551762181984104 -0.052984828456697532 0.20250253448265509 -0.012968405107526429 -0.048502498389194251 0.2010089049220127 0.18735415750526935 -0.015053420311491469 0.024890426893416202 -0.046372556183167421 0.17452715607289168 0.046546268739389128 -0.048971805985590595 0.11813486139601265 0.030371041269667061 -0.0051907046186022605 0.052555080790517385
leaf_weight=41.297595851123333 10.232114188373087 35.458626739680767 7.0690729692578342 268.01406383514404 217.13553240895271 22.967054836452007 142.68766808509827 50.961143970489502 66.327232412993908 12.558038659393786 17.201257303357124 15.340651556849478 189.21978797018528 637.1637316942215 15.29276969283819 42.73767028003931 38.158595561981201 10.722837895154951 15.544829882681368 81.554693140089512 34.219988346099854 55.803844131529331 17.570719681680202 4.8470552787184742 16.715786054730415 24.991149418056011 22.224706076085567 18.371927864849567 6.5048575401306143 69.1378338560462 45.5475043207407 30.350742496550083 34.008944980800152 27.299926578998566 4.6927129998803121 13.396734721958639 7.1891350075602531 2611.8835142180324 1530.0255108475685 119.36529813706875 10.351457670331 5.2031626924872381 6.7321372330188751 77.615024544298649 23.48412299156189 13.911486208438872 10.237725563347338 4.9335410073399606 34.47263065725565 6.2964250370860126 8.7956908196210843 11.377246141433714 11.961226120591162 5.66637148708105 4.8440538719296438 3.5266358852386475 52.241575732827187 8.7202327251434308 27.5015983954072 1733.1062781140208 9.5102626979351026 227.11741034686565
leaf_count=420 97 201 72 109 89 23 58 279 379 49 68 138 1069 3895 81 435 398 48 116 638 330 411 183 46 92 223 181 74 9 370 352 144 317 86 16 107 56 1156 858 479 89 45 20 633 205 53 83 10 306 61 21 32 89 41 46 12 354 105 125 11619 69 1310
internal_value=0.0753081 0.10092 0.0395832 0.0645971 0.107101 0.0556621 0.0878718 0.107993 0.0319389 -0.0200203 0.0400036 0.0340754 0.0397805 0.0345375 0.0185758 -0.0234539 0.0261603 0.050872 0.0332394 0.0425803 -0.00580928 0.0276972 0.0439682 0.0561975 0.00290409 0.0196071 0.0503913 0.108421 0.0907711 0.0623121 0.0395694 0.0809844 -0.0131129 0.0793873 0.114878 0.0446905 0.0220615 0.108898 0.103069 0.0802453 0.036934 0 0.0605762 0.0354252 0.0209475 0.0406522 0.0572547 0.0427057 0.054985 0.023404 0.0818556 0.113603 0.0559631 0.1384 -0.0325952 0.0548537 0.0298769 0.0392915 0.0373104 0.0340164 0.0870117 0.0329694
internal_weight=8929.4 5199.65 3729.75 670.951 4573.55 626.1 205.161 4538.09 402.937 53.8556 349.081 3058.8 420.938 3043.46 398.707 60.5296 338.178 17.7919 300.019 242.136 57.8834 267.366 160.838 143.267 106.529 70.4348 45.4437 23.219 72.8321 160.581 91.4431 45.8956 89.8128 81.7151 39.1818 42.5333 11.8818 4478.41 1866.53 336.501 2644.75 25.332 11.9353 397.971 208.751 131.136 107.652 93.7409 83.5031 55.2311 20.7585 28.272 16.8948 14.4621 42.5907 8.37069 62.4737 59.6814 2634.4 1997.24 37.0119 1960.22
internal_count=29480 6302 23178 2891 3167 3135 509 2966 2782 469 2313 20287 2626 20149 3042 555 2487 120 2089 1620 469 1915 1095 912 820 524 301 120 388 982 612 260 728 398 158 240 72 2582 1426 568 17107 172 65 2603 1534 901 696 643 560 429 123 131 99 62 388 58 451 384 17018 13123 194 12929
is_linear=0
shrinkage=0.05


Tree=10
num_leaves=63
num_cat=0
split_feature=18 28 2 2 2 2 7 26 22 13 17 22 1 1 30 22 22 22 26 24 30 30 26 29 30 20 30 21 30 22 3 26 21 1 22 17 17 1 22 30 30 30 22 1 30 18 26 26 22 24 26 1 6 24 22 30 22 30 22 17 22 15
split_gain=2962.86 393.245 763.432 249.74 185.377 385.099 59.4711 54.8179 47.8131 45.2989 43.7434 73.3677 53.2621 42.8656 41.9671 46.8416 57.3118 49.697 50.3594 46.6178 39.195 39.1308 68.2235 67.6502 45.3929 41.9431 91.8807 70.1173 38.9931 50.8377 50.797 47.3187 50.024 45.6793 42.0822 38.5861 51.1917 40.6391 38.2723 37.8909 52.0179 39.5685 37.2548 36.887 34.8909 34.8538 56.9085 47.5635 45.8223 36.5295 54.5202 34.4205 47.5942 39.9852 69.9303 123.888 74.3992 64.0158 78.9757 75.7563 56.3362 47.3703
threshold=198.87000000000003 1.0000000180025095e-35 36.500000000000007 21.500000000000004 36.500000000000007 21.500000000000004 6774.5000000000009 22.500000000000004 609.36000000000001 63498568.500000007 119.94500000000001 746.7700000000001 5476.0000000000009 6531.0000000000009 2753.2416666666672 664.10000000000014 483.52000000000004 691.01500000000021 7.5000000000000009 1.5000000000000002 2171.1166666666672 8228.3000000000011 7.5000000000000009 1.0000000180025095e-35 21965.133333333335 1.0000000180025095e-35 4042.9000000000001 2.5000000000000004 1198.2250000000001 422.98000000000008 2.5000000000000004 7.5000000000000009 1.0000000180025095e-35 5916.5000000000009 815.11500000000012 589.59000000000003 508.85000000000008 7421.5000000000009 892.81000000000006 3479.3916666666669 19916.191666666669 23658.983333333334 789.70000000000016 5984.0000000000009 216.30000000000001 363.92000000000002 14.500000000000002 6.5000000000000009 780.21000000000015 2.5000000000000004 6.5000000000000009 5813.0000000000009 50000.000000000007 2.5000000000000004 381.92500000000001 9543.9500000000025 313.02500000000003 1824.0166666666669 559.55500000000018 912.08500000000015 270.75000000000006 181.28000000000003
decision_type=2 2 2 2 2 2 2 2 2 2 2 2 2 2 2 2 2 2 2 2 2 2 2 2 2 2 2 2 2 2 2 2 2 2 2 2 2 2 2 2 2 2 2 2 2 2 2 2 2 2 2 2 2 2 2 2 2 2 2 2 2 2
left_child=4 2 3 -2 5 6 -1 14 13 28 12 -12 -10 21 19 16 39 -17 -19 -4 -13 23 -23 25 43 -8 -27 -28 29 30 -6 -31 -33 44 -34 36 37 42 -36 -16 -41 -42 -22 -24 -32 48 47 -47 -21 -50 -51 52 -30 54 55 -53 -57 58 -55 60 -59 -56
right_child=1 -3 7 -5 9 -7 8 -9 10 -11 11 20 -14 -15 15 17 -18 18 -20 45 35 22 24 -25 -26 26 27 -29 51 31 33 32 34 -35 38 -37 -38 -39 -40 40 41 -43 -44 -45 -46 46 -48 -49 49 50 -52 53 -54 57 61 56 -58 59 -60 -61 -62 -63
leaf_value=-0.019418911702547056 0.019704711891874897 0.10365381706285887 -0.043758779501227058 0.1080896673973617 -0.040434577233291066 0.10660252131603634 0.10056110430336831 -0.056502527230439706 0.1488008329947362 -0.053280197289855072 -0.046216585761433837 -0.051586378257884404 -0.0068378401699282602 -0.051005360480753673 0.1017797476260226 -0.056485287233692422 0.076248374276357084 -0.027749676866236046 0.040138857586260054 -0.042608295119868834 0.08722878085024019 0.10401611990766411 -0.055985581210182433 -0.050490656686472006 0.058405677844095429 -0.054519749551430602 -0.04703051316611178 0.16858417638703363 0.029490352822510259 -0.02063028607008504 0.10669940950411952 -0.017020285220893491 0.053528936792674543 -0.051696750790284733 -0.035939495372608592 -0.020457428476035787 0.16487827198036561 0.14230102308346637 0.098401951778667271 -0.020298246847332654 0.14626922931385256 -0.00092570173317539227 -0.029476230393487013 0.060241683222222425 -0.0072912979469274084 0.07725298196929091 0.10143862154412225 -0.05685953761734916 0.13685591387297477 0.13657880356113891 -0.054891160274518569 0.0084202285661825402 -0.054244052875059345 0.012858050268168917 -0.012987919466610019 0.043519808253260371 0.15111053995558676 -0.053992541644272724 0.1327204983722419 -0.0549258606913966 0.047136739938572453 0.027992958090555655
leaf_weight=52.827323492616415 88.291943341493607 3676.3799277171493 33.028697557747364 912.15165615081787 63.142919443547726 270.77445888519287 89.35020887106657 17.459269165992737 11.102896198630335 14.739897631108759 46.923622496426105 10.474009387195109 9.809070833027361 8.979785889387129 11.379033870995043 17.212160490453243 129.8915801346302 31.473539754748344 176.17008262872696 31.946282498538494 9.5411442518234271 20.580238536000252 30.906634263694286 9.5946284532546979 20.659790486097336 15.271684989333151 4.6970655843615541 12.348887264728546 1329.9643204733729 42.677381075918674 17.330391980707649 37.729965709149837 190.41348455101252 10.869212687015532 25.267501913011078 14.342884838581083 10.360586576163767 6.6831605434417716 5.6412967443466178 48.681233897805214 8.8657624572515505 8.3507046923041326 18.477559074759483 7.7643878757953635 10.276545666158198 10.194083563983442 26.883025601506233 15.142884716391562 6.8495246395468738 4.3638355284929267 11.109059959650038 59.275286450982094 16.265981316566467 20.4466388002038 88.152722589671612 28.716005370020866 39.484002441167831 13.202041313052176 43.072077915072441 18.525484725832939 717.79315474629402 338.85002432018518
leaf_count=469 586 1940 256 369 599 109 394 149 27 138 420 103 70 84 36 137 595 225 961 254 46 94 268 103 117 129 40 37 8646 411 81 339 1171 105 225 133 33 23 23 317 22 51 151 41 88 48 108 118 22 15 93 412 141 127 669 174 141 109 145 159 4197 2187
internal_value=0.0703379 0.0946435 0.0737474 0.100322 0.0367568 0.060403 0.0297463 0.0285074 0.0370517 0.0315923 0.013756 0.0015378 0.0785877 0.0514735 0.0312071 0.0388956 0.056042 0.0228976 0.029741 0.00725629 0.0338748 0.0560746 0.0278876 0.0728561 0.000111465 0.0829562 0.0325758 0.10958 0.0320122 0.0174152 -0.0130441 0.0276992 0.0357291 0.0316652 0.0447802 0.0496301 0.0720066 0.0402973 -0.00894813 0.0214737 0.00621785 0.0784675 0.0117292 -0.0315931 0.0653206 0.0233856 0.052148 -0.00182635 -0.00464323 0.0489726 0.00381875 0.0341727 0.0284354 0.0397921 0.029315 0.0617109 0.107165 0.0468864 0.0950117 0.0426801 0.0452322 0.0195104
internal_weight=9079.13 5265.82 1589.44 1000.44 3813.31 681.47 410.696 589.001 357.868 3131.84 137.715 116.803 20.912 220.153 571.541 432.024 207.168 224.856 207.644 139.517 69.8793 211.174 79.9111 131.262 59.3308 121.668 32.3176 17.046 3117.1 403.349 101.619 301.73 259.052 38.4762 221.322 59.4053 45.0625 34.7019 30.9088 77.2767 65.8977 17.2165 28.0187 38.671 27.6069 106.489 52.22 25.337 54.2687 22.3224 15.4729 2713.75 1346.23 1367.52 554.478 127.475 68.2 813.039 63.5187 749.521 730.995 427.003
internal_count=29480 6302 4362 955 23178 2891 2782 3407 2313 20287 1006 909 97 1307 3258 2344 1021 1323 1186 914 489 1223 520 703 426 600 206 77 20149 3042 873 2169 1758 274 1419 386 253 220 248 426 390 73 197 309 169 658 274 166 384 130 108 17107 8787 8320 3583 727 315 4737 272 4465 4306 2856
is_linear=0
shrinkage=0.05


Tree=11
num_leaves=63
num_cat=0
split_feature=18 25 2 2 2 2 8 2 1 17 25 22 22 13 17 25 25 22 28 25 19 22 17 26 17 22 25 22 19 22 25 19 22 1 19 25 18 25 24 18 15 19 22 19 22 19 17 24 17 22 15 25 24 26 17 22 26 10 25 25 19 25
split_gain=2719.09 484.917 169.154 352.178 157.096 105.073 98.0836 96.6235 84.43 52.1619 52.4762 44.7635 51.9076 40.8607 39.8567 37.9562 37.2437 35.9661 35.5015 48.1515 53.6332 43.3255 34.69 34.6388 34.174 34.1501 49.4044 33.9434 36.7421 48.82 37.033 47.305 33.9273 33.769 35.2824 51.4716 33.3914 32.3466 34.4401 56.8102 49.0386 31.831 73.6846 60.2039 54.2559 47.715 44.4444 48.3362 59.4294 44.2304 58.546 41.4008 38.0054 33.686 55.9039 53.224 43.4991 74.0801 61.6584 41.8932 36.961 36.3064
threshold=198.87000000000003 59.500000000000007 36.500000000000007 21.500000000000004 21.500000000000004 36.500000000000007 1.0000000180025095e-35 21.500000000000004 4815.0000000000009 67.745000000000019 785.50000000000011 609.36000000000001 542.50500000000022 63498568.500000007 997.13000000000011 806.50000000000011 12.65 816.78500000000008 1.0000000180025095e-35 16.650000000000002 0.59824506453783122 451.60000000000008 76.510000000000005 21.500000000000004 14.125000000000002 874.7700000000001 6.0500000000000007 859.59500000000014 0.038622496363746657 752.12500000000011 1.2500000000000002 3.8270523482311405 381.92500000000001 5631.0000000000009 2.8974859802746029 7.2500000000000009 195.47500000000002 1.6500000000000001 4.5000000000000009 211.81500000000003 1622.1900000000003 -0.85553404255536958 278.12500000000006 -1.0567623748991584 283.59000000000009 1.0895961385903672 67.745000000000019 3.5000000000000004 108.62000000000002 288.33000000000004 137.20000000000002 23.850000000000005 1.0000000180025095e-35 22.500000000000004 116.78000000000002 485.87500000000006 21.500000000000004 2.5000000000000004 7.8500000000000005 10165.500000000002 0.31563463468397424 1231.5000000000002
decision_type=2 2 2 2 2 2 2 2 2 2 2 2 2 2 2 2 2 2 2 2 2 2 2 2 2 2 2 2 2 2 2 2 2 2 2 2 2 2 2 2 2 2 2 2 2 2 2 2 2 2 2 2 2 2 2 2 2 2 2 2 2 2
left_child=2 5 3 9 -3 7 8 37 15 24 11 12 18 36 -7 -6 -14 32 19 21 22 -11 -21 25 -1 -13 -27 28 29 -16 -30 33 -12 34 -32 -36 41 -2 39 -39 -40 42 -4 51 45 52 -45 48 -48 50 -46 -44 -43 56 55 -55 -51 58 -58 -59 61 -60
right_child=1 4 13 -5 6 14 -8 -9 -10 10 17 23 16 -15 27 -17 -18 -19 -20 20 -22 -23 -24 -25 -26 26 -28 -29 30 -31 31 -33 -34 -35 35 -37 -38 38 40 -41 -42 44 43 46 49 -47 47 -49 -50 53 -52 -53 -54 54 -56 -57 57 59 60 -61 -62 -63
leaf_value=0.047602620128321643 0.11497568024598813 -0.0084105176674945017 0.16059319666996716 0.10089319483061543 0.083945654115895579 0.096367949241852061 0.033001056352955492 0.10039143143512685 0.097362818230280687 0.059028415837265015 -0.0084193253666270673 -0.025362606548924034 0.011864693555380203 -0.05278155436849602 -0.047897086662783028 0.0023364096508177823 0.10975782791222227 -0.048341517196274365 0.15532174161558043 0.12004090067549292 0.11817188171781096 -0.027837282081144405 -0.055596288201899748 0.079796573633434842 -0.042434753639432714 0.14720721568215767 -0.04686570678126438 -0.015377331328719494 0.086863926883094134 0.12309896171933887 -0.013660979104618463 -0.054478240283660988 0.088116633669789501 0.040665360714951929 0.14155119036398281 -0.012263025487627411 -0.053286053637095127 0.13259129788432897 -0.048920594416815011 -0.040829251146381786 0.11270602513834016 0.048016726312899743 -0.041102770150300477 0.024072593350971908 -0.049258630104116512 0.10765296846192296 0.097919599659374981 0.1128693031814435 -0.015293884419986123 0.028933705013172037 0.11646042458718918 0.04522489186255077 -0.021601744021914733 -0.04680241317646297 -0.021745415240343614 0.12877140762248587 -0.016861127565926361 -0.0050795527400462302 0.12382788414938406 0.14541038831124495 -0.044189375594832464 0.005101489578811829
leaf_weight=13.385721594095228 7.932172328233718 36.257146030664444 12.847394369542597 271.81454181671143 23.242586769163609 23.921385824680328 63.041628949344158 144.68567371368408 4497.1549490615726 62.385346002876759 10.096549667418001 78.446043364703655 13.93551057577133 14.15935170650482 4.5265582278370884 35.020218081772327 34.293335378170013 5.5134587138891211 3.8114204108715048 2.0808898881077758 4.8420543894171706 17.813643902540207 38.54387940466404 10.210831716656683 38.687821984291077 6.4037768319249135 5.1598798781633377 35.711442321538925 26.411523148417473 21.161106683313847 67.099636562168598 16.398679494857788 72.284968093037605 223.30750089138746 9.166386045515539 11.268746815621851 11.153745234012602 4.5074594989418975 6.1048331111669567 32.301608800888062 13.951519556343554 22.826258897781372 31.635968178510666 65.587697952985764 5.9028004333376876 8.3315069377422315 21.350870162248611 48.1593396961689 23.46685915440321 2551.2657934203744 27.69948111474514 23.166776925325394 109.56883747130632 5.6520298086106804 69.276015270501375 12.575617574155329 12.045668110251425 46.35111890733242 61.92775097489357 4.1249054670333853 3.4724059551954261 7.3696399331092826
leaf_count=83 35 201 43 109 84 23 384 58 2350 335 70 689 98 138 35 148 127 48 4 6 14 150 366 62 386 13 51 295 112 87 501 145 280 1307 29 92 99 18 53 272 73 141 255 421 49 41 94 186 172 16110 123 123 856 61 585 57 81 314 254 11 29 44
internal_value=0.0659753 0.089263 0.0342083 0.056679 0.0949118 0.048624 0.0957256 0.0777529 0.0965851 0.0277362 0.034398 0.0235675 0.0385704 0.0293472 0.0345668 0.035844 0.0823892 0.0679378 0.0217037 0.0164174 -0.0242817 0.0395672 -0.0438119 -0.00310382 -0.0187352 -0.0133366 0.0633734 0.0307699 0.0351564 0.0921138 0.0307571 0.0259626 0.0762663 0.0303835 0.0039341 0.0598836 0.0297303 0.0263702 0.0121509 -0.0165156 0.0632851 0.0300402 0.0481976 0.0406891 0.0286295 -0.00162183 0.0562211 0.0783486 0.0394912 0.0301476 0.0866224 -0.00436338 -0.00929135 0.0294308 -0.00103228 0.0744667 0.0304248 0.0580888 0.086375 0.00970728 0.103528 0.111525
internal_weight=9192.8 5303.17 3889.63 689.71 4654.72 648.456 4618.46 209.483 4555.42 417.895 365.822 277.927 177.706 3199.92 438.973 58.2628 48.2288 87.895 129.477 125.666 45.4668 80.199 40.6248 100.221 52.0735 90.0097 11.5637 415.052 379.34 25.6877 353.652 327.241 82.3815 310.842 87.5348 20.4351 3185.76 64.7976 56.8654 36.8091 20.0564 3174.6 226.215 213.368 2948.39 140.727 158.565 92.9771 44.8177 2807.66 33.6023 54.8027 132.395 2774.06 87.5037 18.2276 2686.56 135.291 84.8155 50.476 72.7698 69.2974
internal_count=29480 6302 23178 2891 3167 3135 2966 509 2582 2782 2313 1915 1100 20287 2626 232 225 398 875 871 386 485 372 815 469 753 64 2603 2308 122 2186 2074 350 1929 622 121 20149 451 416 290 126 20050 1294 1251 18756 1038 873 452 266 17718 172 378 997 17546 703 118 16843 733 408 325 327 298
is_linear=0
shrinkage=0.05


end of trees

feature_importances:
distance_from_home_km=115
client_baseline_amount=78
time_since_last_txn_min=69
hour_local=68
amount_ratio_vs_baseline=53
DE22_pos_entry_mode=47
amount_zscore_customer=37
DE18_merchant_category_code=31
DE4_amount_transaction=31
amount_tx_currency=31
amount_local=28
amount_usd=27
DE123_pos_data_code=20
day_of_week=20
DE6_amount_cardholder_billing=17
client_segment=12
DE52_pin_data_present=9
txn_count_last_24h=9
DE9_conversion_rate_billing=8
is_night=7
is_international=5
DE3_processing_code=4
DE60_pos_terminal_type=4
channel=4
DE23_card_seq_number=3
DE25_pos_condition_code=2
DE55_emv_data_present=2
card_brand=2
DE61_pos_extended_data=1

parameters:
[boosting: gbdt]
[objective: binary]
[metric: custom]
[tree_learner: serial]
[device_type: gpu]
[data_sample_strategy: bagging]
[data: ]
[valid: ]
[num_iterations: 1000]
[learning_rate: 0.05]
[num_leaves: 63]
[num_threads: 0]
[seed: 22]
[deterministic: 0]
[force_col_wise: 1]
[force_row_wise: 0]
[histogram_pool_size: -1]
[max_depth: -1]
[min_data_in_leaf: 20]
[min_sum_hessian_in_leaf: 0.001]
[bagging_fraction: 0.8]
[pos_bagging_fraction: 1]
[neg_bagging_fraction: 1]
[bagging_freq: 0]
[bagging_seed: 14808]
[bagging_by_query: 0]
[feature_fraction: 0.8]
[feature_fraction_bynode: 1]
[feature_fraction_seed: 7542]
[extra_trees: 0]
[extra_seed: 32649]
[early_stopping_round: 0]
[early_stopping_min_delta: 0]
[first_metric_only: 0]
[max_delta_step: 0]
[lambda_l1: 0.1]
[lambda_l2: 1]
[linear_lambda: 0]
[min_gain_to_split: 0]
[drop_rate: 0.1]
[max_drop: 50]
[skip_drop: 0.5]
[xgboost_dart_mode: 0]
[uniform_drop: 0]
[drop_seed: 21034]
[top_rate: 0.2]
[other_rate: 0.1]
[min_data_per_group: 100]
[max_cat_threshold: 32]
[cat_l2: 10]
[cat_smooth: 10]
[max_cat_to_onehot: 4]
[top_k: 20]
[monotone_constraints: ]
[monotone_constraints_method: basic]
[monotone_penalty: 0]
[feature_contri: ]
[forcedsplits_filename: ]
[refit_decay_rate: 0.9]
[cegb_tradeoff: 1]
[cegb_penalty_split: 0]
[cegb_penalty_feature_lazy: ]
[cegb_penalty_feature_coupled: ]
[path_smooth: 0]
[interaction_constraints: ]
[verbosity: -1]
[saved_feature_importance_type: 0]
[use_quantized_grad: 0]
[num_grad_quant_bins: 4]
[quant_train_renew_leaf: 0]
[stochastic_rounding: 1]
[linear_tree: 0]
[max_bin: 255]
[max_bin_by_feature: ]
[min_data_in_bin: 3]
[bin_construct_sample_cnt: 200000]
[data_random_seed: 110]
[is_enable_sparse: 1]
[enable_bundle: 1]
[use_missing: 1]
[zero_as_missing: 0]
[feature_pre_filter: 1]
[pre_partition: 0]
[two_round: 0]
[header: 0]
[label_column: ]
[weight_column: ]
[group_column: ]
[ignore_column: ]
[categorical_feature: ]
[forcedbins_filename: ]
[precise_float_parser: 0]
[parser_config_file: ]
[objective_seed: 6399]
[num_class: 1]
[is_unbalance: 0]
[scale_pos_weight: 10]
[sigmoid: 1]
[boost_from_average: 1]
[reg_sqrt: 0]
[alpha: 0.9]
[fair_c: 1]
[poisson_max_delta_step: 0.7]
[tweedie_variance_power: 1.5]
[lambdarank_truncation_level: 30]
[lambdarank_norm: 1]
[label_gain: ]
[lambdarank_position_bias_regularization: 0]
[eval_at: ]
[multi_error_top_k: 1]
[auc_mu_weights: ]
[num_machines: 1]
[local_listen_port: 12400]
[time_out: 120]
[machine_list_filename: ]
[machines: ]
[gpu_platform_id: 0]
[gpu_device_id: 0]
[gpu_use_dp: 0]
[num_gpu: 1]

end of parameters

pandas_categorical:[]
