tree
version=v4
num_class=1
num_tree_per_iteration=1
label_index=0
max_feature_idx=34
objective=binary sigmoid:1
feature_names=DE123_pos_data_code DE18_merchant_category_code DE22_pos_entry_mode DE23_card_seq_number DE25_pos_condition_code DE39_response_code DE3_processing_code DE4_amount_transaction DE52_pin_data_present DE55_emv_data_present DE60_pos_terminal_type DE61_pos_extended_data DE6_amount_cardholder_billing DE9_conversion_rate_billing MTI amount_local amount_tx_currency amount_usd amount_zscore_customer card_brand channel client_baseline_amount client_segment day_of_week distance_from_home_km hour_local is_international time_since_last_txn_min txn_count_last_1h txn_count_last_24h amount_ratio_vs_baseline is_night velocity_x_zscore intl_high_zscore velocity_ratio_1h_24h
feature_infos=[0:8] [4111:8398] [10:81] [1:3] [0:59] [0:96] [0:300000] [7:491181942] [0:1] [0:1] [0:3] [0:59] [50:4645012] [52631:88739642] none [0.5:46450.120000000003] [0.070000000000000007:4911819.4199999999] [0.070000000000000007:6731.8999999999996] [-1.8584696723281009:5.373749949838766] [0:2] [0:3] [250.06:2498.9200000000001] [0:8] [0:7] [0:12000] [0:23] [0:1] [-1:126570.51666666666] [0:7] [0:9] [2.9173838568635971e-05:3.4495051670365253] [0:1] [0:30.170165740969942] [0:1] [0.72727272727272729:6.193548387096774]
tree_sizes=6619 6776 6757 6752 6751 6781 6745 6756 6846

Tree=0
num_leaves=63
num_cat=0
split_feature=29 24 27 21 30 30 21 5 17 0 24 12 12 24 24 27 21 5 8 0 0 24 12 27 17 5 30 12 17 30 25 0 30 27 13 16 0 0 7 13 0 26 7 13 30 21 7 21 30 13 27 21 21 16 10 21 24 25 24 27 24 27
split_gain=3.08693e+07 4.49475e+06 2.79163e+06 1.50614e+06 987350 1.01691e+06 971176 750122 735560 571346 566054 455812 408256 372247 323190 306157 689861 295531 229042 213415 431035 199797 176596 169759 168500 132899 112777 107587 198961 174658 148319 89776.5 87702.8 81314.6 73858.8 67321 67008.5 143332 65654.9 62544.6 60951.5 73326.6 60718.1 60369.1 57133.1 56914 60908.4 71147.7 69917 64877.9 114954 56925.8 85152.1 52228.6 49997 54370 49734.1 43337.5 41617.1 43389.6 40383.7 39252.7
threshold=1.0000000180025095e-35 1468.5000000000002 621.69166666666672 887.60500000000013 0.60384216823348769 0.21954145328385008 890.35000000000002 1.0000000180025095e-35 201.19500000000002 2.5000000000000004 24.950000000000003 81107.500000000015 407000.50000000006 63.500000000000007 24.550000000000004 237.12499999999997 1591.6250000000002 1.0000000180025095e-35 1.0000000180025095e-35 3.5000000000000004 2.5000000000000004 63.500000000000007 1268522.5000000002 272.08333333333343 150.00500000000002 1.0000000180025095e-35 0.34708637344914717 961165.50000000012 365.66500000000002 0.53977779493004041 2.5000000000000004 3.5000000000000004 0.21701664524461386 2.9250000000000003 69000427.500000015 179358.22500000003 3.5000000000000004 2.5000000000000004 2448316.0000000005 68999157.500000015 3.5000000000000004 1.0000000180025095e-35 2045466.0000000002 49999682.000000007 0.57035194648907994 2485.2800000000002 139481.00000000003 1715.7700000000002 0.75274948117459528 68999867.500000015 18336.049999999999 1313.2400000000002 1264.3500000000001 1199.1450000000002 1.0000000180025095e-35 2402.3350000000005 11721.500000000002 22.500000000000004 5783.5000000000009 20598.191666666669 24.750000000000004 3765.4750000000008
decision_type=2 2 2 2 2 2 2 2 2 2 2 2 2 2 2 2 2 2 2 2 2 2 2 2 2 2 2 2 2 2 2 2 2 2 2 2 2 2 2 2 2 2 2 2 2 2 2 2 2 2 2 2 2 2 2 2 2 2 2 2 2 2
left_child=1 7 9 8 5 -5 10 14 -3 57 36 33 18 38 42 -13 21 26 39 20 22 31 -16 -18 -12 56 -7 28 -21 32 -29 -17 -30 -11 -20 -14 37 -4 -9 -10 -26 -42 -1 -33 -41 46 47 -6 53 50 51 52 -48 -49 -28 58 -8 -2 -56 61 -31 -60
right_child=2 3 6 4 45 17 25 13 12 11 24 15 35 -15 19 16 23 -19 34 27 -22 -23 -24 -25 40 -27 54 30 29 60 -32 43 -34 -35 -36 -37 -38 -39 -40 44 41 -43 -44 -45 -46 -47 49 48 -50 -51 -52 -53 -54 -55 55 -57 -58 -59 59 -61 -62 -63
leaf_value=-1.2006582859505606 -1.2196030309519397 -1.1854460459653446 -1.248737021291962 -1.2050701178667567 -1.207101960457555 -1.1217630799362071 -1.1995540161627354 -1.1903877097182334 -0.98878287813910992 -0.98653854587775847 -1.2281151461649831 -0.97854605075834111 -1.2134224568250083 -1.010276323978845 -1.2110279684530172 -0.97647112137855951 -1.0428546734546855 -0.98025082219295734 -1.2374808174196374 -1.205525906519024 -0.9764591967098859 -0.98500168320360371 -1.0720485765932997 -1.2152528073992592 -0.98023291762961884 -1.0481529936355043 -0.97646612412665901 -1.0386191759781584 -1.2372435652615166 -1.0677477688037924 -1.2384798823267393 -1.157375201469993 -1.094050727470975 -1.2046051569529364 -1.0306131763374753 -1.0537817440467596 -1.1954834481488534 -0.97647265311623832 -1.0619734066031721 -1.0382217323148919 -1.1549673375617218 -1.0110637816360497 -1.2561623923469731 -0.98192223732206563 -1.2561447616836225 -1.081528104046082 -1.256153893196184 -1.1015540516414741 -1.0225701887256151 -1.2481560107453562 -1.07246066837107 -1.2561616119957428 -1.0089660086283445 -1.25615641950178 -1.0342728204931273 -1.193162977631673 -1.0083424698930856 -1.0505172000836531 -1.1363424316072916 -1.1792075830183961 -1.1879375424217458 -1.0536849459665623
leaf_weight=2069058.4247155339 26940.494390707463 64599.462127685547 8180.3494510650635 139094.4382019043 60136.99137878418 89818.043598175049 194153.54556930065 54921.91613072902 534848.13956451416 5078.3303241729736 8090.7317123413086 7468204.4003353119 26339.004776000977 86774.416815757751 69016.571068763733 12812.17140007019 20163.165115356445 113265.72773361206 12730.831462860107 198511.48167419434 42921.967651367188 430987.30264854431 34173.954345703125 48926.880615234375 158393.80072784424 16415.957360386848 18341.573715209961 10191.493865966797 11543.390159606934 7379.1160278320312 104018.81857299805 31363.989347457886 145101.20245361328 26993.453430175781 6525.6142616271973 8812.7139892578125 52272.669969558716 11814.294891357422 12155.82373046875 15381.777206420898 11370.378051757812 39983.210620880127 50474.00927734375 5810.1971111297607 3737.9268264770508 9425.697265625 7253.0093002319336 12239.874206542969 12493.384704589844 107346.18507385254 16847.812828063965 36480.157913208008 6702.9107666015625 9864.6005859375 98393.292465209961 7676.2367858886719 3460.3087158203125 4408.8533425331116 17675.229560852051 9897.91162109375 131858.79412841797 76692.764579772949
leaf_count=38706 438 3798 229 4128 266 610 2091 736 944 46 647 3508 139 279 1346 18 40 108 198 8387 66 683 31 355 299 63 11 8 145 17 273 299 629 2024 29 18 1604 24 7 83 128 125 105 7 43 10 38 28 12 271 26 112 5 40 202 29 11 28 78 54 700 199
internal_value=-1.0457 -1.15098 -0.989901 -1.0809 -1.12516 -1.0875 -1.10405 -1.18622 -1.02503 -0.98278 -1.04445 -0.98195 -1.008 -1.07866 -1.19198 -0.981198 -1.0172 -1.04962 -0.997852 -1.16388 -1.10961 -0.995977 -1.165 -1.16494 -1.00422 -1.18485 -1.07429 -1.17691 -1.1668 -1.14082 -1.22064 -1.09061 -1.1046 -1.17007 -1.16737 -1.1734 -1.16571 -1.08786 -1.16711 -0.991959 -0.995581 -1.04292 -1.20198 -1.12995 -1.08083 -1.20229 -1.20652 -1.17424 -1.11711 -1.22403 -1.18553 -1.22331 -1.13743 -1.17055 -1.05564 -1.06255 -1.1962 -1.19582 -1.0576 -1.07961 -1.18157 -1.06917
internal_weight=1.31365e+07 4.55072e+06 8.58582e+06 1.52262e+06 849646 570855 504135 3.0281e+06 672975 8.08169e+06 290105 8.05034e+06 608376 153852 2.87425e+06 8.01827e+06 550064 431761 573224 754717 146112 480974 103191 69090 217838 214030 318495 608604 494394 295883 114210 49986.4 156645 32071.8 19256.4 35151.7 72267.3 19994.6 67077.7 553968 209747 51353.6 2.11953e+06 37174.2 19119.7 278791 269365 94734.9 34597.9 174630 67283.9 50436.1 13955.9 22104.5 228677 210335 197614 31349.3 202659 104266 139238 94368
internal_count=75581 62914 12667 11479 6227 5419 5221 51435 5252 7446 3056 6980 1454 1022 50413 4910 1402 1291 1297 11602 1443 1007 1377 395 1199 2165 1183 10159 9878 1491 281 324 774 2070 227 157 1857 253 743 1070 552 253 38811 306 126 808 798 346 80 452 181 155 43 68 573 562 2102 466 533 331 717 277
is_linear=0
shrinkage=1


Tree=1
num_leaves=63
num_cat=0
split_feature=29 24 30 21 0 30 30 34 5 15 29 24 34 15 24 24 5 0 0 8 0 15 5 13 15 15 25 30 30 30 23 15 22 7 13 7 4 16 13 30 30 21 21 30 8 30 0 15 21 21 25 24 16 15 30 21 30 23 22 24 24 24
split_gain=2.28306e+07 3.72846e+06 1.15787e+06 1.13746e+06 912782 819466 813008 753644 635298 556166 323191 835157 608580 298961 288227 284792 209534 179843 329205 170540 150182 149110 125996 103104 96748.3 142304 128784 101923 124961 85880.8 66089 72167.1 61533.5 92064.9 59312.6 59254 58450 57537.1 50162.9 49967.8 65063 55767.6 70177.9 45852.2 57455.1 45057.8 44149 51501.3 41883.4 50751.5 40113.8 39505.9 40779.2 43003.2 39450.2 37685.6 85622.8 38601.2 37336.4 47189.5 61221.2 37303.5
threshold=1.0000000180025095e-35 1468.5000000000002 0.22676573586139057 887.60500000000013 2.5000000000000004 0.60384216823348769 0.21954145328385008 0.98000000000000009 1.0000000180025095e-35 1010.5250000000002 1.5000000000000002 63.500000000000007 0.98000000000000009 4070.0050000000006 24.550000000000004 63.500000000000007 1.0000000180025095e-35 3.5000000000000004 2.5000000000000004 1.0000000180025095e-35 3.5000000000000004 12685.225000000002 1.0000000180025095e-35 49999682.000000007 9611.6550000000007 1854.1950000000004 2.5000000000000004 0.53977779493004041 0.21701664524461386 0.34708637344914717 6.5000000000000009 9171.3500000000022 6.5000000000000009 2448316.0000000005 69000427.500000015 11280145.500000002 33.500000000000007 20454.660000000003 68998694.000000015 1.3578902350006297 1.3013769455028752 2265.7250000000004 2042.3250000000003 0.31520619559982493 1.0000000180025095e-35 0.57035194648907994 2.5000000000000004 8761.6750000000011 1800.3850000000002 1715.7700000000002 22.500000000000004 11.050000000000002 6797.9000000000005 6702.0500000000011 0.35383464524688574 2402.3350000000005 1.2127127764449652 6.5000000000000009 1.5000000000000002 10.65 7.0500000000000007 5783.5000000000009
decision_type=2 2 2 2 2 2 2 2 2 2 2 2 2 2 2 2 2 2 2 2 2 2 2 2 2 2 2 2 2 2 2 2 2 2 2 2 2 2 2 2 2 2 2 2 2 2 2 2 2 2 2 2 2 2 2 2 2 2 2 2 2 2
left_child=1 8 7 9 50 6 -5 -2 14 -3 11 12 20 19 37 32 29 18 21 38 -6 -16 23 30 25 -19 -26 28 -27 -8 51 -32 33 58 -21 -15 -9 55 -11 40 41 42 48 44 -13 -40 47 -31 49 -7 -4 -22 53 -53 -30 -1 57 -57 -10 60 -60 -48
right_child=2 3 4 5 10 39 16 36 15 13 -12 43 -14 35 17 -17 -18 24 -20 34 22 -23 -24 -25 26 27 -28 -29 54 46 31 -33 -34 -35 -36 -37 -38 -39 45 -41 -42 -43 -44 -45 -46 -47 61 -49 -50 -51 -52 52 -54 -55 -56 56 -58 -59 59 -61 -62 -63
leaf_value=-0.010915183064952547 -0.013008907636486107 -0.00073704775257832887 -0.045234787938386305 -0.013502188898534174 0.18279776901015551 -0.015738800024068241 0.063352943362297562 0.0020567668190125264 -0.047028363417389106 0.17327239389758345 0.18234824519930812 0.14519533318268246 0.17170165268786969 -0.033794645227744405 -0.019269880645089974 0.15642049517452794 0.17983562919469465 -0.014911027908278999 0.18274799387217266 -0.039461635829499818 0.025369995301332618 0.10612182041206016 0.13340283422080618 0.18067138353688592 0.13371306873788796 -0.024811330045078503 -0.046346066074990117 0.009014641966332667 0.053327990029891081 -0.027725026417097953 -0.017904630630546349 0.13254793485089086 -0.060902887524667264 0.19458147229687298 0.13185201874668104 0.099544295230916069 0.17755457977242631 -0.064235803041718414 0.12818770739669119 -0.064383449954429475 0.096496401373310933 -0.064612226416592033 0.05840446017102368 0.17464581681701885 -0.026455785156354883 -0.064218298346494992 0.14552711279791578 0.16024744753985093 -0.064783353019504039 0.073280996489801298 0.096972724706794522 -0.0099754279438226956 -0.065827580818817052 0.1541484425044809 0.10366991047165493 -0.0054817485621541477 0.21607287187025462 0.068535494090932805 -0.031459979622425326 -0.027593043273676923 0.17217517329042939 0.10516747996126266
leaf_weight=1941538.0601053461 136915.19158915803 60340.713745117188 48073.435791015625 138046.26123046875 18595.084414482117 91612.190521240234 93117.544654846191 4999.4764811247587 14330.733911536634 591125.79050254822 6534027.0968160629 48025.892398834229 159174.00287818909 22099.779541015625 68276.560455322266 94987.687301635742 125711.69789886475 167839.02906799316 47720.354858398438 13099.084701538086 73917.705787658691 36319.859497070312 28452.059053421021 9607.913948059082 11007.988296508789 32214.378234863281 101373.13291931152 139668.27600097656 65878.538269042969 10237.403289794922 12777.192394256592 21184.329162597656 16731.103105306625 9013.9171142578125 8223.5450439453125 13372.740966796875 93018.444885253906 48710.984497070312 19420.777521133423 37726.243408203125 15528.232666015625 37903.75146484375 42449.217376708984 2205066.201669693 5425.3887996673584 3607.3987884521484 114579.11226654053 5656.5391845703125 32414.150604248047 19400.638763427734 5528.3341064453125 41636.225328445435 35027.136322021484 4413.2740783691406 95100.52587890625 89661.130905807018 5228.0517578125 21920.238437652588 5494.4474515467882 11109.926678806543 11241.591539621353 114470.83625030518
leaf_count=37806 5967 3721 326 4128 30 380 610 212 252 946 2377 229 185 124 1346 279 108 7955 66 212 477 31 34 7 8 463 273 713 430 60 136 18 154 2 48 33 305 105 125 80 18 102 76 1638 105 43 188 5 112 40 21 477 117 6 317 759 1 140 101 188 46 320
internal_value=0.127906 0.0370912 0.172381 0.0985935 0.175165 0.0602586 0.0930161 0.0627631 0.00446664 0.144664 0.176364 0.161683 0.0955458 0.15774 -0.000980905 0.100518 0.124722 0.0252978 0.0739225 0.165626 0.0461907 0.0242714 0.0350003 0.0208997 0.0132172 0.0226272 -0.0287078 0.0415551 0.0650799 0.104227 0.0127748 0.0759448 0.0223388 0.0495462 0.0266121 0.0164739 0.168603 -0.0105268 0.170452 -0.0109026 -0.0024712 -0.00933905 0.00193248 0.173537 0.127772 0.0980453 0.119766 0.0391786 -0.0147814 -0.000181106 -0.0305663 -0.00106707 -0.0251699 0.00575671 0.0830686 -0.00925573 0.0183266 0.00905943 0.0185456 0.0522935 0.105323 0.125357
internal_weight=1.41314e+07 4.64551e+06 9.48586e+06 1.61014e+06 9.25093e+06 878854 601819 234933 3.03537e+06 731290 9.19733e+06 2.6633e+06 404785 670949 2.87246e+06 162909 463773 765399 152317 635477 245611 104596 227016 198564 613082 500701 112381 332862 193193 338061 188956 33961.5 67921.7 51190.6 21322.6 35472.5 98017.9 2.10706e+06 614154 277034 239308 223780 185876 2.25852e+06 53451.3 23028.2 244944 15893.9 143427 111013 53601.8 154994 81076.6 46049.5 160979 2.05835e+06 116809 111581 42176.7 27846 16736 229050
internal_count=75581 62914 12667 11479 6183 6227 5419 6484 51435 5252 5836 3459 1487 1531 50413 1022 1291 11602 1443 1374 1302 1377 1272 1238 10159 9878 281 1923 1210 1183 1231 154 743 589 260 157 517 38811 1114 808 728 710 608 1972 334 168 573 65 532 420 347 1077 600 483 747 38706 900 899 587 335 147 508
is_linear=0
shrinkage=0.05


Tree=2
num_leaves=63
num_cat=0
split_feature=29 26 27 21 21 5 5 15 2 2 17 12 12 17 26 2 27 21 5 5 10 27 27 5 16 5 20 26 2 2 2 12 25 21 15 15 27 16 16 21 15 21 12 21 17 16 17 17 21 27 17 25 17 27 17 23 21 23 22 27 27 17
split_gain=1.77991e+07 3.15329e+06 1.55537e+06 931911 671937 548327 546721 422799 325339 322314 253718 230994 225657 206117 203303 171565 154670 429223 134652 154406 130885 125616 122962 113920 96882.4 95750.8 90031.3 88554.2 154429 70784.4 599580 132075 162702 70420.5 143859 66555.4 64418.3 128958 79290.4 96984 59232.1 55259 54470.1 51655 51212.6 50757.8 43410.7 105260 100951 84152.5 54570.1 50387.8 42523.8 44636.8 50667 38865.1 37820.7 57560.6 47684 91547.1 45298 49465.4
threshold=1.0000000180025095e-35 1.0000000180025095e-35 621.69166666666672 887.60500000000013 895.35000000000014 1.0000000180025095e-35 1.0000000180025095e-35 1010.5250000000002 21.500000000000004 36.500000000000007 161.78500000000003 407000.50000000006 961165.50000000012 426.12000000000006 1.0000000180025095e-35 21.500000000000004 237.12499999999997 1591.6250000000002 9.5000000000000018 56.000000000000007 1.5000000000000002 272.08333333333343 2.9250000000000003 76.500000000000014 20454.660000000003 1.0000000180025095e-35 1.0000000180025095e-35 1.0000000180025095e-35 36.500000000000007 36.500000000000007 21.500000000000004 1268522.5000000002 12.500000000000002 1398.3250000000003 5035.6100000000015 17207.420000000002 18336.049999999999 2501.0800000000004 1268.7100000000003 1336.9700000000003 8345.595000000003 2402.3350000000005 1450017.5000000002 1055.3100000000002 209.85500000000005 112801.45500000002 1350.7550000000003 467.77500000000003 1211.9950000000001 43229.583333333336 1093.0100000000002 16.500000000000004 1190.8900000000001 1258.2833333333335 1972.2700000000002 4.5000000000000009 2473.8450000000007 2.5000000000000004 1.5000000000000002 13307.208333333336 4912.3833333333341 2107.2100000000005
decision_type=2 2 2 2 2 2 2 2 2 2 2 2 2 2 2 2 2 2 2 2 2 2 2 2 2 2 2 2 2 2 2 2 2 2 2 2 2 2 2 2 2 2 2 2 2 2 2 2 2 2 2 2 2 2 2 2 2 2 2 2 2 2
left_child=1 6 8 7 9 12 24 -3 -2 15 22 20 13 -5 -11 -4 -12 27 -8 35 -9 -19 -10 -21 29 52 -15 28 -18 30 31 -1 -33 34 -28 -20 38 -38 -14 -40 -7 -35 -34 -30 -16 -13 47 -31 50 56 51 -49 -6 -54 -55 -43 57 58 59 -48 61 -60
right_child=2 3 4 5 25 40 18 11 10 14 16 45 36 26 44 -17 17 21 19 23 -22 -23 -24 -25 -26 -27 33 -29 43 46 -32 32 42 41 -36 -37 37 -39 39 -41 -42 55 -44 -45 -46 -47 49 48 -50 -51 -52 -53 53 54 -56 -57 -58 -59 60 -61 -62 -63
leaf_value=-0.018548134402274763 -0.0044499041566307893 0.0016850557554683914 -0.031729008740186297 0.0049524957800249321 0.010230657814770543 0.15507453589458448 0.16881550213725185 0.15269559264328558 0.15837784822680795 -0.0084099273001390536 0.15950137752821258 -0.032322189924990356 0.12354676255727715 0.16340390143085826 -0.036799841367672746 0.16251438875365609 0.16183727942390447 0.11494153080880487 -0.01263173995045146 0.17088426401311888 0.062396793195212366 -0.026369767226729873 -0.01521052395682481 -0.054293275607894743 -0.063848426066137748 0.11008108950676226 0.08488682351255275 0.15863651267480178 -0.012211271467976627 -0.010113486784246071 0.16644427625052194 -0.066167178944199379 0.14068862777347543 0.081985284730372199 -0.052825412597828074 0.078409061415590314 -0.064360689396788892 0.1098549524883486 0.070751175965574328 -0.056132606922656751 0.052428480816531557 -0.066801859314115128 0.04011395278058557 0.088627723987812296 0.14118584029595058 0.09002639520127495 -0.019505676661091799 -0.016692228193063145 0.02694408074589439 0.091966892983541937 -0.064997423075372901 0.028896681127272169 -0.066085241925602417 -0.065715079261909587 0.072807618527790927 0.080184017049579628 0.048386827069428588 -0.038981948692730944 0.041457033590802404 0.087783937109875643 -0.042591589731154331 -0.065010677106489362
leaf_weight=308355.54802153632 31214.263028718531 59353.603443395346 12042.690007209778 159809.27524796128 125428.85612076521 129407.52431258559 42121.296245977283 638616.8674659729 15072.192743301392 67029.261128216982 8927725.0876064301 21416.874038696289 8034.4063415527344 25231.626373291016 4439.5331175029278 202733.357421875 63527.167579650879 23185.718795776367 48592.246997386217 39707.84305216372 42822.548183441162 48877.978759765625 31564.239440917969 6541.6734003126621 59635.70751953125 18911.010700523853 42215.741752624512 451571.31325531006 22158.119972229004 1019317.702709198 59593.447814941406 20270.608001708984 32719.171783447266 288584.67668151855 34429.828857421875 34205.03271484375 17597.821166992188 26794.278289794922 17495.896926879883 108138.72010803223 15768.409942626953 11030.612869262695 22875.43603515625 29749.794288635254 45035.411285400391 14029.09375 46301.049270629883 177239.1965713501 533181.5244140625 17532.6640625 38148.39111328125 92107.352294921875 48305.802825927734 11448.791625976562 15587.567993164062 7591.5131607055664 19716.393692016602 248322.7212677002 42351.662353515625 34844.271560668945 92736.781005859375 14693.708984375
leaf_count=5918 473 3633 331 4207 1879 191 90 1015 77 2080 3406 123 9 24 273 301 87 38 683 67 342 322 2173 158 104 63 169 510 234 38642 77 48 27 871 187 26 53 22 32 299 22 79 32 126 90 33 119 1179 2526 24 177 507 145 41 18 27 35 696 92 55 260 34
internal_value=0.114881 0.0345989 0.152042 0.0898687 0.0703345 0.0550112 0.00437701 0.12993 0.15671 0.115299 0.157233 0.140548 0.0377298 0.0531049 0.0483357 0.151623 0.1578 0.134037 0.0911937 0.0658565 0.147021 0.0190965 0.0408927 0.139034 -0.000782922 0.00252755 0.0719156 0.148646 0.109562 0.000550626 0.0188804 -0.0040074 0.0550931 0.0659014 0.0230254 0.0249793 -0.0113924 0.0407928 -0.0287236 -0.0384623 0.143926 0.0765985 0.0993069 0.0455827 0.125214 0.016103 -0.0028725 0.000688559 0.013786 -0.0156964 -0.00902945 -0.0011023 -0.0076036 -0.0372937 0.0141485 -0.0068801 -0.0194797 -0.0222718 -0.00430282 0.0265656 -0.021026 0.0140324
internal_weight=1.49151e+07 4.71948e+06 1.01956e+07 1.66837e+06 550962 892130 3.05111e+06 776239 9.64465e+06 331280 9.61343e+06 716885 746954 568893 116504 214776 9.5668e+06 639070 171168 129047 681439 72063.7 46636.4 46249.5 2.87994e+06 219682 409084 567006 115435 2.82031e+06 443814 384221 75865.2 383852 76645.6 82797.3 178061 44392.1 133669 125635 145176 307207 55594.6 51907.9 49474.9 35446 2.37649e+06 1.85999e+06 840676 516499 307495 269347 200771 75342.2 27036.4 18622.1 498967 479250 230927 81145.3 149782 57045.4
internal_count=75581 62914 12667 11338 5221 6192 51576 5146 7446 3075 6973 1513 5979 5564 2443 632 4723 1317 1024 934 1357 360 2250 225 50552 2146 1357 957 447 50448 6102 6025 107 1333 356 709 415 75 340 331 213 977 59 360 363 156 44346 43031 4389 1315 1863 1686 2083 204 59 106 1291 1256 560 174 386 126
is_linear=0
shrinkage=0.05


Tree=3
num_leaves=63
num_cat=0
split_feature=29 24 27 5 1 2 30 1 2 1 4 1 2 30 27 12 30 12 5 30 17 24 30 1 1 1 8 27 24 2 1 24 17 24 25 30 0 13 13 16 23 4 16 27 30 24 25 27 30 30 23 17 27 30 24 16 30 27 30 25 24 24
split_gain=1.44313e+07 2.72809e+06 1.22762e+06 1.1542e+06 667160 533952 533070 605314 469751 380419 290136 270382 262898 206947 283197 190056 338013 234525 163178 154962 126626 124819 106385 105882 110049 100210 99564.4 99239.3 264679 96040.1 85330.9 84589.7 75257.9 65938.9 71453.2 58751.5 58449.1 55660 53684.3 53421.9 55433.4 54790.9 52752.9 52674.1 52626.1 51768.5 81551.2 62902.4 49366.8 43847.9 43330.7 41810.1 42635.8 41013 40829.5 38793.8 38404.8 125590 55713.7 65984.7 54827.9 66045.8
threshold=1.0000000180025095e-35 24.950000000000003 621.69166666666672 1.0000000180025095e-35 5955.5000000000009 36.500000000000007 0.21701664524461386 6531.0000000000009 21.500000000000004 7913.5000000000009 4.5000000000000009 8028.5000000000009 21.500000000000004 0.19368194622288012 2.9250000000000003 917135.00000000012 0.39471890011627614 421513.50000000006 1.0000000180025095e-35 0.67348476872419549 1350.7550000000003 109.50000000000001 0.27201207118821691 5932.5000000000009 4662.5000000000009 4815.0000000000009 1.0000000180025095e-35 237.12499999999997 86.500000000000014 36.500000000000007 4815.0000000000009 4473.5000000000009 1190.8900000000001 11259.500000000002 2.5000000000000004 0.44565839265631046 6.5000000000000009 87628707.500000015 49999682.000000007 13063.540000000003 6.5000000000000009 33.500000000000007 8591.970000000003 5853.7250000000013 0.69334727318897038 1395.5000000000002 18.500000000000004 2621.1833333333338 0.57035194648907994 0.30439131905107325 3.5000000000000004 1350.7550000000003 34144.575000000004 0.22676573586139057 369.50000000000006 3034.9250000000006 1.0054573122151063 43229.583333333336 0.97828992183525321 9.5000000000000018 13.250000000000002 13.050000000000002
decision_type=2 2 2 2 2 2 2 2 2 2 2 2 2 2 2 2 2 2 2 2 2 2 2 2 2 2 2 2 2 2 2 2 2 2 2 2 2 2 2 2 2 2 2 2 2 2 2 2 2 2 2 2 2 2 2 2 2 2 2 2 2 2
left_child=1 56 12 4 15 8 -6 22 -4 10 -9 -11 -2 14 -14 16 23 25 31 45 53 -17 -8 24 -3 48 -27 -15 29 -29 55 -7 35 34 -23 -33 -25 39 -31 40 49 -41 44 -13 -42 46 -19 -47 -18 -12 -43 52 -21 -5 -20 -30 58 60 -1 -60 61 -58
right_child=2 3 5 20 6 18 7 9 -10 11 37 43 13 27 -16 21 17 19 54 51 -22 33 -24 36 -26 26 -28 28 30 38 -32 32 -34 -35 -36 -37 -38 -39 -40 41 42 50 -44 -45 -46 47 -48 -49 -50 -51 -52 -53 -54 -55 -56 -57 57 -59 59 -61 -62 -63
leaf_value=-0.0064800385670515208 -0.0042373788751272554 0.081453529000677566 -0.051690736805016894 0.04718174628239688 -0.013118728844124714 -0.0080466844826631179 0.0086072629666540078 0.17320820662036843 0.1461750285792193 0.15971423882077529 0.079353561076582854 0.056890787649396868 0.14445971232301577 0.14332807003304737 -0.018345310222654246 0.11964097524549366 0.10521200627614613 -0.067133727486015829 0.0087969729515673615 -0.038822274477717675 0.014574184574189204 0.072963451356583886 0.15025583480555926 0.041662672215118872 -0.013116858137932336 0.12972973270212823 0.034492333626579073 0.14537308297484167 0.10685139676062537 -0.0018908825337127012 0.13971814552109554 0.01883151481911188 -0.066889769724865322 0.071140469353026967 -0.037684957645856526 0.12313396760197166 0.18397256425777497 0.084694020027230033 0.141585128758169 0.11477813474315585 0.069638988033186619 0.047238790861765759 0.1506049114996674 -0.06687524585026236 -0.064913822518958872 -0.06905549321518345 0.11093615234236942 0.095650037282617104 -0.003348879401984842 -0.025983523160220456 -0.066565226599011373 0.075530836327141956 0.098636846292208619 0.14361385090025353 0.14212329555771905 -0.011720887549764216 -0.014173592880242223 0.12441618040698602 -0.064836562197607528 0.086396141859098205 -0.044492607721403871 0.14795517603659439
leaf_weight=1667069.502939444 31139.498029030859 33793.830751031637 34770.386707305908 11297.386373907328 128833.22162914276 207044.31737560034 13780.940216064453 31016.250375747681 218440.35205078125 118386.30883789062 10552.80297088623 19044.357706069946 60447.8181848526 9379038.0841550827 47858.811889648438 16543.940872192383 15726.608772277832 15854.385040283203 7028.3867388665676 83406.264984130859 20567.289215087891 15709.400680541992 347802.38424682617 21343.173314094543 342794.29049873352 166600.29657745361 32855.955718994141 17433.69847202301 14300.598327636719 60003.567833900452 549814.66325187683 23032.709678843617 10343.463623046875 17460.359619140625 204698.04574584961 32625.832279205322 10899.750295639038 24304.069705963135 7313.4604263305664 19964.109563827515 17736.566947937012 28098.513626098633 9331.61962890625 15668.834676742554 12309.646408081055 6223.7810287475586 10814.643287658691 84365.872039794922 31337.069961547852 154580.33018112183 11907.969497680664 10590.910949707031 6049.3872985839844 461333.29696655273 31384.144319787621 13325.232025146484 256093.54667663574 14410.75048828125 9310.9164161682129 31993.673427581787 209558.75662994385 6438.4715957641602
leaf_count=38384 473 607 585 289 5615 3626 331 20 304 98 71 90 150 3290 2292 14 68 91 69 430 33 19 426 186 10734 408 304 20 20 473 692 496 30 23 535 61 12 58 6 33 77 75 10 142 66 35 25 171 234 845 55 19 15 474 50 30 838 21 42 84 800 7
internal_value=0.104692 0.0324003 0.136841 0.0672219 0.0509889 0.0650804 0.0815425 0.0961569 0.119004 0.0589201 0.0278913 0.123734 0.140821 0.141266 0.0725195 0.0248744 0.0359606 0.0651758 0.0212408 0.0273071 0.136024 -0.0131523 0.144857 0.00281536 -0.0046302 0.0985565 0.114042 0.142007 0.123299 0.0407861 0.13541 0.00766629 0.0569564 -0.0223887 -0.0297982 0.0799726 0.089775 0.0122834 0.0136984 0.00562901 -0.00653968 0.047126 0.0467671 0.00102484 0.0145135 0.0663079 0.00507723 0.0843336 0.0329287 -0.0192515 0.013364 -0.0184037 -0.0295256 0.141309 0.117729 0.0496599 -0.0085882 -0.0209821 -0.00505874 0.0523043 -0.0254207 -0.0101969
internal_weight=1.55238e+07 4.77846e+06 1.07453e+07 2.58358e+06 2.09039e+06 564670 963318 834485 253211 472901 319802 153100 1.01807e+07 1.01495e+07 108307 1.12707e+06 872656 463825 311459 217305 493198 254412 361583 408831 376588 246520 199456 1.00412e+07 662191 84750.7 577440 273046 66002 237868 220407 55658.5 32242.9 288786 67317 264482 204511 59970.6 39377.8 34713.2 30046.2 117259 26669 90589.7 47063.7 165133 40006.5 100047 89455.7 472631 38412.5 27625.8 2.19488e+06 486502 1.70837e+06 41304.6 472091 262532
internal_count=75581 62914 12667 22738 21942 5221 8012 2397 889 1640 1310 330 7446 6973 2442 13930 13339 1800 4332 786 796 591 757 11539 11341 1014 712 4531 1241 499 742 4213 587 577 554 557 198 1290 479 1232 1069 163 153 232 143 322 116 206 302 916 130 464 445 763 119 50 40176 1666 38510 126 1645 845
is_linear=0
shrinkage=0.05


Tree=4
num_leaves=63
num_cat=0
split_feature=29 24 27 5 1 24 30 1 17 1 9 1 2 30 27 12 30 17 18 30 24 17 18 1 1 24 17 30 7 10 27 15 1 18 30 18 25 30 17 18 7 17 27 7 17 30 18 0 1 8 18 27 25 27 30 30 2 12 7 7 24 6
split_gain=1.20463e+07 2.38694e+06 1.00438e+06 965887 570237 462630 454107 498733 341201 319493 240255 221204 219000 171345 309360 168526 293925 202337 181490 162588 108722 104900 100067 91685.8 96392.3 91016.1 90276.2 87304.8 84223.9 87420.1 72084.8 376252 63621.4 62928.9 113562 70442 89662.7 82830.7 59265.3 54172.4 52569 50270.6 47861.5 46466 46357.4 52462 55715.3 45997.2 44768.5 69330.6 46821.3 43617.8 42430 46379.1 42426.3 40041.4 38891.3 37824.5 35519.4 54085.3 35515.2 49260.4
threshold=1.0000000180025095e-35 24.950000000000003 621.69166666666672 1.0000000180025095e-35 5955.5000000000009 24.750000000000004 0.21701664524461386 6531.0000000000009 1012.5450000000002 7913.5000000000009 1.0000000180025095e-35 8028.5000000000009 21.500000000000004 0.22414291788959725 21.891666666666669 917135.00000000012 0.39471890011627614 808.90000000000009 0.45296847313360983 0.26781618363600806 109.50000000000001 1350.7550000000003 0.40207277215418025 5932.5000000000009 4662.5000000000009 2517.5000000000005 1299.9250000000004 0.27201207118821691 139481.00000000003 1.5000000000000002 272.08333333333343 4367.7500000000009 6005.0000000000009 2.1808405715514918 1.3578902350006297 2.3315944496548817 2.5000000000000004 1.3013769455028752 1972.2700000000002 -0.021117411012305597 351786.00000000006 1350.7550000000003 5853.7250000000013 314206.00000000006 1241.345 0.63853935316773625 3.7929699307965561 6.5000000000000009 4815.0000000000009 1.0000000180025095e-35 0.50533325302878873 24453.833333333332 4.5000000000000009 34144.575000000004 0.95247181778520273 0.21701664524461386 36.500000000000007 1129009.0000000002 917135.00000000012 124281.50000000001 1.2500000000000002 1.0000000180025095e-35
decision_type=2 2 2 2 2 2 2 2 2 2 2 2 2 2 2 2 2 2 2 2 2 2 2 2 2 2 2 2 2 2 2 2 2 2 2 2 2 2 2 2 2 2 2 2 2 2 2 2 2 2 2 2 2 2 2 2 2 2 2 2 2 2
left_child=1 -1 12 4 15 32 -6 27 19 10 22 -11 -2 14 -14 16 23 25 -19 56 -17 -5 -9 24 39 43 -24 -8 -28 41 -15 -32 40 -22 35 -35 -37 -38 60 55 -4 -30 -13 -18 52 -46 -47 -25 54 -50 -51 -43 -20 -54 -27 -3 -7 58 59 -33 -34 -62
right_child=2 3 5 21 6 8 7 9 -10 11 -12 42 13 30 -16 20 17 18 44 -21 33 -23 26 47 -26 48 28 -29 29 -31 31 57 38 34 -36 36 37 -39 -40 -41 -42 51 -44 -45 45 46 -48 -49 49 50 -52 -53 53 -55 -56 -57 -58 -59 -60 -61 61 -63
leaf_value=-0.008205025432568739 -0.0040354358086385654 -0.053731524804610735 0.0022387006243967324 0.12865204551489348 -0.012554569081122577 0.092950530200592935 0.008141582357521094 0.072738970050285637 -0.051707291373971835 0.14365391674740899 0.15365615522273851 0.052621583035302323 0.12862704168439207 0.13070096507052839 -0.015038841695822312 0.10798983018507556 0.065080687579163563 0.10516559647646273 0.059654534865426857 0.11923104335695139 -0.053974417043435176 0.013754250396704429 -0.031480036684409227 0.038795384187392742 -0.012548083033204342 0.076564279983918626 0.11471227528346709 0.13608827289116485 0.087146908403564607 0.085565990336755771 0.12642997449354942 0.080292393498563819 0.15214974052217675 0.11284333206125199 -0.063589003146339182 0.14586163755361722 -0.046962961368434232 0.082521598239848004 0.14603710535161088 -0.018998986458494294 -0.064727862794967103 -0.063485217330557578 -0.065792692471588463 -0.017627424062814839 0.11333331328929482 -0.065036295533727792 0.086829794497385898 0.16148310322479292 0.12722585179502433 0.10496626752590786 -0.034764746038899147 0.05846019282247588 -0.05297027063860326 0.086488345355894558 -0.073014498784399764 0.1401156328782473 -0.0097033187835287443 -0.067175679715531803 0.081281675722448432 -0.068663051646370349 -0.038980566314594282 0.066197524669683983
leaf_weight=2184409.8768890351 31068.168529257178 3044.8362821340561 67391.517126083374 492601.90296140313 127915.37942790985 12745.640171051025 13839.420883178711 54341.415618896484 37844.061828613281 124856.2236328125 33153.432312011719 19546.420972824097 106965.03804588318 9834630.1453609467 57674.818359375 17388.886642456055 63518.19075012207 45320.014465332031 11685.095397949219 310065.03433227539 91481.131332397461 20700.237579345703 125677.21060180664 21763.351011276245 340476.26091313362 29806.039257049561 23399.460464477539 364340.61885070801 8636.8655395507812 25505.207977294922 495964.59600830078 9508.2805633544922 4258.2090673446655 20491.090911865234 48014.551666259766 10211.908081054688 47903.039764404297 16640.351654052734 10163.134887695312 10738.611471861601 51854.542617797852 43690.656173706055 15143.648363113403 23177.614135742188 13853.990371704102 15916.146530151367 9730.951171875 11771.726288795471 148405.25400161743 12074.454248428345 11905.416875839233 8810.8763122558594 76524.930603027344 6464.4884033203125 5636.3281555175781 21268.544558525085 33410.186763763428 18019.46728515625 14927.154205322266 16967.153732299805 29011.41903424263 18062.540303945541
leaf_count=40176 473 455 2147 763 5615 181 331 244 118 98 20 90 301 3255 2440 14 465 65 39 637 288 33 814 186 10734 116 28 426 15 30 801 18 28 24 108 5 135 17 7 96 231 143 142 158 16 68 16 12 223 43 123 16 407 16 45 56 1230 42 25 91 287 355
internal_value=0.0964914 0.03045 0.125024 0.0624661 0.0475913 0.0606548 0.0753491 0.0884095 0.0910336 0.0547272 0.026149 0.112621 0.128519 0.128909 0.0782998 0.0234121 0.033706 0.0605028 0.0186578 0.106198 -0.0126418 0.124019 0.0115747 0.00265388 -0.00442002 0.0860049 -0.00252596 0.131406 0.0305416 0.00780893 0.129711 0.112185 -0.00557917 -0.0215782 -0.000890874 0.0307161 0.00820301 -0.0135789 0.0357294 0.0745296 -0.0268822 -0.0246299 0.000928309 0.0429692 -0.0105622 0.0349365 -0.00741435 0.0818658 0.103957 0.11448 0.0355945 -0.0430194 -0.0295459 -0.0421061 0.0527755 0.115838 0.0186452 -0.00670967 0.0196076 -0.0151666 0.0138873 0.0013773
internal_weight=1.59823e+07 4.82178e+06 1.11605e+07 2.63737e+06 2.12407e+06 574806 988857 860941 394065 482761 323215 159546 1.05857e+07 1.05547e+07 164640 1.13521e+06 883082 474019 179496 356221 252131 513302 290062 409063 375528 294523 235720 378180 110043 86643.6 1.039e+07 555387 180741 234742 143261 95246.4 74755.3 64543.4 61495.3 35052 119246 61138.4 34690.1 86695.8 134176 39501.1 25647.1 33535.1 207827 172385 23979.9 52501.5 94674.5 82989.4 35442.4 24313.4 46155.8 59422.1 41402.6 26475.4 51332.2 47074
internal_count=75581 62914 12667 22738 21942 5221 8012 2397 2166 1640 1310 330 7446 6973 2741 13930 13339 1800 627 2048 591 796 1290 11539 11341 1173 1046 757 232 204 4232 977 3055 577 289 181 157 152 677 607 2378 174 232 623 562 100 84 198 550 389 166 159 462 423 161 511 1411 176 134 109 670 642
is_linear=0
shrinkage=0.05


Tree=5
num_leaves=63
num_cat=0
split_feature=29 24 27 30 15 21 2 24 2 18 24 2 15 15 18 12 30 27 21 27 24 7 3 15 30 30 15 24 30 24 33 27 30 21 24 24 2 2 30 18 24 24 15 15 27 18 30 2 0 30 27 7 24 24 25 7 25 21 21 23 27 11
split_gain=1.02806e+07 2.10582e+06 849981 745325 836343 437381 293282 205328 230101 233723 196849 186753 147162 115796 352221 114740 104907 87356.1 274128 84820 83090.8 78665.2 77609.9 65391.3 62773.9 84204.4 61820.1 90859.1 62219.9 58429.6 55174.1 94144.8 64601.3 48809.4 47185.5 45256.7 43502 69662.5 43314.2 42328.9 49777.6 65056.5 41991.8 41541.3 40485.6 40464.6 39851.6 54210.9 38443.5 35608.1 109758 52958.1 52055.1 60672.7 50446.6 39634.2 39042.3 39619.5 45759.9 67250 68941.7 80094.6
threshold=1.0000000180025095e-35 24.950000000000003 621.69166666666672 0.21701664524461386 9171.3500000000022 895.35000000000014 21.500000000000004 1395.5000000000002 36.500000000000007 0.71954868392401028 24.950000000000003 21.500000000000004 834.1350000000001 4215.1350000000011 0.86337407242339304 169575.00000000003 0.34708637344914717 237.12499999999997 1591.6250000000002 272.08333333333343 831.50000000000011 124281.50000000001 1.5000000000000002 748.74500000000012 0.67348476872419549 1.7655445145073336 8345.595000000003 23.750000000000004 0.30439131905107325 63.500000000000007 1.0000000180025095e-35 18336.049999999999 0.81253396197171968 1313.2400000000002 11.250000000000002 6.0500000000000007 36.500000000000007 21.500000000000004 0.50952584544938073 1.5498442039710287 538.50000000000011 276.50000000000006 8761.6750000000011 883.37000000000012 2.9250000000000003 1.2061831080339733 0.57035194648907994 71.500000000000014 3.5000000000000004 1.0054573122151063 43229.583333333336 1559323.5000000002 13.250000000000002 11.850000000000003 16.500000000000004 477989.00000000006 9.5000000000000018 2168.9200000000005 2145.9050000000002 1.5000000000000002 6305.8416666666681 4.5000000000000009
decision_type=2 2 2 2 2 2 2 2 2 2 2 2 2 2 2 2 2 2 2 2 2 2 2 2 2 2 2 2 2 2 2 2 2 2 2 2 2 2 2 2 2 2 2 2 2 2 2 2 2 2 2 2 2 2 2 2 2 2 2 2 2 2
left_child=1 49 11 -3 6 10 42 8 -8 15 36 -2 44 16 46 -10 43 -14 29 -20 22 -22 -6 -12 38 -26 27 -7 -29 -19 -23 32 -32 -34 35 -28 37 -4 -16 -24 41 -41 -5 -9 -13 -30 -15 -48 -46 51 52 -1 53 56 -55 -54 -51 58 59 -58 -61 -62
right_child=2 3 5 4 20 26 7 13 9 -11 23 12 17 14 24 -17 -18 18 19 -21 21 30 39 -25 25 -27 34 28 45 -31 31 -33 33 -35 -36 -37 -38 -39 -40 40 -42 -43 -44 -45 48 -47 47 -49 -50 50 -52 -53 55 54 -56 -57 57 -59 -60 60 61 -63
leaf_value=-0.0053620997217270344 -0.0038429138842604191 -0.012005545172060393 -0.054141021744227538 -0.019014158636127806 -0.039018090839687131 -0.030419487889169278 0.12553366799845284 -0.03595649823749577 -0.013016246275247223 -0.012111263717388453 -0.034932533141833276 0.11690566798033034 0.12059516351647173 0.10411521729311057 -0.070906106421915749 0.084270732225572173 0.11208874678533021 0.065667264344863391 0.085538000970870068 -0.025814326608686752 0.084253284892082558 -0.047407209560797241 -0.013290390261214584 0.11334351075214466 -0.064206916347511231 0.10875976035757369 -0.064335258130900255 -0.0061616751685445309 0.095985523044845492 0.11799536065741721 0.095247445142401688 0.071441652505681935 0.035542058522454407 -0.06264424171845151 -0.064534654766346788 0.07336197524340797 -0.0073188786374938216 0.13119989146760624 0.056963379599394674 0.08386442305529436 0.10868875372604317 -0.06345877478986206 0.078259146288558887 0.074095843785622617 0.1496461613916433 -0.03047380137875165 0.10651682445425514 -0.067320201766132293 -0.02709906230637657 -0.053795854314536477 0.11237428028145671 0.079504937107468171 0.0021123987721883668 -0.014313140165649683 0.1066683226488367 -0.053911741282959794 -0.064294019613351142 -0.063693172696828268 0.13291405161602524 0.055178334766551998 0.1200572459498577 -0.057829161098050919
leaf_weight=1677519.0420951135 31000.133226931095 329502.328125 7310.6159975528717 79754.533905029297 27425.369918823242 55431.094690322876 97669.954975128174 9088.4137344360352 35688.573333740234 138861.77825927734 7638.3868045806885 8579.6037940979004 10096934.786727905 303944.90902709961 7869.1100158691406 200975.43718338013 813117.25088500977 58767.508260726929 26089.583374023438 49637.4609375 18254.920013427734 119942.42947387695 17383.406341552734 279475.78758239746 49960.878936767578 8188.85498046875 9768.7702026367188 31442.038198471069 52494.630111694336 578769.30381202698 9598.9258422851562 33685.409088134766 15964.520767211914 61087.208969116211 49001.394134521484 15330.457000732422 51433.470296621323 16536.221343994141 41785.604248046875 18956.933242797852 42494.444961547852 12390.706771850586 12886.5009765625 151538.4783782959 3484.0726389884949 7191.9319763183594 9894.9878311157227 8200.8202438354492 26246.778007984161 59060.711284637451 15189.658569335938 18584.730033874512 39072.225280761719 15704.731098175049 19089.354297637939 164383.91919708252 33017.966262817383 25581.281188964844 6557.2347412109375 55653.617916107178 7605.6706733703613 37639.666599273682
leaf_count=38467 473 14896 231 693 71 1039 109 370 974 1009 638 52 3486 389 44 680 1355 314 40 353 24 366 46 568 290 10 28 747 118 676 16 38 32 163 157 22 1613 25 110 22 38 34 20 879 11 35 15 45 2041 222 21 43 266 53 23 534 144 52 6 158 20 167
internal_value=0.0897307 0.0287147 0.115552 0.0584121 0.0682999 0.0567371 0.0813631 0.0856499 0.0571666 0.0393849 0.0905292 0.118704 0.119054 0.0952525 0.0736366 0.0696 0.104794 0.119401 0.102489 0.0125495 9.19507e-05 -0.0158062 0.034733 0.109399 -0.00459067 -0.0398476 0.00123945 0.0200576 0.0507615 0.113172 -0.0234084 0.000511971 -0.0270624 -0.0423005 -0.0359796 0.0197688 0.018562 0.0743807 0.0366979 0.0569052 0.0734302 0.025632 -0.00548255 0.0678688 0.0212302 0.0807475 0.0998235 0.0277362 -0.00638229 -0.00783066 -0.0198757 -0.00443214 -0.0242112 -0.00938381 0.0520629 -0.0431527 -0.0188813 -0.00646295 0.00395939 -0.00235577 0.0179132 -0.0279246
internal_weight=1.63133e+07 4.85077e+06 1.14626e+07 2.67611e+06 2.34661e+06 583055 1.96943e+06 1.87679e+06 473196 375526 362394 1.08795e+07 1.08485e+07 1.40359e+06 429845 236664 973744 1.08102e+07 713264 75727 377184 258533 118651 287114 107804 58149.7 220660 146560 91128.6 637537 240278 120336 86650.7 77051.7 74100.6 25099.2 75280.3 23846.8 49654.7 91225.5 73842.1 31347.6 92641 160627 38310.5 59686.6 322041 18095.8 29730.9 2.17466e+06 478556 1.6961e+06 463366 259910 34794.1 203456 225116 166055 140474 133917 100899 45245.3
internal_count=75581 62914 12667 22738 7842 5221 6992 6279 2772 2663 3075 7446 6973 3507 903 1654 2604 4869 1383 393 850 639 211 1206 454 300 2146 1939 900 990 615 249 211 195 207 50 1869 256 154 140 94 56 713 1249 2104 153 449 60 2052 40176 1666 38510 1645 845 76 800 769 547 495 489 345 187
is_linear=0
shrinkage=0.05


Tree=6
num_leaves=63
num_cat=0
split_feature=29 24 5 27 1 21 30 1 1 21 10 2 1 2 15 1 30 27 24 2 18 1 0 30 12 9 1 15 1 18 7 24 7 25 15 27 21 7 24 18 30 24 30 18 23 15 24 27 16 19 18 21 0 21 24 30 3 30 27 24 5 24
split_gain=8.94536e+06 1.86705e+06 745987 732932 456083 383493 346962 376286 248087 196979 188801 172673 171907 162242 137435 153892 130787 246051 119127 92437.1 76536 73475 148418 68862.3 64872.1 64635.4 64522.4 64126.6 85849.4 154319 77282.4 70860.4 62369.1 60349.5 57026.7 53953.8 162293 80396.4 52480.2 52135.2 51430.3 50836.5 48541.5 48180 46155.4 43145.3 43580.6 42756.3 41342.5 40956.1 39825 71467.9 38694.4 40418.9 35021.8 47625.4 35465.8 33026.3 96415.5 48987.7 57381.9 56620
threshold=1.0000000180025095e-35 24.950000000000003 1.0000000180025095e-35 621.69166666666672 5955.5000000000009 890.35000000000002 0.21456933197277525 6531.0000000000009 7913.5000000000009 819.83000000000015 2.5000000000000004 36.500000000000007 8028.5000000000009 21.500000000000004 1477.9200000000003 4815.0000000000009 0.22414291788959725 2.9250000000000003 2084.5000000000005 21.500000000000004 0.40207277215418025 5932.5000000000009 6.5000000000000009 0.27201207118821691 917135.00000000012 1.0000000180025095e-35 6005.0000000000009 13564.475 5004.5000000000009 0.36162153709927919 679790.00000000012 11573.500000000002 1306354.0000000002 2.5000000000000004 8345.595000000003 237.12499999999997 1591.6250000000002 314206.00000000006 24.750000000000004 2.2581762126225837 0.22676573586139057 63.500000000000007 0.30439131905107325 1.3442005245487969 6.5000000000000009 5035.6100000000015 10617.500000000002 5853.7250000000013 179358.22500000003 1.5000000000000002 2.9774993963739287 1715.7700000000002 6.5000000000000009 2211.2950000000005 63.500000000000007 0.81253396197171968 2.5000000000000004 1.0054573122151063 43229.583333333336 13.250000000000002 32.500000000000007 13.050000000000002
decision_type=2 2 2 2 2 2 2 2 2 2 2 2 2 2 2 2 2 2 2 2 2 2 2 2 2 2 2 2 2 2 2 2 2 2 2 2 2 2 2 2 2 2 2 2 2 2 2 2 2 2 2 2 2 2 2 2 2 2 2 2 2 2
left_child=1 57 4 13 9 11 -6 23 10 14 20 19 -10 -2 -3 39 17 -15 -13 -5 -9 27 33 -8 -4 -17 34 28 29 40 45 -29 44 -23 38 -18 41 -38 -7 -16 -11 -37 -40 -34 50 -31 -47 -14 -41 -46 -22 -52 -45 -54 -35 56 -56 -1 59 60 61 -59
right_child=3 2 24 5 6 26 7 8 12 21 -12 18 47 16 15 25 35 -19 -20 -21 32 22 -24 -25 -26 -27 -28 31 -30 30 -32 -33 43 54 -36 36 37 -39 42 48 -42 -43 -44 52 49 46 -48 -49 -50 -51 51 -53 53 -55 55 -57 -58 58 -60 -61 -62 -63
leaf_value=-0.0042221830807339126 -0.0036576337545512032 0.0049986720644751856 0.1109235712439491 -0.029576176901763031 -0.011852808102228225 -0.042028568052174829 0.0079268233956236497 0.061099488204127188 0.12353983557523292 -0.010055848423669573 0.13143918829357989 -0.0087023968275668113 0.046284401884307602 0.11362634236900215 0.05399779487882933 0.10756668068909672 0.11261663053098202 -0.010947622093934286 0.090197404226572894 0.11585501039093478 -0.041321355394786409 0.10383402006799698 0.13332988995998765 0.11724411027641474 0.017965274302797381 0.0079563764689453541 0.036772974024331204 -0.050050574348253996 -0.013953464775386414 0.039654364312440515 0.034495636867277517 0.08843512377756696 -0.06859654849628509 0.11528013637791677 -0.063880274235359677 0.060898294950951448 0.10029519453129727 -0.01801063336555837 -0.021777127260902314 -0.056269549436861299 0.10697713926064988 0.11025883377638712 0.073878580859010029 0.1161382452895806 0.077055591202198209 -0.06457802519302433 0.033499849633631444 -0.065420809893872001 0.10793899148046182 -0.032071436192596524 -0.065648906328712828 0.12354024733684404 0.063578634097933337 -0.062832534619908773 0.032194693171229923 -0.062574951076981425 -0.041625906345205348 -0.021599482816811143 0.10185754372234089 -0.042069246038625788 0.05946052284157749 0.12040173261830685
leaf_weight=1691942.8661266491 30935.727263681591 109315.66034375131 517821.87509003282 11463.730050086975 125288.61650562286 37432.709561109543 14967.896072387695 57678.677612304688 132363.17700195312 11111.003430351615 35584.796798706055 66846.788815975189 20272.848526000977 107014.61776351929 31324.143451690674 156264.48801422119 10168467.420238495 62956.3271484375 55916.498406887054 232859.77392578125 122034.21342086792 16135.205990791321 31726.188583374023 383933.84941101074 19474.557342529297 18180.516040802002 81242.221536159515 96031.383514404297 268633.1102104187 18050.204040527344 94033.417739868164 10219.160095214844 8407.9643745422363 6319.4328727722168 47344.796752929688 57246.310373306274 21792.112487792969 42103.992156982422 22439.737695455551 29905.474334716797 60502.89697265625 587876.88558006287 32427.469329833984 19288.371612548828 21292.193851470947 61224.451927185059 13896.559104919434 14833.161727905273 4395.5927429199219 14420.121353149414 9407.525691986084 10632.718902587891 20907.53303527832 9064.0591278076172 62474.733825683594 27703.767364501953 21998.467565536499 223650.11019134521 15900.361572265625 198424.15716552734 27340.763221740723 7246.2933959960938
leaf_count=38510 473 5292 767 330 5589 855 356 245 98 951 20 2070 90 208 161 258 3137 2533 356 300 697 26 23 426 29 155 497 217 5348 88 239 7 53 7 146 294 31 127 584 203 118 643 83 16 60 296 36 142 5 72 67 8 48 25 263 105 132 799 21 800 39 7
internal_value=0.0840365 0.0271305 0.0548086 0.107799 0.0417476 0.0533998 0.0660777 0.0769859 0.0479183 0.0201494 0.0226831 0.0847233 0.0974511 0.110686 0.051471 0.072632 0.111007 0.067485 0.036345 0.109031 0.00948024 0.00647127 0.0360444 0.113142 0.107554 0.0971855 0.00134399 -0.00129224 0.0058465 0.0263973 0.00251776 -0.0367303 -0.00316497 0.0131181 -0.0192679 0.111687 0.0983504 0.0223391 0.00361621 0.00736335 0.0888193 0.105879 0.0347573 0.0420184 -0.0178211 -0.029756 -0.0464344 -0.000914203 -0.035224 0.0329919 -0.0305938 0.0347298 0.0608999 0.0253482 0.000764829 -0.00568726 0.01297 -0.00748625 -0.0191727 -0.0233871 -0.00903196 -0.0171425
internal_weight=1.6538e+07 4.87162e+06 2.70712e+06 1.16664e+07 2.16982e+06 587974 1.02038e+06 895089 496187 1.14945e+06 328718 367087 167469 1.10784e+07 349386 240070 1.10475e+07 169971 122763 244324 293133 800060 166358 398902 537296 174445 220887 633702 527452 258819 187205 106251 235455 134632 139645 1.08775e+07 709019 63896.1 92299.9 65625.2 71613.9 645123 54867.2 57667.9 177787 93171.2 75121 35106 34301.1 35712.3 142074 20040.2 49260 29971.6 118496 112177 84473.2 2.1645e+06 472562 456661 258237 230896
internal_count=75581 62914 22738 12667 21942 5221 8012 2423 1641 13930 1311 3056 330 7446 6074 782 6973 2741 2426 630 1291 7856 556 782 796 413 2165 7300 7076 1728 659 224 1046 533 1668 4232 1095 158 1522 369 1069 937 667 142 904 420 332 232 208 132 772 75 89 73 507 500 395 40176 1666 1645 845 806
is_linear=0
shrinkage=0.05


Tree=7
num_leaves=63
num_cat=0
split_feature=29 24 30 12 0 30 28 1 1 1 18 1 29 24 28 1 24 10 30 17 18 7 24 1 1 17 7 0 33 30 22 16 18 15 25 0 22 13 16 12 1 8 18 0 25 15 0 24 13 24 25 24 4 30 30 25 22 7 18 23 25 25
split_gain=7.89317e+06 1.66687e+06 585110 639451 416802 352036 309953 278505 194206 229151 223098 135652 117278 314115 241133 132082 110758 108186 99245.5 102874 154408 86899.6 70885.5 66196.7 97591.5 64941.6 64565.9 54321.9 51134.7 66275.5 54707.7 66544.9 48680.7 47618.9 46852.7 71538.7 103139 44046.7 43625.1 42163.1 41405.9 66308.8 51293 39505.3 38946.2 38281.4 53809.9 37907.3 49494.4 34680.5 31656.4 31706.5 31022.2 30515.5 48040.9 56929.6 44047.4 72224.1 49768.3 54008.2 87994.4 70110.6
threshold=1.0000000180025095e-35 24.950000000000003 0.21701664524461386 917135.00000000012 2.5000000000000004 0.22676573586139057 1.0000000180025095e-35 5955.5000000000009 6531.0000000000009 7913.5000000000009 0.56117960022162061 8028.5000000000009 1.5000000000000002 24.750000000000004 1.0000000180025095e-35 5968.0000000000009 1395.5000000000002 2.5000000000000004 0.37787216344254854 808.90000000000009 0.50533325302878873 351786.00000000006 831.50000000000011 5916.5000000000009 5252.0000000000009 1241.345 124281.50000000001 3.5000000000000004 1.0000000180025095e-35 1.3578902350006297 6.5000000000000009 580032.02500000002 0.65200828477742745 994.99000000000012 2.5000000000000004 3.5000000000000004 1.5000000000000002 62630.000000000007 8093.9400000000014 796926.00000000012 4815.0000000000009 1.0000000180025095e-35 0.90391060227514475 3.5000000000000004 4.5000000000000009 2854.0750000000003 3.5000000000000004 10194.500000000002 69000133.500000015 276.50000000000006 22.500000000000004 276.50000000000006 4.5000000000000009 1.0054573122151063 0.97828992183525321 9.5000000000000018 3.5000000000000004 257528.50000000003 2.3315944496548817 2.5000000000000004 14.500000000000002 19.500000000000004
decision_type=2 2 2 2 2 2 2 2 2 2 2 2 2 2 2 2 2 2 2 2 2 2 2 2 2 2 2 2 2 2 2 2 2 2 2 2 2 2 2 2 2 2 2 2 2 2 2 2 2 2 2 2 2 2 2 2 2 2 2 2 2 2
left_child=1 53 -3 7 50 6 27 16 33 10 52 -11 13 14 15 21 39 37 23 40 -21 45 34 24 -18 44 -24 -6 -28 30 31 -30 -17 43 -5 49 -37 -12 -27 -4 42 -42 -20 -9 -22 46 -7 48 -32 -36 -2 -52 -10 54 -1 -56 57 -55 -58 -60 -61 -62
right_child=4 2 3 22 5 12 -8 8 9 11 17 -13 -14 -15 -16 32 18 -19 19 20 25 -23 26 -25 -26 38 28 -29 29 -31 47 -33 -34 -35 35 36 -38 -39 -40 -41 41 -43 -44 -45 -46 -47 -48 -49 -50 -51 51 -53 -54 56 55 -57 58 -59 59 60 61 -63
leaf_value=-0.005373678251574315 -0.038569073695649811 -0.011168172630529773 0.028124147455777116 0.11406049929251101 0.1313792857369305 0.11278641272119523 0.099729952212733161 0.10883728467253893 0.11959699479883078 0.11296088207352145 0.10057825583789015 0.0037223220271937912 0.1064917874301345 0.10153997309925684 0.098464629862783121 -0.029996787916461844 0.087986432852997579 0.11562780764669452 0.083881647099824791 0.091599167421632779 0.055310135241899587 -0.044679577146841294 0.073613831316903328 0.092591961887925109 -0.020534850258536363 -0.016981779907511239 -0.045932731823821495 -0.020196147358555284 -0.062736518916982564 -0.062158982149610367 0.072480892229476498 0.074587935315199819 0.072310649452103609 0.1093354743126612 0.12093125721705218 0.063463375663275964 -0.063515542267078604 -0.033042593783592873 0.10956114860327458 -0.066963175533431007 0.10330684700651774 0.023504164746249792 -0.020250777292529297 -0.066793888925614026 -0.065468006478526561 0.088620528907613697 -0.02959686294452106 0.12075335319743979 -0.062076468031596881 0.026526667819913027 -0.066167788570234295 0.16991812372090831 0.065240281043093734 0.068027766535647613 -0.063722219274646524 0.078494284480090631 -0.040414627947683156 -0.04534370959245914 -0.026513625335289809 -0.018281978387234984 0.092416372515919304 -0.032530581684459284
leaf_weight=1645696.5282248855 56875.062372628599 325805.5380859375 259838.92875671387 15090.781173706055 6220.9615780413151 8760.6420753002167 121130.54436215758 5826.3102035522461 36301.379516601562 227021.45971679688 6508.3348846435547 32486.1669921875 8191123.9466781616 2827616.2387344837 198546.96073532104 12948.360912322998 27759.587631225586 15122.86279296875 32980.908306121826 69451.855545043945 7969.0182037353516 75619.144683837891 19023.444274902344 28467.283462524414 81646.5576171875 12806.329238891602 115006.48390197754 118250.24032711983 27911.614303588867 30871.29638671875 20086.602951049805 12897.4248046875 113925.52406311035 588513.33697509766 19425.708847045898 26992.616668701172 39236.217376708984 117429.32139587402 14546.211364746094 12204.74951171875 258350.89222335815 28947.591430664062 18435.243949890137 7105.3160934448242 41070.437347412109 22000.892646789551 27345.925283432007 16531.365875244141 10357.127792358398 19488.501190185547 2272.3957930803299 3797.8883064985275 94810.451019287109 15231.654289245605 8911.8107032775879 33433.452968597412 73823.395126342773 180644.55214691162 72691.555347442627 56577.331607818604 53504.226356506348 14208.064422607422
leaf_count=38384 996 14896 2120 7 17 13 483 42 22 158 13 225 2377 1991 184 131 82 7 77 68 23 301 24 75 1078 45 366 5286 91 72 28 15 226 588 9 38 126 770 12 50 359 204 123 293 235 70 543 10 33 31 38 11 323 114 42 84 255 763 236 174 73 51
internal_value=0.0791945 0.0257122 0.051703 0.0602431 0.101334 0.102023 0.0427913 0.0713204 0.0878073 0.0657302 0.0334986 0.0992861 0.10329 0.0953113 0.0569523 0.0253245 0.0504715 -0.0106194 0.0621033 0.0727532 0.0376434 -0.00934766 7.42981e-05 0.0246737 0.00700073 -0.011411 -0.0149628 -0.0126195 -0.0221745 0.000853229 0.0230134 -0.0193352 0.0618693 0.10725 0.0316764 0.0198511 -0.011763 -0.026025 0.0503157 0.023858 0.0878707 0.0952662 0.0465452 0.0123382 -0.0458405 0.036632 0.00495204 0.059803 0.026703 0.0736548 -0.0269846 0.0815428 0.080291 -0.00714925 -0.00402062 0.0485631 -0.0184658 -0.0365274 -0.00540156 0.00772053 0.0277427 0.0661986
internal_weight=1.66655e+07 4.87905e+06 2.72433e+06 2.39852e+06 1.17864e+07 1.17235e+07 245602 2.0256e+06 1.13112e+06 529680 270172 259508 1.14779e+07 3.28676e+06 459147 260600 894476 139061 622432 484558 145844 133727 372919 137873 109406 76392 252685 124471 233662 118655 87784.1 40809 126874 601445 120234 105143 66228.8 123938 27352.5 272044 338715 287298 51416.2 12931.6 49039.5 58107.5 36106.6 46975.1 30443.7 38914.2 62945.3 6070.28 131112 2.15472e+06 1.68804e+06 42345.3 466681 195876 270805 196981 124290 67712.3
internal_count=75581 62914 22738 7842 12667 11622 5786 6992 2441 1518 1135 383 5836 3459 1468 1284 4551 790 2381 1146 383 927 850 1235 1160 315 639 5303 615 249 177 106 357 923 211 204 164 783 57 2170 763 563 200 335 258 626 556 71 61 40 1045 49 345 40176 38510 126 1666 877 789 534 298 124
is_linear=0
shrinkage=0.05


Tree=8
num_leaves=63
num_cat=0
split_feature=29 26 15 2 5 17 5 21 1 29 26 5 34 2 15 17 1 16 1 18 5 5 5 15 1 17 18 15 9 32 1 1 2 2 15 25 18 18 21 17 7 17 18 25 25 21 17 18 7 21 18 25 18 21 21 23 25 25 25 18 15 22
split_gain=7.04824e+06 1.46639e+06 392579 377892 290960 254226 252269 208173 221877 147511 168092 150227 135795 155710 276767 128888 80501.8 77816 62571.3 92459.8 59451.9 76430 62104.6 58360.4 54047.5 52491.8 58204.2 72307.4 51577.7 46442.9 43187.7 109363 47532 305432 101177 115602 42422.2 99694.7 52374.1 49237.4 46111.2 37607.7 36932.1 54134.2 35915.4 31977.4 48123.1 31244.4 166623 38910.2 56681.4 39950 34077.8 31276.8 71501.8 38697.9 56303.3 45094.2 34028 34017.5 52586.6 77291.1
threshold=1.0000000180025095e-35 1.0000000180025095e-35 9611.6550000000007 21.500000000000004 1.0000000180025095e-35 150.00500000000002 1.0000000180025095e-35 819.83000000000015 5932.5000000000009 1.5000000000000002 1.0000000180025095e-35 1.0000000180025095e-35 0.98000000000000009 36.500000000000007 8345.595000000003 177.41000000000003 4815.0000000000009 20454.660000000003 5004.5000000000009 0.36162153709927919 9.5000000000000018 56.000000000000007 76.500000000000014 17207.420000000002 6031.0000000000009 297.48000000000008 0.86337407242339304 4070.0050000000006 1.0000000180025095e-35 0.3939317867933011 7913.5000000000009 8028.5000000000009 36.500000000000007 21.500000000000004 12685.225000000002 12.500000000000002 2.1808405715514918 2.3315944496548817 2473.8450000000007 1850.0350000000001 136930.50000000003 2107.2100000000005 3.3962145540496 14.500000000000002 7.5000000000000009 2100.6600000000003 737.6450000000001 0.59277428086771089 325517.50000000006 2402.3350000000005 2.106445422271416 20.500000000000004 1.2522583838054069 1264.3500000000001 1211.9950000000001 3.5000000000000004 2.5000000000000004 17.500000000000004 4.5000000000000009 2.9774993963739287 14500.175000000001 6.5000000000000009
decision_type=2 2 2 2 2 2 2 2 2 2 2 2 2 2 2 2 2 2 2 2 2 2 2 2 2 2 2 2 2 2 2 2 2 2 2 2 2 2 2 2 2 2 2 2 2 2 2 2 2 2 2 2 2 2 2 2 2 2 2 2 2 2
left_child=1 4 6 -2 17 29 7 15 18 10 11 12 13 -7 -15 -3 44 30 19 -9 -6 23 -23 -22 -16 -10 -27 -28 -18 -5 32 -32 33 34 -1 -36 40 -38 39 -39 -4 -37 43 -29 -17 46 -21 48 -34 51 52 53 -51 54 -49 57 -57 58 -55 60 61 -60
right_child=3 2 36 5 20 9 -8 8 25 -11 -12 -13 -14 14 24 16 28 -19 -20 45 21 22 -24 -25 -26 26 27 42 -30 -31 31 -33 47 -35 35 41 37 38 -40 -41 -42 -43 -44 -45 -46 -47 -48 49 -50 50 -52 -53 -54 55 -56 56 -58 -59 59 -61 -62 -63
leaf_value=-0.017967512030117407 -0.026624818569293308 -0.0018541503767680043 0.039796152428081634 -0.014987868137392842 0.11007554997539715 0.10415194911777259 0.10060412107831768 0.080252011701903325 0.0094889463326687379 0.10067723956199488 0.09707620158392799 0.099116656727980174 0.093187838626526895 -0.0055004512557276473 0.046130145923226756 0.080457583685298692 0.094366496274398665 -0.061258092104826939 -0.020001316155365191 0.044766823616997742 -0.017907146179393083 0.11344962272962872 -0.053970033581961452 0.06548342014602053 0.087658679342005053 0.078224723514265432 0.089294167157594972 -0.052950268115690549 0.0071545693185784826 0.083689678328733169 0.12796241666897959 0.0027145466906180991 -0.0093826157401661493 0.1105285901987389 -0.063904261459165196 0.11116612291000641 0.10213230125340485 0.023974388695278157 0.093134106154420027 -0.061778277277074981 -0.061525284234133594 0.030583415617326117 0.11762959702821636 0.035233390609212087 -0.03648617822966798 0.054436955226782692 -0.064123977996271064 -0.011273258674056661 0.03363178862358901 0.027701830917746018 0.075129698478542048 0.011716977651216414 -0.063836620035954486 -0.0641315376166397 0.079264816276128303 0.044136362926853731 -0.050086170735269026 -0.063859663872379582 0.018307739994131159 -0.063259709738152037 0.050665743763990259 -0.054200753863730022
leaf_weight=284885.19145197794 62670.987803280354 45320.106916610152 14002.989517211914 59976.816269934177 49748.587195187807 110940.00021743774 420016.78919142485 49767.100745081902 46961.096736907959 8277434.6716690063 2110581.3682479858 416233.21417999268 260392.32075309753 210080.23948097229 144978.71548461914 10160.336051940918 455657.60383224487 52467.133544921875 149016.45698881149 14613.013229370117 49723.14106207341 46729.633876428008 6283.4988344758749 36294.79931640625 170481.818359375 271933.82695007324 41982.468856811523 30671.088874816895 17608.574932098389 14881.829577386379 23114.131221115589 70851.372863769531 862710.11060428619 69175.082611083984 18359.201171875 36631.580810546875 22429.46484375 26023.627227783203 9584.4645385742188 46916.779083251953 56670.956039428711 23943.57861328125 6978.5619506835938 40229.213584899902 18552.074356079102 14276.834854125977 33189.288864135742 368777.20012664795 304636.00865745544 22549.634857177734 32081.559173583984 147025.73810577393 18514.062805175781 22538.869384765625 23176.462646484375 17371.03889465332 181570.97030639648 38151.161804199219 101370.98335266113 19297.73681640625 50317.20068359375 57655.571105957031
leaf_count=5646 1058 3042 33 4400 90 134 493 585 1472 2504 1533 261 249 2067 161 26 743 104 2983 54 683 67 158 26 90 622 62 164 191 210 13 800 36160 77 48 27 20 61 5 117 199 32 6 123 126 26 185 3460 1488 66 41 746 54 93 66 36 733 151 334 55 74 248
internal_value=0.0749863 0.0244112 0.0595986 0.0958274 0.00305549 0.0964791 0.0670899 0.0558008 0.0377312 0.0970667 0.0883375 0.0742915 0.0627701 0.0503257 0.038963 0.0788992 0.0861898 -0.000930276 0.00121372 0.0294792 0.0631684 0.0463832 0.0936051 0.0172793 0.0685733 0.0594427 0.0654301 0.0364021 0.0911217 0.00462993 0.000202325 0.0335248 -0.000957057 0.0142231 -0.00408822 0.0460036 -0.0115038 0.00866119 -0.0167442 -0.0311835 -0.0414496 0.0793153 0.00788849 -0.00291452 0.00489739 -0.0112245 -0.0308361 -0.00385551 0.00184264 -0.00990034 0.0253343 -0.0124092 -0.0135698 -0.0164391 -0.00591948 -0.0248835 -0.0418587 -0.0132113 -0.00551823 0.000259942 0.00611561 -0.00798058
internal_weight=1.67172e+07 4.87851e+06 1.84256e+06 1.18387e+07 3.03595e+06 1.1776e+07 1.66693e+06 1.24692e+06 699619 1.17011e+07 3.42369e+06 1.31311e+06 896873 636481 525541 547299 501979 2.84717e+06 260863 111846 188780 139031 53013.1 86017.9 315461 438756 391795 119861 473266 74858.6 2.7947e+06 93965.5 2.70074e+06 432995 363820 78934.4 175628 104954 82524.9 72940.4 70673.9 60575.2 77878.9 70900.3 28712.4 62079.1 47802.3 2.26774e+06 1.16735e+06 1.1004e+06 73145.3 1.02725e+06 41063.7 880227 391954 488274 198942 289332 251180 228641 209344 159027
internal_count=75581 62914 11338 12667 51576 11609 10903 10410 6282 6999 4495 2962 2701 2452 2318 4128 1086 50552 3833 850 1024 934 225 709 251 2449 977 355 934 4610 50448 813 49635 5830 5753 107 435 203 183 178 232 59 293 287 152 265 239 43805 37648 6157 161 5996 120 5250 3526 1724 769 955 804 711 656 582
is_linear=0
shrinkage=0.05


end of trees

feature_importances:
amount_ratio_vs_baseline=63
distance_from_home_km=58
time_since_last_txn_min=41
client_baseline_amount=39
DE18_merchant_category_code=38
amount_local=32
amount_usd=30
amount_zscore_customer=30
hour_local=27
DE22_pos_entry_mode=25
DE39_response_code=23
DE123_pos_data_code=22
DE4_amount_transaction=21
DE6_amount_cardholder_billing=16
amount_tx_currency=15
txn_count_last_24h=12
DE9_conversion_rate_billing=11
day_of_week=10
client_segment=7
DE52_pin_data_present=6
is_international=6
DE60_pos_terminal_type=5
DE25_pos_condition_code=4
DE55_emv_data_present=3
velocity_ratio_1h_24h=3
DE23_card_seq_number=2
txn_count_last_1h=2
intl_high_zscore=2
DE3_processing_code=1
DE61_pos_extended_data=1
card_brand=1
channel=1
velocity_x_zscore=1

parameters:
[boosting: gbdt]
[objective: binary]
[metric: custom]
[tree_learner: serial]
[device_type: gpu]
[data_sample_strategy: bagging]
[data: ]
[valid: ]
[num_iterations: 1000]
[learning_rate: 0.05]
[num_leaves: 63]
[num_threads: 0]
[seed: 22]
[deterministic: 0]
[force_col_wise: 1]
[force_row_wise: 0]
[histogram_pool_size: -1]
[max_depth: -1]
[min_data_in_leaf: 20]
[min_sum_hessian_in_leaf: 0.001]
[bagging_fraction: 0.8]
[pos_bagging_fraction: 1]
[neg_bagging_fraction: 1]
[bagging_freq: 0]
[bagging_seed: 14808]
[bagging_by_query: 0]
[feature_fraction: 0.8]
[feature_fraction_bynode: 1]
[feature_fraction_seed: 7542]
[extra_trees: 0]
[extra_seed: 32649]
[early_stopping_round: 0]
[early_stopping_min_delta: 0]
[first_metric_only: 0]
[max_delta_step: 0]
[lambda_l1: 0.1]
[lambda_l2: 1]
[linear_lambda: 0]
[min_gain_to_split: 0]
[drop_rate: 0.1]
[max_drop: 50]
[skip_drop: 0.5]
[xgboost_dart_mode: 0]
[uniform_drop: 0]
[drop_seed: 21034]
[top_rate: 0.2]
[other_rate: 0.1]
[min_data_per_group: 100]
[max_cat_threshold: 32]
[cat_l2: 10]
[cat_smooth: 10]
[max_cat_to_onehot: 4]
[top_k: 20]
[monotone_constraints: ]
[monotone_constraints_method: basic]
[monotone_penalty: 0]
[feature_contri: ]
[forcedsplits_filename: ]
[refit_decay_rate: 0.9]
[cegb_tradeoff: 1]
[cegb_penalty_split: 0]
[cegb_penalty_feature_lazy: ]
[cegb_penalty_feature_coupled: ]
[path_smooth: 0]
[interaction_constraints: ]
[verbosity: -1]
[saved_feature_importance_type: 0]
[use_quantized_grad: 0]
[num_grad_quant_bins: 4]
[quant_train_renew_leaf: 0]
[stochastic_rounding: 1]
[linear_tree: 0]
[max_bin: 255]
[max_bin_by_feature: ]
[min_data_in_bin: 3]
[bin_construct_sample_cnt: 200000]
[data_random_seed: 110]
[is_enable_sparse: 1]
[enable_bundle: 1]
[use_missing: 1]
[zero_as_missing: 0]
[feature_pre_filter: 1]
[pre_partition: 0]
[two_round: 0]
[header: 0]
[label_column: ]
[weight_column: ]
[group_column: ]
[ignore_column: ]
[categorical_feature: ]
[forcedbins_filename: ]
[precise_float_parser: 0]
[parser_config_file: ]
[objective_seed: 6399]
[num_class: 1]
[is_unbalance: 0]
[scale_pos_weight: 10]
[sigmoid: 1]
[boost_from_average: 1]
[reg_sqrt: 0]
[alpha: 0.9]
[fair_c: 1]
[poisson_max_delta_step: 0.7]
[tweedie_variance_power: 1.5]
[lambdarank_truncation_level: 30]
[lambdarank_norm: 1]
[label_gain: ]
[lambdarank_position_bias_regularization: 0]
[eval_at: ]
[multi_error_top_k: 1]
[auc_mu_weights: ]
[num_machines: 1]
[local_listen_port: 12400]
[time_out: 120]
[machine_list_filename: ]
[machines: ]
[gpu_platform_id: 0]
[gpu_device_id: 0]
[gpu_use_dp: 0]
[num_gpu: 1]

end of parameters

pandas_categorical:[]
